4 0 4 4
10
min
64
relu
relu
relu
relu
relu
relu
relu
relu
relu
relu
relu
sigmoid
128 64
0.035043884 0.027559677 0.10270359 -0.043892547 0.027066492 0.089359224 0.11004066 0.13284934 -0.1353568 0.08979814 -0.055508833 0.08076676 -0.10400951 0.04192325 -0.26261815 0.12350987 -0.062926866 0.0430363 0.11769793 0.19091226 0.011756332 -0.08972501 -0.11572713 0.20489681 0.119605176 0.06465973 -0.13614005 0.013418574 0.042338192 0.011976771 -0.015167932 -0.12903203 0.04800683 -0.1294183 0.0026518523 0.027608775 0.15775703 0.12955146 0.08775545 0.10677676 -0.12013738 -0.028448546 -0.079291806 0.08389038 -0.0847245 -0.1800069 -0.044244613 0.032183345 0.19270574 -0.088919915 -0.113870785 0.14276713 0.0048466693 -0.07610774 0.08798401 0.19207221 -0.08002445 0.0065073376 0.0028301436 -0.115991145 0.006620844 -0.0018831722 -0.021014035 0.03609139 
-0.028925491 0.13960995 0.0977193 0.013615836 -0.05521848 -0.14380188 0.0828865 0.013080586 -0.05888396 0.21654393 0.08441437 -0.04197872 -0.010917759 0.010761188 -0.095787525 -0.15197554 -0.07951863 -0.020221537 0.027438559 0.14332211 0.08390198 0.12523928 0.15887114 0.056663726 -0.029944343 -0.1110277 -0.17487204 -0.009350157 -0.038225997 0.030225158 0.060999192 -0.13560134 -0.07848802 0.10852104 0.10088229 0.15645564 -0.14495718 0.093058884 -0.069190755 0.09389393 -0.07347123 0.13970156 -0.10398665 -0.20293748 -0.041371047 -0.14289293 0.08105063 0.07370121 0.113649696 0.061097596 -0.15775767 0.08959618 -0.03607835 -0.054408494 0.020843495 0.07487231 -0.098242894 0.092226684 0.06526392 -0.036116038 -0.01947515 0.077310875 0.10774291 0.16094019 
0.08311252 -0.10834391 -0.007750728 0.1502068 0.15073235 0.024139399 -0.07982982 0.052532133 -0.053488277 0.052982092 -0.13505335 -0.03770085 0.26245192 0.20845409 0.27956226 -0.16157068 0.08972551 0.055922147 -0.13746572 0.1382561 0.023311691 -0.14823703 0.15809198 0.11674699 -0.025161374 0.09556291 0.16098906 -0.14972529 0.042206787 0.22035828 0.20332384 0.15292251 -0.047955774 0.0033839953 -0.042738363 0.072290756 -0.12238293 0.056436382 0.14108245 0.03235412 0.31121388 0.04097162 0.007077925 0.031686608 -0.027751682 0.09769877 0.09040578 0.13070284 0.1910593 -0.018386405 0.049971223 0.14394288 0.0029800476 -0.03619836 -0.09457407 -0.030948266 -0.008864013 -0.18890835 -0.08718583 0.07275739 0.060291387 -0.022171026 -0.031003457 -0.042762954 
0.1170068 0.1021265 -0.18380904 0.059581272 -0.0094129285 0.009245154 -0.03210788 -0.06916223 0.006454931 0.0014611118 -0.09646309 -0.07020712 0.13650271 -0.07768954 -0.20187812 0.057210717 -0.11733457 -0.16524692 0.13154551 -0.043307565 -0.044952545 -0.108070485 0.047788206 0.08919186 -0.15928532 0.045906346 -0.014768464 -0.102461435 -0.09393748 -0.02053532 -0.049339786 -0.13613689 0.100480475 -0.2052629 0.10642642 0.13134024 0.08753596 -0.06422124 -0.028625771 -0.09319924 -0.0030850554 -0.080813505 0.045376793 0.08918209 -0.09942158 -0.17021672 -0.1739803 -0.004874755 0.041427165 0.11375124 -0.07387214 -0.10594409 0.033390142 -0.034341052 -0.17769234 0.1305674 -0.07336541 -0.08426033 -0.0072164237 -0.08488575 0.10446548 0.08467294 -0.1462451 0.076840594 
0.030871151 -0.038761545 0.07196968 0.05669877 -0.12742339 -0.14007473 0.11498835 0.04297914 0.14955296 0.11393498 0.08052454 0.12956472 -0.17649265 -0.11153213 0.1449026 0.070809305 0.14079244 0.016235746 -0.03261255 0.1377406 -0.019018766 0.024696687 -0.05522368 -0.020208657 -0.14165865 0.14315286 0.03263458 0.13212834 -0.009560207 -0.012958676 0.033870418 -0.22936669 0.12112714 0.10167024 -0.007898615 -0.16068879 0.14161322 0.11808836 0.012958184 -0.035423543 -0.1824574 0.08991905 0.07469389 0.06684293 0.15611002 -0.09840735 0.16116 -0.048802443 0.04512131 0.018009668 0.013731198 -0.0050290297 -0.014491842 -0.132926 0.07380871 0.0793229 0.17314495 -0.08333786 -0.14475243 0.16246326 -0.11029182 0.04019233 0.1405366 0.053526003 
-0.13082924 0.028582314 0.05544114 0.049558934 -0.014088191 0.18361257 0.11902263 0.023118762 0.11010834 0.07581168 -0.016400486 -0.11420426 0.11655232 0.058179498 -0.1280604 -0.07354243 -0.013730735 0.06220999 0.16648097 0.11660038 0.110150255 -0.071329415 -0.094763875 0.16082563 0.061388224 -0.097875826 -0.09410267 0.09488419 0.16896288 0.04077055 0.06425924 -0.13299619 -0.08080928 0.052324276 -0.023867829 0.18328075 -0.042223927 -0.106078476 0.20258105 -0.13115814 -0.18286328 -0.15007 -0.14746352 -0.1957937 -0.01970823 -0.25652105 0.01682231 0.13653187 0.14641401 0.027858336 -0.07218298 -0.08425823 0.10746437 -0.08311102 -0.08004087 0.082559615 -0.14073078 -0.11643885 0.056129675 0.06755996 -0.109221265 0.09002808 0.07748351 0.009457134 
0.1386313 0.16327325 -0.042847298 0.12667783 0.17795 -0.11873786 -0.13136289 -0.025964845 -0.032275632 0.12796387 0.10350681 -0.058285058 -0.05347655 0.14263077 0.04426144 0.1046654 -0.126911 0.04792976 -0.14585778 -0.073398456 -0.118303135 -0.15077789 0.02804056 0.0001929138 0.15268198 0.07717962 -0.1462963 0.13249588 -0.044884652 -0.059167698 -0.14667696 0.00595883 -0.17190579 0.04134613 0.12495238 0.049215864 -0.07106899 -0.15097995 -0.051455878 -0.08950527 -0.013453278 -0.060803417 -0.0058438326 -0.13906091 0.14305049 -0.16065809 0.01421508 0.0086679505 0.105900764 -0.13097188 0.018481998 0.16314898 0.023320885 0.11247233 -0.1036402 -0.12526938 0.021938106 -0.14432299 0.1690072 0.1450556 -0.053352628 -0.14292812 -0.12156792 0.14277017 
-0.16280793 0.06621808 -0.11563061 -0.05624909 0.13280854 0.10009149 0.09844665 0.08096333 -0.15688898 0.13060807 0.059524518 -0.065750055 0.11682014 -0.06632013 -0.12941605 0.13404994 0.18872088 0.051386744 -0.16402611 -0.022265796 0.1097799 -0.00412747 -0.12297717 -0.047292005 -0.11158183 0.12034376 -0.015850391 0.10314993 -0.058524814 0.105221994 -0.019141868 -0.16236725 -0.21376793 -0.047194507 0.14352159 0.14447334 -0.114953265 0.12958434 -0.19773157 0.15057915 -0.19541211 0.061239634 -0.16403332 -0.016755838 0.16599958 -0.13252933 0.20560183 0.059372474 0.18114825 -0.092760965 -0.16307737 -0.04951091 -0.14747097 -0.019536993 0.13966553 -0.038920164 -0.06316338 -0.022915477 0.116852954 0.13520776 -0.0076359436 0.13857944 0.002435512 0.07796536 
0.16733018 -0.1587983 0.14678615 0.03124303 -0.14214313 0.13288829 -0.05247665 0.1587704 -0.04171948 -0.08585698 0.041248765 -0.1393528 0.08575099 -0.1609523 -0.09260438 0.13674438 0.15225676 -0.08017193 -0.12933303 0.15719448 0.027030034 -0.09540556 0.044234738 -0.04922206 -0.01909478 -0.044544943 0.10074957 -0.11237023 -0.10613863 0.00011385943 -0.122723766 0.10496429 0.09216748 0.11413978 -0.08974251 -0.1496869 -0.0027884468 -0.022411358 0.03607048 -0.17148712 0.028024938 0.15154856 0.055258937 -0.0877607 0.07196371 -0.037544955 -0.13281064 -0.053152025 0.14604266 -0.037924264 -0.17112562 -0.13121228 0.11792875 0.01670155 0.15300974 0.04025015 0.0012559219 0.16947131 0.13418111 0.08749964 0.068245195 0.037976816 0.05347811 -0.10755613 
-0.08824865 0.122863196 0.15553491 0.047987614 0.11244338 0.19217284 -0.023406934 -0.0076724985 -0.14679442 0.06345577 0.030697085 -0.08709061 0.075685546 -0.024697559 0.10234178 -0.010829697 -0.14521092 0.11647516 -0.16498686 -0.067887515 -0.16399853 0.08387392 -0.09689691 0.13137841 0.12498049 0.08659789 -0.080693655 -0.1341473 0.16154025 0.07928497 0.15835324 -0.100654095 0.061529666 0.072015435 0.16346392 -0.050371867 -0.008000922 -0.09617006 -0.0291078 0.16599177 -0.12689368 0.0935656 -0.21125634 0.15106334 -0.05400234 -0.15299238 0.061779864 -0.0098268185 0.10462085 -0.15788783 -0.13838154 -0.05695052 0.008848812 -0.20201829 0.06520796 0.122523166 0.03312064 0.10151888 0.11902938 0.112694055 0.095151566 -0.017084917 0.17585161 -0.114825785 
-0.06360131 0.07039915 0.013458213 0.048830908 0.13311446 0.101360455 -0.0052905236 0.1801682 0.05129867 0.14418332 0.15580422 -0.1450472 -0.119150884 0.060642272 -0.15196757 -0.09678072 0.08420792 -0.18645594 -0.0064028706 -0.20384638 0.11266735 -0.17719424 -0.0041453154 0.16199614 -0.08767121 -0.022384191 -0.021193877 -0.009222647 -0.10795443 0.10228201 -0.08706761 -0.11475326 -0.07179868 0.086001836 -0.052830838 -0.08474228 -0.04829549 -0.0280098 0.029120121 0.031887207 -0.13926406 0.01579127 0.0015366772 0.02777158 -0.14156313 0.023477944 0.008216804 -0.105670966 -0.14577493 -0.031520825 -0.09888506 0.03159859 0.037401754 0.05561064 0.12494955 0.028226372 0.026699625 0.0028135784 0.0947274 0.13977599 -0.017784283 -0.01696112 -0.050105743 -0.028902402 
-0.0050206264 0.14152223 0.020081608 0.10944455 -0.030459749 -0.054216087 -0.15399241 -0.14286746 0.15057051 -0.10097619 -0.0008202723 -0.0028670945 0.1406254 -0.03043526 0.04480177 0.010455555 -0.15128374 -0.02957246 -0.05890768 0.18245342 -0.06157439 -0.1066443 -0.036601946 0.00025232974 0.056904614 -0.009163925 -0.034981504 0.13644582 -0.06309384 -0.004357631 0.09374718 0.08898359 -0.040250532 0.040247608 -0.0051263464 -0.057841048 0.01845576 -0.021682711 0.12932259 0.105906196 0.018496973 -0.032117724 -0.049475815 0.10931214 0.149551 -0.14132184 0.078800604 0.11995432 -0.13249384 0.16082901 0.10763933 0.1709242 0.09078298 0.104265794 -0.10444162 -0.17062521 -0.13454868 -0.04619813 0.13388433 -0.10509801 -0.18309225 0.1067008 -0.06339623 0.1355414 
-0.12430009 0.017131327 -0.08062961 0.16943626 0.12983792 -0.07028074 0.07973514 0.07956826 -0.16373703 0.16560744 0.13062908 -0.11166524 0.013745583 -0.11792783 0.019459954 0.1548793 -0.094271846 0.10573216 -0.15698044 -0.051451746 -0.08618682 -0.098632514 -0.032824792 -0.14195514 -0.14428832 -0.07366518 -0.018914279 0.116846874 -0.09077648 -0.066161506 0.095216095 0.026474938 0.008271987 0.05569491 0.10268366 -0.16483785 -0.16743572 0.12237258 0.08432786 0.02721795 -0.034767635 0.06022461 -0.054287724 0.0030446996 -0.15320823 0.19583942 -0.015582308 0.18047005 -0.13222478 -0.05255764 0.13976753 -0.17440204 -0.080763675 -0.15083781 0.09225457 -0.11873901 -0.136723 0.14206082 -0.046136253 -0.10400967 0.09854273 -0.13720092 -0.012980301 0.09064778 
-0.050345767 -0.06877637 -0.12694906 0.15676743 0.061537433 -0.005125991 0.0063362545 0.13591625 -0.15103596 0.16264874 0.024811868 -0.12915882 0.07925439 -0.13541809 0.047056973 -0.09912873 0.009287513 0.00864499 -0.11211111 -0.075138725 -0.07672369 -0.1518143 0.028466728 0.17390753 -0.11398952 -0.12384129 -0.17036806 0.013054177 0.010916561 -0.14372385 -0.17490223 -0.0063439216 0.04802386 0.005671141 0.0008844274 -0.0018881358 -0.016951855 0.15922518 -0.058164336 0.11914089 -0.05731823 -0.003537686 -0.052756757 0.14455387 0.12894031 0.09934419 -0.13220292 0.14887358 0.1616118 0.15026455 0.0052596917 0.051992204 0.1710686 0.16846839 0.10521526 -0.0083016865 -0.06493548 -0.06149881 0.10500035 -0.0814893 -0.052021254 0.0138780195 0.14952989 -0.1296762 
-0.028110359 0.032358985 -0.00725284 -0.062106628 -0.110138215 -0.06371131 0.14234854 -0.1398212 0.007976379 -0.10308695 0.10794284 0.14142287 -0.15517317 0.040640764 0.041528802 0.16151574 0.006592696 -0.12897976 -0.037434053 -0.07105437 -0.040137455 -0.091722175 -0.01478735 -0.113839954 0.17521273 -0.026375405 0.025952455 -0.0032161665 0.124484695 0.099772595 0.1270037 0.08536895 -0.088069886 0.062125176 0.051609382 0.10105089 -0.04504079 0.0705366 0.18767685 -0.15620244 0.040462352 -0.17431869 0.0516381 0.09124016 0.035306256 -0.0869012 -0.07316367 0.11580812 -0.11624029 -0.02390298 -0.15603863 -0.19896752 -0.06118456 -0.19990751 0.16463254 -0.025860162 0.027118417 0.10690017 0.020462438 0.0123051945 -0.09613876 0.14069231 -0.04988635 0.085683 
0.06898945 -0.14486375 0.13581333 -0.03297904 0.047236193 0.057508625 -0.0028915838 0.13399792 0.10261449 0.0068747303 -0.048730906 0.116569534 0.11922602 -0.07183249 0.09017042 0.03824661 0.07665297 0.17298499 0.1004512 0.1326277 -0.060367767 0.12352889 -0.050699748 -0.13695335 -0.04115614 -0.08562114 0.13896523 0.03188368 0.1113212 -0.18676075 0.083487645 -0.24022672 -0.16241583 0.06812063 -0.065851085 -0.030170498 0.11203793 0.13880211 0.052624863 -0.1548276 0.0919752 -0.20125225 0.14954141 -0.0007595253 -0.0364441 -0.057286665 0.118662536 0.09385495 -0.17214027 -0.12996349 -0.05104819 -0.14935176 -0.07110474 0.060524475 0.05436375 0.14063962 0.1347232 0.07462968 -0.14153087 0.06437198 -0.12230704 -0.053827163 0.122384146 0.0765721 
0.006254113 -0.09204838 0.05805246 -0.12630956 -0.059443396 0.016026394 0.13079359 -0.021792531 0.04814566 0.09439897 0.21297938 -0.14051865 -0.106717065 -0.06639302 0.14457981 0.020961292 0.06524481 -0.06684133 -0.09650138 -0.15213847 -0.047285292 0.071301766 0.028329162 0.083003245 -0.06938595 0.16797328 0.05539836 0.08512985 0.21026653 0.05693391 0.067310706 0.045614574 -0.18932186 0.13723534 0.11624588 -0.17257929 -0.12684348 0.051069204 0.09555189 -0.062515676 -0.2918845 -0.04933741 0.028402619 -0.016770432 0.04002727 0.038708847 0.023602122 -0.06247848 -0.017559744 0.14298917 -0.23412465 -0.1385409 -0.019693699 0.045932703 0.00025388412 0.04314107 0.13266757 0.0114081325 -0.12461454 0.12101036 -0.090274125 -0.056963764 0.14217584 0.047616925 
0.12021194 0.07488351 0.11873273 0.15893818 -0.16191365 -0.09884838 0.004545553 0.02671722 0.14678206 -0.02049822 0.062123723 0.04396612 0.0015370594 0.017968217 -0.16877562 -0.12374994 0.15388791 -0.0011643281 0.16121644 -0.14217854 -0.07340131 -0.113990836 0.09056519 0.031848565 0.06877126 0.13578336 0.11070149 -0.13515665 -0.03854769 0.0786737 0.11315206 0.009974754 0.09967657 0.03132473 -0.026670953 0.008070756 0.064612105 0.1537789 0.023307545 -0.15047462 -0.07446726 -0.018743798 0.055248074 0.097596854 -0.09350074 0.023403984 -0.09983083 -0.029018333 0.091063954 0.052485384 -0.14694329 -0.0515152 -0.15159972 0.04652156 -0.12997876 -0.1080219 -0.16006994 -0.029551184 -0.15650201 -0.067807995 -0.053773332 -0.09760162 0.15371704 0.04165632 
-0.10872996 0.068302564 0.15582328 -0.10410531 0.10733825 0.16146843 0.15104124 -0.087047964 -0.0581958 -0.10407665 0.19451733 -0.009615943 0.05111064 -0.17593499 -0.23716027 -0.02707328 0.07533174 0.06493426 0.00077690626 0.11134744 0.16907988 0.1994422 0.030578533 -0.10131162 -0.09220617 0.05611355 -0.09854258 0.12881988 0.12693986 -0.10919763 -0.0876022 0.055257376 -0.18629082 0.008339099 -0.05785036 0.08625885 -0.1763216 -0.03787923 -0.1505186 0.024141522 -0.23036315 0.111715704 -0.10936926 0.020228753 0.053128827 -0.18512553 -0.09957956 -0.038922347 0.033226185 0.017389461 -0.085056774 0.0013194041 -0.075997375 -0.16505311 0.120815925 -0.17717233 0.044894498 0.06401377 0.17609844 0.03486766 0.082145266 -0.10502115 0.007445022 -0.07333778 
0.17942888 0.16281316 0.1900456 0.109771706 -0.048255023 -0.103060275 0.10068678 -0.077078305 0.1473209 0.09063938 0.14231046 0.15917623 0.016236298 0.10511828 -0.117186494 0.23364557 -0.044250425 -0.14493242 -0.19090277 0.15954776 -0.08020372 0.071408294 -0.13771015 -0.16706583 0.023387989 -0.013315171 0.07042329 0.040748183 0.044440445 -0.12993819 -0.05745864 -0.0039054565 -0.14314386 0.034803364 0.147845 0.031930406 0.06658402 -0.13844346 -0.057342965 0.1563947 0.052761104 -0.16453949 0.100982204 -0.016391322 -0.0842876 -0.1358193 -0.09809946 0.032285437 -0.038853727 -0.14968547 -0.04363608 0.11344683 -0.15266904 0.00024236634 0.022750342 -0.10112897 -0.071493484 0.09906042 0.09128215 -0.17311409 -0.105814315 -0.13638794 0.025922684 0.1167189 
-0.1687253 -0.00094024837 0.1750287 0.14184518 -0.10156328 -0.09703861 -0.058681794 -0.081074685 -0.08771269 0.02897092 0.045640007 -0.0907291 0.098755434 0.10650255 0.046219997 0.17390539 -0.0720329 -0.0033007711 -0.07553929 0.051386733 0.03448168 0.10413406 0.14354745 -0.15336654 -0.002747967 0.1403066 -0.10232947 0.017724767 -0.022546843 0.16588445 -0.027829856 -0.16412812 -0.13193168 -0.1614597 0.13518213 0.10942979 0.14630838 0.06424568 -0.15936738 0.06951475 -0.061351042 0.0076865703 0.06614466 -0.11764721 -0.123085186 -0.17486927 0.022677211 -0.07658866 0.13430701 -0.07053178 0.089367 0.04985462 0.06363351 0.110480614 -0.06956856 0.047830597 -0.045313895 -0.16177882 -0.121293865 0.038385287 0.13759118 0.14661404 0.06624077 0.036653586 
0.16873245 -0.0075489143 0.0574015 -0.14302826 0.026352378 0.070878886 0.16773224 -0.10712841 -0.14297758 0.040004887 0.12266722 0.007625252 0.15384638 0.047221877 -0.028179977 -0.12165862 -0.050972458 -0.030488381 0.12863076 -0.16145684 0.102691926 0.05005052 -0.08706241 0.08011675 -0.15939003 -0.082820155 0.10994015 0.12554584 0.12883991 -0.07232768 -0.09882195 0.04793155 -0.03205915 0.057344384 0.027159765 -0.13489042 -0.08356122 0.061687022 -0.17455772 0.0822057 0.03109475 0.03366912 0.033985354 -0.06441172 -0.121125646 -0.07461553 0.15534252 -0.102833815 -0.038620103 -0.039901067 -0.12976508 0.038844995 0.13418953 0.083029725 -0.006309144 -0.049722455 -0.003101807 0.02518268 -0.008992104 0.12436964 0.15560462 0.09436595 0.03605253 0.007207142 
-0.082452975 0.03976926 -0.13710003 -0.12166514 0.033583045 0.0991532 0.05980563 -0.11305021 0.13693887 0.12725256 0.09682285 0.17298454 -0.074357055 0.061249737 0.046344522 0.011719396 -0.07262582 0.19034022 0.14386007 0.06872727 -0.05629855 0.087385304 0.14727595 -0.051471643 0.23166631 0.17451918 -0.121514395 -0.0016519254 0.089183025 0.1343973 -0.043969344 0.05092333 -0.042005002 0.29427946 -0.05320906 -0.020760847 0.08349327 0.01745182 -0.048103094 -0.02160847 -0.17544319 -0.0745073 0.1777312 -0.065393895 -0.12436197 0.15059896 0.06923848 -0.07425123 0.12895027 -0.049647197 -0.20060985 0.075634114 0.191446 0.31990942 -0.0039046393 -0.07314624 -0.16567689 0.18451703 0.12167558 0.0946582 -0.10743656 0.11429665 0.0387615 0.027924322 
-0.015128878 0.08461707 0.07345412 -0.013920228 0.090079956 0.084217794 0.01757968 -0.12163035 0.055868633 -0.15529414 -0.21469893 0.08803011 -0.13948831 0.05526709 0.076584056 -0.045231197 0.048026387 0.031662624 0.17917737 0.07476554 -0.1773977 0.020609211 -0.146249 -0.034602772 -0.15418452 -0.08713118 -0.019867383 -0.110518366 0.030234525 -0.04958203 0.017607925 -0.006264793 0.058877844 -0.1509418 -0.1222831 -0.13647535 0.09398266 0.11365196 -0.15248212 -0.12322364 -0.015386998 0.005129069 -0.18383674 -0.033023715 -0.021855893 -0.13857348 0.104881555 0.14778018 0.08681456 0.13408375 0.07639786 0.006151755 0.026174199 -0.109279014 0.039243337 0.07592684 0.017444255 0.098481566 0.054956593 -0.1516809 -0.0496041 -0.06656859 -0.076576866 0.04656225 
0.16359985 -0.17993672 0.11249746 -0.021058006 0.0626415 0.062418666 0.023175918 0.15545738 0.12586048 0.043488726 0.14645 -0.029715333 0.2065594 0.18466665 0.07587826 -0.16459769 0.076658994 0.034365978 -0.038511224 0.040995494 -0.052850295 -0.006651542 -0.07407975 0.18569487 -0.1358757 -0.1281076 0.11675735 0.050645925 0.0261289 -0.04757278 0.0046612234 -0.11175669 -0.07410956 0.09307708 0.15629286 0.07127671 0.16754572 0.06735403 0.056251615 -0.119357124 0.090687394 -0.11871224 0.130562 0.049011625 0.053129017 -0.0986987 0.044033185 -0.18552639 -0.06535075 -0.077445894 0.14252077 0.022915078 -0.04525064 0.1860211 0.0007990678 -0.12006173 -0.17021984 0.19459029 0.08707499 0.16738936 0.030804783 -0.116601676 -0.121446945 0.14746748 
-0.12222341 -0.08427574 0.06942584 0.108987436 -0.03140559 0.165756 0.10340996 0.062337656 -0.058019064 0.031364847 -0.07220743 -0.037182547 -0.09234737 0.04371734 -0.14146513 0.042760685 -0.004359647 0.015384686 -0.096469834 0.0514375 0.11112085 0.038279455 0.08926475 0.0886093 -0.07197554 -0.057722423 -0.04535739 0.0642573 -0.040252436 0.08015737 0.124869965 0.030647527 0.099240884 0.004710604 -0.1694095 0.06353886 0.108301595 0.16103919 -0.03472951 -0.13752364 -0.12063493 0.107074395 -0.10222365 -0.11438456 0.15910631 -0.10661658 -0.04923135 -0.13889332 -0.05714149 -0.11332863 0.11247307 0.1103537 -0.022110965 -0.00028488005 0.14940444 -0.11892358 -0.11052319 0.018369794 0.07206495 0.13059393 -0.042140987 -0.1657772 0.04694209 -0.0950052 
-0.009414327 -0.17359488 0.09106593 -0.12241087 -0.14955433 0.067357 -0.15442619 0.15439266 -0.00864763 -0.07546581 -0.09733592 0.03232311 -0.13354193 -0.09771716 -0.016103115 0.11213689 -0.06671623 0.15449011 -0.057829406 0.12653972 -0.1061108 -0.071135126 0.14287946 -0.062451307 0.035710644 0.096961334 0.031718742 0.049416084 0.12811509 -0.101256914 0.09581259 -0.21170363 0.01980301 -0.032903258 0.15358728 0.027725346 -0.1277033 0.19423643 -0.01226037 -3.5383935e-05 0.14373139 0.07953879 -0.03624386 -0.028741978 -0.07086035 0.09057713 -0.16967821 0.11273477 -0.071885444 0.036118675 0.020675281 0.17367357 0.09939675 0.060299806 -0.14447369 0.034656696 0.013783097 0.11308421 -0.0036793733 -0.0063335076 -0.07115297 0.06675026 0.061589275 0.17896263 
0.020054154 0.021708261 0.15463263 -0.064818814 -0.15900277 0.1786754 -0.012382842 0.08607821 -0.20517536 0.1117486 0.07828601 0.11183966 -0.19265556 -0.14127016 -0.1532681 -0.08359639 -0.12442096 -0.13247415 -0.1340485 -0.04518517 0.15887792 -0.0006511482 -0.086986594 0.1778822 0.13193677 -0.04860882 -0.1778247 0.13898331 -0.03279864 -0.13665757 0.17413083 -0.08477265 -0.054815207 0.0020120044 -0.07676974 0.1561326 -0.031378526 0.08737596 -0.01411608 -0.099055566 -0.18639119 0.0317496 -0.12864228 0.093932524 0.16420577 -0.105550304 0.13841414 0.18214753 -0.08533393 0.14811331 -0.03857325 0.09931194 0.1585706 0.20022337 0.096223995 -0.031572532 0.11727484 0.07393882 0.19000906 -0.1784092 0.014460359 -0.042476527 -0.049168773 0.010015512 
-0.07617735 -0.14438696 0.044368643 0.0983897 -0.16100618 0.17426048 0.1743866 -0.111883424 -0.07862737 0.07057304 0.015497564 0.022922168 -0.032373987 -0.034177557 -0.11354696 0.11875069 0.11603321 0.06333275 -0.07129874 0.0287956 0.11202674 -0.07798622 0.02973652 0.008802604 0.10559042 -0.073555924 -0.0054942043 -0.0976449 -0.053378623 -0.08410813 -0.14847489 -0.23438887 -0.18461132 -0.001069849 0.202198 0.13325289 -0.075753614 -0.1001815 -0.19144207 0.12901157 -0.20713715 -0.0426986 0.08862064 0.13712202 0.083070956 0.062188067 -0.09505496 -0.1671657 -0.05020068 -0.14610648 -0.03522075 0.12996277 0.04170057 -0.19515476 0.06262296 -0.019082649 0.16580592 -0.0079826545 0.11518049 0.04136218 0.16595112 -0.14022364 -0.11344684 -0.1427837 
0.13319077 -0.0029575191 -0.056737352 0.047776435 -0.11853494 0.15290406 -0.06620443 -0.07466179 -0.10100467 0.13234693 0.046232704 -0.08384127 -0.032289032 0.07557393 0.20693181 0.111312106 0.08053788 -0.015634956 -0.047708213 0.0075687543 -0.03959554 0.11146291 0.0777189 -0.036611557 0.010923922 -0.08447885 0.1634352 0.13792232 -0.06529656 0.037892647 -0.0951147 0.14514126 0.18280424 0.2175632 -0.14951988 -0.00031728734 0.14228098 -0.033589672 0.26119673 0.023469813 -0.005502258 -0.07532801 0.11732878 0.17329657 0.1422102 0.16380717 0.00929871 -0.02343843 -0.031326108 0.011002041 0.072720364 -0.15838699 -0.102683984 0.0997275 0.017931098 -0.15751195 -0.0027898862 -0.051895797 -0.09698987 0.10729959 -0.079981424 0.031607974 -0.040175613 -0.12845473 
-0.06424692 0.1637998 0.1306308 -0.16319926 0.049339004 0.004531082 0.0013251408 0.09586125 -0.119420566 0.14512531 0.05308516 -0.11125104 -0.041881427 0.25289324 -0.15064533 0.053691253 0.017969992 0.1418117 0.030521752 -0.04020597 0.15611048 0.021654783 -0.16899441 0.1687878 0.038980003 0.05933942 -0.1306541 0.11057413 0.007210325 -0.06302743 0.17249914 -0.11899444 0.10350516 -0.097406164 -0.0868917 -0.03735256 -0.05385505 0.071373865 0.15717179 -0.13065521 -0.13503338 -0.13764016 -0.06672256 -0.017430656 -0.021851003 -0.008323323 0.08090059 -0.045416255 -0.17527029 -0.025610143 -0.100517064 0.12838253 -0.05295181 0.090039805 -0.18318579 -0.078497 -0.068758585 -0.09596753 -0.055085808 -0.13759097 0.011078621 -0.039964408 0.023233963 -0.1100696 
-0.10860873 0.1476942 -0.08037731 -0.05136431 0.082407594 0.107076205 0.024340214 -0.011615112 -0.13689332 0.081647895 0.14642891 0.22307824 -0.29679868 -0.030983811 -0.06976901 -0.096049525 0.035470273 -0.20984331 0.066757895 -0.111293435 0.0053764796 -0.040530216 -0.016463216 0.12160923 0.12875375 0.08810778 0.10129789 0.06089646 -0.07559216 -0.1525517 0.017038202 0.15407962 -0.14284782 0.058241062 0.06570216 -0.09238872 -0.020658256 -0.09828713 -0.13309196 0.06342427 -0.17734943 -0.14569741 0.058590356 0.028602893 0.12087638 0.14382818 0.038407892 -0.08814907 -0.07594881 0.14066039 -0.14520332 -0.0076903934 0.04189267 0.19511826 0.12378193 0.08760433 -0.1221748 0.11424654 0.09159278 0.17238352 0.09398903 -0.16814277 0.124103926 0.067489915 
-0.13051882 0.12063443 0.15528716 0.10103835 0.118884265 -0.10888658 -0.1570692 -0.08817934 0.10231918 -0.1797661 0.016882833 -0.07784935 0.1522969 0.15280437 0.17514122 0.022756645 -0.10816034 -0.02669655 0.01782993 0.1214738 0.04085464 0.0364382 -0.109003805 0.0028037168 -0.11145116 0.05440679 -0.024432272 -0.14758702 -0.16044264 0.04710931 0.03730517 0.06370074 -0.17601651 0.08268482 -0.14194924 -0.14442582 -0.015081308 0.084684774 0.005605848 -0.09747642 0.077457964 0.065371946 -0.107644625 -0.015774373 -0.13186139 -0.14430164 -0.05488909 -0.14865655 -0.080084406 -0.16688871 0.018479383 -0.1665044 0.011230019 0.058733057 0.11412075 0.13352565 -0.053730037 0.05017387 -0.07414592 -0.054891713 0.13616355 0.14167675 0.15601067 0.080719 
0.1418497 0.047326695 0.050335053 -0.11652383 -0.039372485 0.0052455254 0.07249947 0.029799083 -0.02393867 0.1231065 -0.030621218 -0.05780008 -0.09028601 0.027574608 -0.19576168 0.07079843 0.17102563 -0.10443813 -0.076705106 -0.0818345 -0.15791707 -0.025668206 -0.14811416 0.027972456 0.015759783 0.0042512156 -0.14767271 -0.13891341 0.11669281 -0.13748994 -0.07061296 0.094194606 -0.010683269 -0.09397369 -0.16384691 0.1844494 0.15143175 0.14362764 0.16024591 0.016095538 -0.030140705 0.17757383 -0.004437741 -0.1336934 -0.13444866 -0.26951945 0.09391588 -0.15014178 0.099160776 0.11814411 -0.18921329 -0.115700416 0.091334395 -0.06585148 -0.13080928 -0.18210748 0.021306708 -0.026865525 -0.09560873 0.029404357 0.09038082 0.004442935 0.11976344 -0.08367998 
-0.07671132 -0.024543377 0.013376686 -0.06300625 -0.06557177 -0.08014373 -0.054807287 -0.10140844 -0.15024686 0.16113026 0.13357443 0.061364207 -0.13408625 -0.04070501 -0.08712569 -0.112156026 -0.07500423 -0.051107295 -0.081570104 -0.11493778 0.043066517 0.14484058 0.045216758 -0.106298104 -0.09453273 -0.15133768 0.049173906 0.012137206 0.14851786 0.1613346 -0.14708053 -0.15590729 0.07356344 0.03331652 0.103162825 -0.074374326 0.044739187 -0.02392003 -0.10243985 0.11237874 0.08256577 -0.10664532 0.021466345 0.05302106 -0.054156337 0.049494177 -0.06159338 -0.059004255 0.15153469 0.06525142 0.06382401 0.099138156 -0.094522014 0.13573621 -0.095104806 -0.12823638 0.058018893 -0.10751678 -0.09630465 -0.09499603 0.15309468 -0.08597319 -0.120473064 -0.17323937 
0.13524313 0.007365974 0.094995886 -0.032182638 0.17809473 -0.08939633 -0.13336878 -0.11731549 0.06342112 0.002467479 0.1431165 -0.015899464 0.038777 0.24141404 0.05297299 -0.025849596 -0.009939853 0.13634713 -0.020358184 -0.03145676 0.0508877 0.07784375 0.0059740865 0.17481256 0.07989662 -0.039428674 0.01942661 -0.0547201 -0.0623698 -0.17322305 -0.05674665 0.13030049 -0.117511734 -0.09164539 0.0883964 -0.1534544 0.11748888 -0.12947498 -0.2004722 -0.06648732 -0.001711329 0.09048727 0.0960586 0.13861066 -0.058870357 -0.07555172 0.096845575 -0.113825925 0.18278018 0.09347835 -0.21037048 -0.10112445 0.020168005 -0.033608485 -0.07929227 0.0598813 -0.060435582 0.16198365 0.09124909 -0.0993485 0.023473088 0.10393541 -0.12403829 -0.06228806 
-0.13371417 0.02885198 -0.061662853 -0.1383355 -0.025418993 0.20785612 -0.010047629 -0.012046525 -0.029415281 0.21334341 0.18086948 -0.035607103 0.008006305 0.15767384 0.04046117 0.009051985 -0.15326972 0.25985098 0.030994458 -0.03956152 0.05169076 0.10601424 -0.06298545 0.12370225 0.022102412 0.110720865 0.10531358 0.086183436 0.05183884 0.1810944 0.10868343 0.10580837 0.2026972 -0.00067084655 0.17683978 0.07715941 -0.024871642 0.010093751 -0.19552799 0.12740424 -0.16795748 -0.058249634 -0.06559974 0.0647985 -0.06636806 -0.036746748 0.12775213 -0.11763585 -0.07167513 0.14139384 -0.037647773 0.053739082 -0.073936336 -0.07289757 -0.05495884 0.06516369 0.037793864 0.0015843983 0.14629927 0.027888397 -0.01698958 0.06386975 0.07092497 0.11246402 
0.1776853 0.0688927 -0.015212344 -0.17704363 0.10401863 -0.03691125 0.096450396 -0.09324091 0.11295512 -0.07680265 0.1566422 -0.10251018 -0.044255722 0.15639386 0.080218345 0.08825006 -0.015072332 0.06537173 0.1440021 -0.01914747 -0.005892161 0.015148907 0.09085089 0.035152998 -0.09703559 0.04524742 -0.1437936 0.1583551 0.07039023 -0.11207264 0.12923159 0.037996598 -0.14237452 -0.15188912 0.16647352 0.0442578 0.038691238 0.15148902 -0.21767256 0.09795972 -0.19149138 -0.14752857 -0.13203388 -0.13695198 0.029795695 -0.09583115 0.09476125 0.12975906 0.12627839 0.17928624 -0.24491492 0.041480683 -0.1792804 -0.003589416 0.034974948 0.013249787 -0.074937746 -0.19247146 -0.1544446 0.01697442 -0.089546144 0.048644178 0.10704208 -0.0413493 
0.124739185 -0.006920672 -0.18213736 -0.07149179 0.080298394 -0.16468368 -0.13720252 -0.099774644 -0.13601868 0.14941779 0.058709033 -0.14075229 -0.12989292 -0.058248963 0.19168337 0.1582147 0.26199657 0.019824335 0.002546878 -0.047791783 0.21018852 -0.028859071 0.12767261 0.09404794 -0.04705901 -0.07830686 -0.03440231 0.086973615 -0.051106423 -0.14742376 -0.03767083 -0.20735848 -0.20667213 0.042561248 0.15409118 0.12471268 0.17939773 0.15714788 -0.09573699 0.18021691 0.028794073 0.06842506 -0.059502747 0.16740826 0.19420195 0.013362682 0.028471144 0.14243925 -0.18467715 -0.06345615 -0.2553307 0.083733045 0.22515598 0.086078845 -0.13715383 -0.061669674 -0.08020608 -0.105593406 -0.005151243 -0.09589258 0.0296841 0.057008367 0.036555804 0.08073584 
0.22029778 0.14744937 0.09052712 -0.042223018 -0.17076801 -0.16398308 0.0869101 0.1823395 0.06032914 0.16511548 0.073802456 0.13637242 0.045542568 -0.062110066 0.051192313 0.12318554 -0.11371694 -0.16803189 0.15458566 -0.032080647 -0.13604875 0.1568022 0.1552469 0.1583117 0.15546101 0.010469149 -0.037382077 0.08362054 -0.08620182 -0.12882292 -0.011284108 0.101104334 0.15039404 0.096848786 -0.19189149 0.14370295 0.09504096 -0.065010086 0.1879057 0.009021057 -0.15639025 0.09342944 0.08259395 -0.14984299 0.019644799 -0.071394995 0.09514999 0.06526983 -0.026295632 -0.06759684 -0.23016864 -0.10164249 -0.022788232 -0.033433605 0.07838046 0.046935577 -0.16677245 0.18310851 -0.0058649876 0.08020175 0.053690784 0.07845085 -0.16783503 0.22513074 
0.1627112 -0.16965427 -0.03430139 -0.08551494 -0.06575995 -0.19812535 -0.09945333 0.06751772 0.10861796 -0.0898012 -0.16314727 0.08117316 0.08697665 0.0655485 -0.107503176 0.11398659 0.025486037 0.12548757 0.14146988 0.09431721 -0.15121046 0.12862317 0.09211053 -0.1478945 -0.119936205 -0.052146807 0.07345988 -0.033313848 0.14272168 0.030284846 0.024636718 0.078756645 -0.009144343 0.11593741 0.185947 0.08184132 0.06001278 -0.04500374 -0.18076026 -0.07895062 -0.00056377106 0.050343197 -0.05555043 -0.09057871 -0.071917176 0.10612533 -0.0074084825 -0.079624034 0.024469018 0.11651749 -0.06601697 0.09345088 0.110424474 0.046018243 0.064031385 0.18989861 0.1301783 -0.019233547 0.1409754 -0.085713685 -0.10509612 0.08249241 0.07363013 -0.14255841 
-0.107239604 -0.05713883 0.03667911 -0.061065204 -0.069742106 -0.15706655 -0.08814966 0.17547031 0.05469973 0.25187147 0.2012389 -0.008709162 -0.113134235 0.046631347 0.11885864 -0.07708984 0.081799075 0.024709262 -0.021756101 -0.07482716 0.20410304 -0.23437008 0.13022368 0.07099581 0.1671869 0.0566025 -0.11514029 -0.09649558 0.08082634 -0.08328587 0.11829826 -0.28047374 -0.03966356 -0.1448885 -0.19754802 -0.17630164 0.056293473 0.15092899 0.15237217 0.21870257 0.009159614 0.16198224 0.011136463 0.15707858 0.17070171 -0.11822387 -0.030133853 -0.033561986 0.04410579 -0.11376359 -0.012845411 0.1942417 -0.031920608 0.17393155 -0.07005756 -0.18258095 0.20391117 -0.042266402 -0.005827548 -0.00086713745 -0.0074930536 -0.07472626 0.018907277 0.07454716 
0.07456176 0.11022403 -0.15723746 -0.069000416 -0.121103816 -0.037785035 -0.0698048 -0.113656245 -0.17090952 -0.040363114 0.0036893317 -0.123927504 0.16777267 0.003342572 -0.13206933 0.0010399695 -0.05904999 -0.11747349 -0.004784204 -0.16400774 -0.00828392 -0.09395506 0.15033157 0.13241844 -0.08472278 0.08478185 -0.14632286 0.13518952 0.076051995 0.079442956 -0.17018116 0.16506895 -0.11242503 0.10861424 -0.020416278 0.11598209 0.15059154 0.113790944 -0.06488548 0.013486714 -0.10089954 0.05418039 -0.09638779 0.14339842 -0.045279764 0.10890917 -0.14284156 0.16243526 0.06859703 0.13040017 0.16762987 0.04021614 0.076718874 0.010006127 0.17439657 -0.012310734 -0.10068672 0.12714043 0.027128149 -0.021564819 0.079059616 -0.11120498 -0.038919427 -0.07368144 
0.09595406 0.14380018 -0.04342409 0.050717488 -0.053074814 -0.09739601 -0.040426254 -0.15075518 -0.007824317 -0.10010929 0.12942378 0.038574863 -0.13210812 -0.11397987 -0.0063688545 0.17297882 -0.009506913 -0.06127158 0.09339485 -0.06524275 -0.03565745 -0.036982447 -0.0657306 0.029301835 0.089671366 0.05437375 -0.07278255 0.16512363 -0.17017898 -0.1210776 0.17417789 -0.16754653 0.083777376 0.058281437 -0.023853136 0.047057662 0.044233046 -0.16699032 -0.15637623 -0.12550123 0.0039952323 0.06767781 0.032699555 -0.16766417 0.030892076 -0.084653385 0.024811031 -0.13027519 0.039843395 0.1086881 0.082579084 -0.167255 -0.077669494 -0.1576471 0.009733235 -0.0780766 0.07512143 0.0024527311 -0.12952998 -0.089038536 -0.07331798 0.082407065 -0.014544307 0.074164405 
0.13492523 0.027328247 -0.0651339 -0.11453235 0.12803183 -0.100147545 0.066579774 -0.04734649 0.08689629 -0.098580584 0.18152212 0.07751982 0.059973408 -0.08649035 0.018726543 -0.111002095 0.12230968 0.1495206 0.06846917 -0.05908598 -0.09010829 -0.101285055 -0.17799763 0.017128607 0.15226892 -0.04086469 -0.058820345 0.035955884 0.09438691 0.08325257 0.108759604 -0.09205672 0.015295105 0.14009096 0.16323896 0.028075332 -0.17151244 0.02034735 -0.20240822 0.16898604 -0.19096398 -0.030729683 -0.13640004 -0.036418844 0.10445855 -0.26429346 0.079094 -0.1192214 -0.12937433 0.018289398 -0.032581404 -0.10142927 -0.005184125 0.020161038 0.09411306 -0.12505877 -0.113201365 -0.18111405 0.22800551 0.01812127 0.07286469 0.20003006 0.2001685 -0.038243 
0.114258245 0.109531745 -0.04835841 0.17073368 -0.12828708 0.15647043 0.07699673 -0.15398291 -0.0712801 -0.11808883 -0.15698922 0.00448688 -0.0016383086 0.034408893 0.009309356 -0.059032943 0.10098127 -0.023266563 -0.14102757 -0.044185504 -0.09090646 -0.085277595 0.07594143 0.028589832 -0.13509691 0.078980416 0.12130292 0.066827804 0.09825703 0.06498026 0.07748068 0.109754436 -0.05013383 0.025862684 0.113411784 -0.15118942 -0.08477432 0.08261114 0.07940445 0.08800626 -0.013350106 -0.08967845 0.03306499 -0.08355915 0.1593758 0.14094646 0.13199012 0.053216975 0.17002723 -0.10435952 0.10819788 0.06858384 -0.17245774 0.100619346 -0.06986539 -0.074234046 -0.16392757 0.13884355 -0.17542088 -0.14656478 -0.010341144 0.16886449 -0.10198045 -0.021745076 
-0.1447395 -0.09663708 -0.12512362 -0.004295096 0.12811059 0.075065784 0.031587057 0.060875773 -0.040289134 0.14948128 -0.038219403 -0.059467897 0.096536174 -0.040490344 -0.06923504 0.10027557 0.12540688 0.121301904 0.1311029 0.1403945 -0.012654352 0.022007106 0.12468624 0.1563785 0.1271325 -0.07742763 -0.111767285 -0.012265389 -0.09069943 0.077781305 0.08105994 -0.08827619 -0.061418407 -0.16450906 0.11394132 -0.16485946 0.017174114 0.06089092 0.0914426 0.110612325 0.14361824 -0.091848515 0.005891717 0.13575265 -0.021326467 -0.039169 -0.051609248 -0.15318389 0.032244965 0.024076253 0.047612235 -0.016733482 -0.0726164 -0.078217424 -0.13223681 -0.00797119 -0.09527901 -0.056617 -0.11868145 -0.14452492 -0.03603551 -0.16232654 -0.06545649 0.07571072 
-0.09123414 -0.14741835 0.03483389 -0.06261756 -0.026409939 0.16073225 0.16357574 0.10748757 -0.07181822 -0.019295342 0.004676996 -0.067142166 0.047737956 0.15931791 -0.22986324 -0.07667451 0.10811534 0.098441556 0.0010745339 0.053496256 0.11258407 0.17690994 0.073652074 0.04422428 0.1482688 0.11168182 -0.17541716 -0.08698067 0.21970595 -0.07128085 0.03023838 0.0070857243 0.01851853 0.20255288 0.14622843 -0.14056368 0.07494858 -0.058905315 0.057995774 0.17533626 -0.25530642 -0.00848707 0.06944874 -0.18396236 -0.08048245 -0.12245678 0.1902819 0.16541712 -0.12881456 -0.0078112995 -0.25186995 -0.10083073 0.10753127 -0.05268757 0.18216167 0.16258533 -0.002818145 0.122144185 -0.021006916 -0.069896445 0.029016644 -0.06624584 0.1415335 -0.016818808 
-0.067590795 0.049150288 0.004152819 0.090627216 0.007916251 -0.021710258 0.030935578 -0.07221909 0.020478893 0.15375638 0.16954963 0.039598793 0.06712678 -0.068429954 -0.03385457 0.09897242 -0.08428114 0.07485855 -0.12262775 -0.15126461 -0.12295518 0.17115225 -0.05430367 0.1749474 -0.082733676 0.04619103 0.11865508 0.07756298 -0.04712537 0.15622921 -0.033631105 0.15012515 -0.050850537 0.15520844 0.11063474 0.12927201 0.018141342 0.0024588201 0.10153125 -0.09757105 0.027018223 -0.1285576 0.059054628 0.03409217 -0.106418625 0.041770324 -0.09036174 0.047914576 -0.0014758162 -0.16633582 -0.11683908 0.06638972 0.018511038 -0.164742 -0.13473934 0.15501879 0.17827964 -0.14007513 0.075894155 0.10068058 -0.15076365 0.12806046 -0.16992736 0.07149215 
0.07526272 -0.14093946 -0.102559894 -0.19120419 0.0012017379 0.04446579 0.1411607 0.07957099 -0.030720094 0.12584314 -0.048717022 -0.07438709 -0.18244007 0.090464346 -0.14232813 0.15003783 0.13599184 0.05230444 0.029964518 0.11100836 -0.11807792 0.11860783 0.058785006 0.04415698 0.20940444 0.13754055 -0.007997942 0.14371046 -0.09332717 0.002751497 -0.033535935 -0.070879236 -0.15783532 0.1899176 -0.0073768264 0.17358743 0.001204609 -0.117098555 -0.13385767 0.08962413 -0.06571744 0.17815574 -0.11906652 -0.10484713 0.100241564 -0.045907747 -0.041781794 0.12849954 -0.023055252 0.040668868 0.03108715 -0.17420729 -0.105510145 0.10521699 -0.019589495 0.19999409 0.158384 -0.08879137 0.16418043 -0.1571846 0.05097053 -0.069200575 0.1482958 0.10360238 
0.1729689 -0.06497145 0.19048452 0.16780932 -0.020157553 0.108855665 0.16764046 -0.13204937 -0.043389827 -0.055631053 -0.018211342 0.008932557 -0.0912822 0.022541968 -0.010322399 0.048520166 0.0014281012 0.18758772 0.046825584 0.14912994 0.17447457 0.056546703 -0.14878014 0.07914006 -0.04482546 -0.12368418 0.12180829 -0.049893025 0.053273316 0.03378204 -0.075976275 0.024705531 0.14441235 -0.064835235 0.08482237 -0.021973232 0.013264095 0.10018345 0.15287358 0.084680595 -0.10225843 0.116624124 -0.21960741 0.15301535 0.07677549 0.088089906 0.09827893 0.101715125 0.13985574 -0.06433216 -0.24386172 -0.11620554 -0.039497215 0.1049179 0.15541905 0.046959538 -0.15622278 -0.07909081 0.18576583 -0.1301036 -0.036255993 -0.15258881 -0.06950863 -0.079184294 
0.013958973 -0.09786212 -0.11807845 -0.07050886 0.060280163 0.055671018 -0.15230776 0.09054519 0.012796508 0.086639434 0.009869529 0.14166531 -0.23196226 0.006107444 0.067931235 0.09043581 0.1728641 -0.109985985 0.07742626 -0.16828535 -0.06562948 -0.05907786 -0.014315414 0.030421142 0.00028113223 0.0849284 -0.12084052 0.190647 -0.08064317 -0.23293848 0.07483699 -0.0052690054 0.0021924034 0.045840167 -0.065688446 -0.071958594 0.031993974 0.011158261 -0.22508498 -0.12863757 -0.17443894 -0.0012469556 0.038482115 -0.13605574 -0.000110390596 0.11315343 -0.043941297 0.093777664 -0.050820787 0.014574506 -0.1156537 0.122899406 0.0014098259 -0.13141012 0.072090976 0.15176354 -0.037515264 0.021055521 0.10771216 0.15619029 0.08193046 0.15049608 0.15192717 0.065149836 
0.013374388 0.092273116 0.03624678 -0.108688794 -0.08865712 -0.08473112 -0.08831459 0.1696642 0.089418635 -0.1668162 -0.030244645 -0.1611825 -0.021047734 0.13606848 0.09151677 0.014724508 0.13399841 0.093108594 0.075562015 -0.09727993 0.031274814 -0.16622724 0.114510216 0.1752218 0.13632935 -0.02048562 -0.14087608 0.10297432 -0.1683191 -0.086122885 0.084416926 0.13060255 -0.05064717 -0.12802064 -0.0064495406 0.022860877 -0.115676895 -0.11961132 0.05391665 0.020855494 0.052499734 0.06222514 0.021536453 0.14268684 0.009350226 0.0014006161 -0.007960637 -0.014497002 0.07704509 -0.16945168 0.08200563 0.14060296 0.10486057 -0.14206892 -0.110195115 0.10033774 -0.009024966 -0.021629333 -0.056407556 0.034134593 0.14231919 -0.026658947 -0.020693958 0.057947412 
0.061722513 -0.0627828 0.035743304 -0.08903601 -0.07576841 0.09878173 0.06915895 0.025553815 -0.026099034 0.09868809 0.0897883 0.18453088 0.07533203 -0.011383783 -0.19272052 0.012708226 0.05103178 -0.15133359 0.14155456 -0.13524525 0.011044303 -0.12472187 0.16803472 0.0158505 0.12656474 0.12029673 -0.020354148 -0.07728954 -0.123047575 -0.13068101 0.13831432 -0.052954182 0.016073111 -0.033184834 0.028988512 -0.0027487164 0.17436157 0.09059374 -0.04477002 -0.0422059 -0.066730306 -0.18000336 -0.07571071 -0.00842342 0.09987295 -0.13291746 0.22697428 -0.09328238 0.047560956 0.1364178 -0.113821924 -0.13402826 -0.029152105 -0.022347672 0.15460324 0.1443405 0.027927184 -0.0751054 0.020589456 0.011406393 0.108194076 0.03990648 -0.13409664 0.119854875 
-0.00020373816 -0.116463915 0.06069218 -0.026186638 -0.018987928 0.10195346 -0.048606694 -0.052926216 -0.09439331 -0.02588667 -0.06600322 -0.016501198 0.022641826 0.023984881 0.13726828 0.11036631 0.17617765 0.16179574 -0.06298891 -0.061021972 -0.16115536 -0.08118464 0.059846293 0.16304933 0.030929767 -0.004063587 -0.18072794 -0.059014708 -0.14446098 0.18547979 -0.060066886 -0.023936097 0.012464964 0.11197548 0.083596125 -0.06884975 0.16210106 0.030688757 -0.2850411 0.03615067 0.16631135 -0.12230459 -0.01724287 0.08907969 -0.114986785 -0.023256235 0.06495611 0.16454226 -0.03800641 -0.08384753 -0.03931239 -0.0896895 -0.03482581 0.15384151 0.09782461 0.022526223 -0.1471853 -0.11644327 -0.16786963 0.11979613 0.04209898 0.0493748 0.074760884 0.021001607 
0.14543995 0.010893861 -0.015092921 -0.16687846 0.14876837 -0.1076159 -0.09581269 0.18867865 0.07479141 -0.0044941716 -0.10458476 0.022242222 0.23685807 0.05984783 0.07979253 0.06178214 0.1362038 -0.08135878 0.0024449339 0.0002809684 -0.19516541 -0.048068736 0.088187754 -0.13635641 -0.17539033 -0.00801616 -0.018341126 0.021707676 -0.038483836 -0.15157579 -0.18220918 0.03987966 0.06951759 0.07401845 -0.0074588517 0.13631195 0.0027860976 -0.02875693 0.11090096 0.092181504 0.046905678 -0.025613407 -0.057222936 -0.13995671 -0.07996259 0.0036960468 -0.1502841 -0.02949458 0.003974393 0.056581818 -0.15317686 0.16208588 -0.21708064 0.034427587 -0.093673736 -0.043500982 0.19832636 0.0032796867 0.00052881945 0.036056127 0.045188293 -0.118063286 -0.02984953 -0.047325578 
-0.13366348 0.017585495 -0.09743949 -0.10786134 0.026354246 0.056262914 0.025096755 -0.070149735 0.14112504 -0.030331574 0.084084734 -0.06932992 -0.07209485 0.020167548 -0.039895482 -0.021802874 -0.07848253 0.12435891 0.070208594 0.12098196 0.14569339 0.025178373 0.15912655 -0.10132896 0.03307323 -0.06560998 0.015263438 0.024454178 0.16283771 -0.09241748 -0.024451355 -0.16943698 0.07347555 0.102118574 -0.075971946 0.06795754 0.15949112 -0.076492056 0.06644808 0.056992177 0.023667952 -0.069760315 0.05460559 0.0034993782 -0.14739573 0.070891194 -0.03542324 0.099407025 -0.13037893 0.024612695 0.15854844 -0.037316114 -0.016590577 0.13414508 0.016429719 0.16389595 -0.06395024 -0.14853416 0.07599393 -0.027624793 0.12210773 -0.086736456 0.11478087 0.08569482 
-0.06080016 0.048376102 -0.09202789 0.15177065 -0.15981945 0.051402394 -0.09137055 -0.059129655 -0.17153618 -0.025902774 0.15139976 0.09513502 -0.24284677 0.15709138 -0.064625524 -0.024797551 0.19818442 0.22371389 0.090432346 -0.012693103 0.009523522 0.24334319 -0.039191883 -0.010483981 -0.0347697 -0.081825025 -0.16481087 -0.056979463 -0.14419 -0.13167506 -0.09456606 -0.19048116 0.010591069 -0.043262027 0.15833592 -0.0066825757 -0.11134123 -0.07195152 0.0001593515 0.17078905 0.00527182 -0.08141496 0.11114205 -0.07510482 0.08790375 -0.004319468 -0.06083235 -0.11413039 -0.060672503 0.13806589 -0.07727099 0.120357856 0.084989354 -0.07229469 0.12606095 -0.10197294 0.06522396 0.15113898 -0.01939516 0.012522586 -0.13389337 0.18399757 0.16135693 0.044466965 
0.11660015 0.087244734 -0.085380204 0.15845305 0.024615493 0.13624093 -0.03933234 0.09958807 0.089743145 0.001763931 0.02112781 -0.16232337 -0.0558647 -0.07149748 -0.14954098 0.08572216 -0.028484017 0.08035777 -0.07601701 0.14788872 0.15860972 0.032938384 0.061770756 -0.010949844 0.043157037 0.07191269 -0.16672741 0.109208785 0.09528332 0.05680459 0.123313196 0.05951046 -0.14327063 -0.15474892 -0.006744577 -0.12997738 -0.1476845 -0.13781717 -0.102772765 0.023692135 0.121850625 0.025366075 -0.0745088 -0.17346989 -0.17116937 0.057593595 0.15623319 -0.058811083 0.09737618 -0.14206128 0.050772127 0.11579209 -0.083889276 -0.02985757 0.089434244 -0.17953679 -0.009498432 -0.019943722 -0.092698544 0.09410409 -0.1562072 0.16589344 -0.07689184 -0.042300206 
-0.0535942 0.043868486 0.03110784 -0.05366091 0.16728085 -0.18723926 -0.1737541 -0.06928975 0.1342366 0.10085121 -0.11417299 -0.099922664 0.13821074 0.07917187 0.07855091 -0.036392402 -0.123985566 -0.13720283 0.029179247 0.13313822 0.063018754 -0.11943194 -0.0888428 -0.1458792 -0.086455464 0.1306 -0.13257279 -0.11643317 0.033795636 0.11786993 -0.14516512 0.0021352323 0.10675025 -0.12201466 -0.086019635 -0.17223732 0.1525364 -0.052611142 0.0017956035 -0.15178506 0.1536493 0.07835987 0.12987772 0.0023600473 0.078174785 -0.070441306 -0.1464396 0.13501756 0.10940762 0.021718444 -0.040798105 0.17050333 -0.0068069287 -0.025397724 -0.023703786 0.00614593 0.13008885 -0.025478724 -0.10066523 0.11529285 -0.12804505 -0.05528338 0.037794646 0.18570948 
0.036957916 0.037025064 0.12861212 -0.11778556 -0.038912576 0.09608113 -0.12949955 -0.1686902 0.010223679 -0.08173727 0.00044483386 -0.1932719 -0.112446554 0.059332144 0.14727946 0.15605728 0.011304976 0.034668747 0.027601304 -0.07510014 0.052231807 0.10757622 -0.040129784 -0.07887741 0.068153545 0.0020852664 -0.10383189 -0.12364801 0.13581085 -0.024325991 0.04911356 0.104563184 -0.02779147 -0.10352145 0.14568058 0.029742852 -0.16738245 -0.10109693 -0.019929033 0.0049388693 -0.19522196 0.089798704 -0.11287557 0.13922213 0.040381674 -0.14035213 0.1346482 0.038863096 0.03142792 0.051739555 0.12380036 -0.121426515 0.074837334 0.0029512676 -0.1190262 0.17522314 -0.032939788 -0.103960134 -0.052752443 0.16582757 0.042205486 -0.068888016 0.055234805 -0.07909217 
0.0020195853 -0.28141463 -0.16991645 -0.18149759 0.12136765 -0.033373773 0.0021583487 -0.018179156 0.13889955 -0.18833165 -0.21596296 -0.19531591 0.11543728 -0.0058336426 0.012161843 0.09873149 0.08380854 0.08549153 -0.021083357 0.044163037 -0.23929317 0.079258844 0.05882889 0.055341545 0.15250042 -0.009853728 -0.034945905 0.08976317 -0.16678423 0.100237936 -0.0014278578 -0.19400275 -0.16746274 0.12728399 0.075136855 0.031188427 0.058491413 -0.1769352 -0.16753852 0.042129617 0.022341063 -0.12366746 -0.15410669 -0.083372265 -0.04073962 -0.23069936 -0.20020948 -0.18056357 -0.032971572 0.10806568 -0.058024365 -0.0413873 -0.1643351 -0.22891891 0.11687151 -0.1073999 -0.16733755 -0.06413458 0.0012641258 -0.1330494 -0.043421384 -0.0135539975 -0.1405785 -0.12494032 
0.14018741 -0.05134946 -0.11411977 -0.10131592 -0.117727086 0.0201582 -0.016787084 -0.1573372 -0.1730016 -0.11222906 -0.16414507 -0.06181019 -0.016313823 -0.07515119 0.08163028 -0.10943774 -0.108948536 0.17699976 0.11614992 -0.16117889 0.12941395 0.109225124 -0.0280408 0.06706297 0.13012314 -0.12251222 0.1328163 -0.076685704 -0.0762858 0.010349 -0.169946 0.04091611 0.04785608 0.11104703 0.014042084 -0.16680305 0.009348028 -0.09311049 0.041933104 0.093194805 -0.12087351 0.14721012 0.16305779 0.15630944 -0.14682405 -0.0075379075 0.049750865 0.16227919 -0.09783354 0.14707516 -0.17262277 0.100962296 0.13786954 -0.04552283 -0.12000003 -0.033414774 -0.16839421 0.03584673 0.020078763 0.02879976 0.09544548 0.1743646 -0.17086563 -0.1314624 
0.026881505 0.09412918 0.05642856 0.088637754 0.016560223 0.1311022 0.024896922 -0.16301568 0.104066424 0.033070404 0.079661384 -0.033498775 0.047530435 -0.1901221 0.0699577 0.14313176 0.021602085 0.046718746 0.09573821 0.12968472 0.0007377789 -0.03921973 -0.19542497 -0.064872205 0.044784244 -0.0005094826 -0.073460825 0.032360293 -0.17160438 -0.1000113 -0.050012507 -0.019829018 0.15216973 -0.0686831 -0.05688464 0.17969753 -0.019905332 0.06850069 -0.06188228 0.1782384 -0.041908365 -0.13305078 -0.16654766 0.067157745 0.074644856 0.019905122 0.029518165 0.15728787 0.07066446 -0.1463144 -0.1604927 0.03314713 0.14066757 -0.10782654 0.06380684 0.11214326 0.1539211 -0.088703305 0.023402516 -0.21420729 -0.14437355 0.06662996 0.14928508 0.012827 
0.23856528 0.26469496 0.1327358 -0.08315792 0.008834117 0.3134823 -0.22620632 -0.28114995 -0.0012387895 -0.070326895 0.21776149 -0.25197977 -0.076906934 -0.073920615 -0.08876928 -0.34826672 -0.31315473 0.087970376 0.081996635 0.11164379 -0.25566906 0.08720085 -0.09704906 0.11041419 -0.21926084 -0.17601639 -0.006835215 -0.08651081 0.26227307 0.17601714 0.31661925 -0.07567617 -0.043770052 -0.14397906 0.2882304 0.073074795 0.30826104 -0.22338018 -0.08867908 -0.21706942 -0.027047787 -0.14048481 0.118970715 -0.03575252 0.2185699 -0.13825129 -0.21074903 0.17608413 0.1424991 -0.025978846 -0.12258049 0.11810308 -0.055245504 0.025742931 -0.070381865 -0.15913323 0.2593181 -0.2727984 0.3332544 -0.2133014 -0.12141003 0.1165067 0.15051909 -0.16001171 
-0.033840843 0.041772846 0.14047307 -0.20137711 -0.10587399 -0.09278505 -0.29499754 0.12647437 -0.055346888 -0.17741169 -0.02854741 0.14345944 -0.09001792 -0.27946857 0.16216129 -0.15229763 -0.08196693 0.08936887 -0.033387996 -0.07317982 0.12590045 -0.29878137 -0.13158792 -0.17616123 0.10894209 -0.06376656 -0.121725515 -0.018621786 0.181396 -0.09588027 -0.16423738 0.09059047 0.08983055 0.06741948 0.106973216 0.0022876444 0.028025182 -0.03307208 0.13308561 0.010452521 0.07181092 -0.07551519 0.0014414415 0.148552 -0.11676179 -0.0035409213 -0.11796207 0.051005766 -0.088645436 -0.053958364 -0.17546937 -0.1247301 -0.13625328 0.040999133 0.0650489 0.018592 0.031572394 -0.13294329 0.10483299 -0.1229651 0.0822378 0.028896686 0.11513075 -0.006542099 
0.07986225 -0.12218123 0.18524005 0.055987597 0.014606561 0.16902906 -0.07036814 -0.2399027 -0.08154438 0.13539374 -0.0042074 -0.19805999 -0.0004561359 -0.17402522 0.21237235 -0.060842868 -0.16975893 -0.06757997 -0.25170997 0.028137354 -0.12789768 -0.049777318 -0.0494033 -0.06673994 0.015386016 0.12326522 -0.2016037 0.16147922 -0.04572214 -0.015153306 0.05087016 0.09419952 -0.14489275 -0.13197592 -0.030242708 0.105876625 0.062501766 0.14339064 0.07686525 0.12921575 0.07105507 0.11723378 0.14607866 -0.16111958 -0.20274772 -0.037345078 0.061653975 -0.15755504 0.1198082 -0.039815336 0.16167514 0.10917039 -0.09753136 0.0068862694 -0.1514319 0.1818174 0.016718365 -0.036277898 0.1641145 -0.08848539 -0.13056186 -0.17665473 0.055422973 0.12441344 
-0.15232714 -0.034720458 -0.011034193 0.0019651833 0.094451606 -0.15298223 0.031099945 0.20500454 -0.059738584 0.07972849 -0.00838189 0.076621085 0.008474255 -0.09909503 0.13877252 -0.12772918 -0.064223014 -0.052727025 -0.19792998 -0.117648885 -0.055787753 0.0097051365 0.00881856 0.0690789 0.14477782 0.12611079 -0.022156747 -0.13848926 -0.17076178 -0.16339475 -0.028781813 0.13851568 0.1112234 0.0961005 0.019695126 -0.04229938 0.06459124 0.10757408 -0.07484945 -0.09162567 -0.07232217 -0.030932117 0.09732114 0.07581424 -0.25556043 -0.012807075 -0.15758207 -0.07886967 -0.13104285 -0.16753511 0.16356263 -0.12145018 0.11481234 -0.1179821 0.09232451 -0.037346024 -0.20814061 0.04370515 -0.15361315 0.09081189 -0.06696855 -0.048740823 0.071517944 0.13235651 
0.033237703 0.08311426 -0.12279377 0.0074980343 0.050406724 -0.13617766 -0.21799865 -0.14444372 -0.030400498 -0.14693683 0.049227964 0.025803762 0.12942605 -0.16832486 -0.15233815 -0.077076614 -0.005392199 -0.14649324 -0.14824365 0.096239075 -0.13217753 -0.17769507 0.056361776 -0.090490974 0.046071902 0.05770115 -0.13887505 0.08142604 0.17448191 0.032766975 0.029093906 0.25205863 0.11871614 -0.04330509 0.056465633 0.01996423 0.11750133 -0.018648649 0.10256278 0.053850994 0.1310176 0.26247865 0.054077946 -0.16635223 0.14650775 0.0333697 -0.2448744 0.04022975 0.046513434 0.2041414 -0.14465176 -0.09656895 -0.06998845 0.0037491412 0.015494107 -0.0053438214 0.1281939 0.09844576 0.2102822 0.1442419 -0.0069790203 0.024120504 0.16467412 0.092363164 
-0.015144813 -0.03237695 -0.10975092 0.013586088 -0.07449408 0.038802613 -0.09771235 0.17042832 -0.09063849 -0.05691581 -0.008640343 0.020007852 0.011908952 -0.15255634 0.07518897 -0.13003951 0.15633869 0.108202495 0.14869015 -0.1714928 0.05584533 0.052569624 0.10170698 0.024470055 -0.091865815 0.11519291 0.07641138 0.04960668 -0.21621983 0.11251267 -0.13238697 0.12676184 -0.17172529 0.06322084 0.0020472023 0.12102573 -0.27288985 0.17698535 -0.015229676 0.061186228 0.07948487 -0.040043835 0.013784601 0.12205249 -0.22972222 -0.08042731 0.0007791984 -0.2312836 0.1356626 -0.19287494 0.03999929 0.042983137 -0.13244641 -0.17886129 -0.076807454 -0.16828431 -0.23259763 -0.19060597 -0.0038645358 0.04123543 -0.13658132 0.08774039 0.0047640163 0.030080779 
-0.010609238 0.073785365 -0.026052969 -0.063635275 -0.21147767 0.13993831 -0.05575553 0.045132868 -0.16459696 0.17829916 0.048801698 0.07218121 0.074684836 0.26402387 0.077839784 -0.11374614 -0.10209266 0.04625004 -0.16895805 -0.18737894 0.00042354804 -0.10732392 0.036221728 -0.0973924 -0.07672083 -0.016338035 0.11057155 -0.08463913 -0.18793875 0.028025655 0.020618437 -0.05807228 -0.0033833769 -0.026303133 -0.13940983 -0.1311051 -0.1203677 -0.11358595 0.023557976 0.010655394 0.18740846 -0.10396719 0.16427284 -0.01494617 -0.29792255 0.08345561 -0.11153362 -0.25646836 -0.047172822 -0.13486923 0.061520692 -0.15958159 0.07416195 0.1109272 -0.17212787 -0.1528929 0.14122215 -0.054470602 -0.11272873 -0.05558442 0.045125738 -0.09413888 0.12730527 0.010688705 
-0.031612832 -0.048767325 0.08761223 0.1383433 0.03592434 -0.06911746 0.063931994 -0.08411424 -0.00538991 0.18699 0.10114107 0.009229549 0.14900427 0.10536303 0.22022301 0.066851504 0.1926909 0.102656424 -0.13938259 -0.07853694 -0.026106507 0.040712427 0.004007339 -0.030282175 0.10076085 -0.0740045 0.08114134 0.13188 0.06928152 0.1315022 -0.12914033 0.1274479 0.19286637 0.114481 -0.18734607 0.1494386 0.03232922 0.027156815 -0.07441673 -0.15120374 0.16505691 0.0125197405 -0.07813597 0.023685582 -0.031052003 -0.13973759 -0.20595142 -0.001476731 -0.21788801 0.1255228 -0.061553307 -0.1603955 0.19162938 -0.041633975 0.074245855 0.122887716 -0.16189009 -0.015976358 0.14738551 -0.029352916 -0.12381072 -0.10617952 0.0056985584 0.02552839 
-0.10231513 0.06894583 0.15454514 -0.15129782 0.10398103 -0.118130006 0.13207111 -0.10910895 -0.061425492 -0.0036942402 -0.052511282 -0.22875774 0.09623588 0.030773679 0.101025075 0.10713391 0.0034177522 0.12392709 -0.12416137 -0.037233274 -0.09443007 -0.031184442 0.065760784 -0.06272061 0.037428387 -0.025875 -0.07640242 -0.15238482 0.0013980676 -0.12824377 -0.024740748 -0.08840528 -0.1512645 0.04249901 -0.091502935 -0.11160073 -0.10718802 -0.117611736 0.10442482 -0.053511854 -0.051924452 0.11839395 -0.17390388 -0.098589286 0.16150704 0.12926428 0.077209435 -0.046323255 0.019389 0.13412316 0.1215341 -0.0438666 -0.16600128 -0.025463441 -0.03540728 0.16137171 -0.14537127 0.06029669 -0.020499125 -0.15079556 0.115686625 -0.18755789 -0.13535306 0.035538055 
-0.13033955 0.15421325 -0.16783115 -0.06486741 -0.0047393567 0.04849868 -0.028603846 0.016734783 -0.0015510379 -0.046237286 -0.03928047 0.16686596 0.10261469 -0.16166314 -0.21202785 0.018291958 -0.17562601 -0.08285011 0.17213708 -0.1331159 -0.10198648 -0.006054778 -0.14404888 0.05225574 0.009218928 0.012164681 -0.16624187 -0.019651834 -0.06463094 -0.07402523 0.020130107 0.0006381143 0.03325408 -0.017724577 -0.10247276 0.073555 0.028955456 -0.08723081 -0.11776147 0.14681445 -0.011963655 -0.054707337 0.041454777 -0.08137378 0.20211054 -0.12759984 -0.18403475 -0.13447228 -0.063616194 -0.08400485 -0.1301556 -0.0448306 0.10988021 -0.009283578 -0.18967514 -0.13109022 0.14636555 0.03093702 0.042178623 -0.030652637 -0.13199537 -0.12677652 0.08734536 0.14462802 
-0.09322838 -0.118328884 0.042961724 0.048503954 -0.10601373 -0.0101244915 0.15652099 -0.17256482 -0.16350469 -0.09482656 -0.1703016 0.15877664 0.00467554 0.028925216 0.023199655 0.09274684 -0.30424806 0.10380894 0.038608544 0.029032703 0.049920734 0.05358016 -0.20152113 -0.0744043 0.13393302 -0.082796775 0.027525758 -0.098895244 -0.10453058 -0.079851784 0.023233783 0.05005245 0.029126313 -0.118695125 0.025580352 0.052681427 -0.09423918 0.06106932 0.16083172 -0.23325644 0.21754526 0.109588005 0.09117166 -0.13032357 -0.13417056 -0.08872653 -0.115909174 -0.032668 0.17445378 -0.091144934 0.009430541 0.129211 -0.01993426 0.046437938 -0.18414456 0.033438794 0.10782729 0.15372668 -0.043358024 0.055236615 -0.20671515 0.044796027 0.054418635 -0.05870938 
0.18395771 -0.14243478 -0.123550996 -0.09447635 -0.14024043 -0.14918213 -0.15072107 0.092744686 -0.037218668 -0.032561682 0.03781622 0.1040886 0.023416273 0.13366553 -0.04924058 -0.073887914 0.052020486 -0.048749704 0.049082518 0.017192373 -0.10466796 -0.144288 0.18062033 -0.0012208318 0.061172847 -0.106029406 0.07343745 0.022190271 0.02638436 0.09015601 -0.17012036 -0.017014984 -0.2016044 -0.08005106 0.09833628 -0.14533128 -0.040366177 0.110544845 0.07894013 0.05673682 0.07410082 -0.09505172 -0.015872225 0.16093838 -0.06783262 0.01640544 -0.011713456 0.059125517 -0.043164756 0.005419273 -0.17004697 0.17030658 0.169041 0.16199052 -0.0066115265 -0.13012916 -0.12311263 -0.15919639 0.057718698 -0.11556048 -0.16841727 0.14735712 0.05070196 0.054377984 
-0.057846036 -0.14343971 -0.028802544 -0.014639951 -0.017386718 0.013007874 0.112173304 -0.1928335 -0.08182993 0.05404184 -0.1728347 -0.12525913 0.10204937 0.069745116 -0.007357359 -0.021921266 0.059136976 -0.063151434 -0.022836154 0.062947795 -0.14429419 0.06533436 0.122547425 -0.019966094 -0.037431285 0.08868179 0.04689347 -0.023620067 -0.08176291 0.04013137 -0.12014611 -0.16704223 0.011247431 0.09981018 -0.035634752 -0.18088078 0.08503017 -0.026736984 -0.117012106 0.0879893 0.023081101 0.102912165 0.1196097 0.15049876 -0.26312765 -0.009800429 0.18107846 -0.23664053 -0.054766256 -0.11867569 0.15849854 0.10018472 0.10598686 0.13175316 0.07784533 0.12409108 -0.16980313 -0.10142863 0.10759365 0.009198463 0.036364254 -0.19916123 0.03371575 -0.13393308 
-0.032358684 -0.084315695 -0.11642793 -0.12120594 -0.072049096 0.11200886 0.088477105 0.07951584 0.108783476 0.050771046 0.103933066 0.009715908 0.18894367 0.14648266 -0.11796218 0.06389596 0.1587509 0.16919474 0.10157366 0.13125412 -0.10362233 0.012489557 -0.012393107 -0.043809596 -0.10678947 0.001619534 0.1091259 0.16216403 -0.105915785 0.17838538 -0.16701604 0.12614526 -0.18745902 0.0035912371 0.13763513 0.11960648 -0.035079043 -0.093738675 -0.002804738 -0.03155267 -0.07237898 -0.0482401 0.13069835 0.0018192638 0.058002178 0.0072483537 0.14948969 0.0030723438 -0.086118944 0.051436286 -0.070063666 0.006147695 -0.031736474 -0.09988519 -0.12516001 0.068853654 -0.13959214 0.07891122 0.08193647 -0.071466655 0.18769081 0.027660396 0.14691141 0.11622683 
-0.1551453 -0.17487669 0.0157645 -0.016417095 0.032068413 -0.109482944 -0.049678486 -0.060234435 -0.031114684 0.009168168 0.14679821 0.007881191 0.14614338 0.06059313 0.015592021 0.13945451 -0.053920984 0.10457738 -0.060428377 -0.13013773 -0.14727335 0.13395256 0.09691041 -0.010065029 0.14890072 0.03674701 0.07800805 0.001141631 -0.06520825 0.1261526 0.053329173 0.06704315 0.026149401 -0.0063364157 -0.15285277 0.11081898 0.015459574 -0.15071398 -0.0067034345 -0.21582286 -0.03865339 -0.13256176 -0.07327771 -0.014475397 -0.012044966 0.10248326 -0.07555633 0.07459381 0.015645526 -0.15323201 0.05720714 0.018987296 0.1622515 -0.092650175 -0.11280213 0.016946977 -0.06453395 -0.04364177 0.08333064 -0.14341499 0.077965826 0.04859156 0.0802193 0.20693873 
-0.08673508 -0.11234713 0.0050299647 0.070456065 -0.1026314 -0.10402677 0.0859097 -0.0023676935 0.026168425 -0.004333808 0.09849727 0.0067926366 -0.024604442 0.024461942 0.049224198 -0.20940717 0.1618377 -0.059283473 -0.17198464 -0.04124697 -0.12399392 -0.028439043 -0.09113263 -0.12442958 -0.12495943 0.15649892 0.106715396 -0.1599879 -0.011814034 0.10736389 -0.05998111 0.11616309 0.05421546 -0.08473795 -0.023934154 -0.027894853 0.09509518 0.023513386 -0.10335548 -0.20667802 -0.062483117 0.16818786 -0.118092276 -0.083038405 -0.2599983 0.1550957 0.08574603 -0.1832211 -0.021454023 -0.21472748 0.11248314 0.012398706 -0.13362145 0.09257651 -0.07592996 0.047447886 -0.029511834 0.12570654 0.13726687 -0.08716514 -0.048111435 -0.12437351 -0.16429642 -0.073845856 
0.060172617 -0.07767807 0.1480137 0.18386412 0.061207697 0.026918648 0.12621212 -0.1682015 0.15703161 0.1563049 0.07064403 0.071423166 -0.1362375 -0.014375512 0.103590466 0.16342048 -0.10391706 -0.03859675 -0.036142103 -0.17586386 -0.11757347 -0.025105389 -0.17272362 0.055915967 0.10892268 0.07873118 -0.07532712 -0.11008907 -0.13011293 -0.020685075 0.1357642 0.11644125 0.019967243 -0.11214801 0.075687975 -0.011313488 0.17658147 -0.12858514 -0.16686523 0.08358737 0.05377807 -0.004701393 -0.0950916 0.010724596 0.10510833 -0.03565872 0.05442208 0.029222485 0.032449182 -0.118568756 -0.11749794 0.119035974 0.040964484 -0.1224937 0.07551384 -0.009864968 -0.10539852 0.006347976 -0.14687847 0.113364324 0.12166341 -0.07197938 0.10933552 0.07360683 
0.068970375 -0.0098065315 0.045978468 0.08632466 -0.10672974 0.042540163 -0.04138589 0.06006151 0.04756563 -0.17301193 -0.22825435 -0.16432047 0.12103114 0.18812682 0.018431693 -0.10508199 -0.32064503 0.14928612 -0.13974757 0.06145633 -0.03222158 0.094817385 -0.17863224 -0.038487475 -0.111997835 -0.045643028 0.09151548 -0.011296622 0.14682443 0.047291286 -0.087427564 0.006172242 0.13557033 0.11695409 -0.06443983 -0.012716167 -0.16688508 0.1076609 0.11202282 -0.044367205 -0.108078144 -0.116630726 -0.016755333 -0.08599931 0.07052789 -0.16933559 -0.06743981 -0.072063066 -0.14832883 0.015401652 -0.054308627 -0.044043742 0.12971139 0.059711132 0.0032903478 0.0060687466 0.029942384 0.0033109342 -0.086238444 -0.021695074 0.018084802 -0.14923272 -0.15612552 -0.08568822 
0.07483067 -0.14638841 -0.121173665 -0.06600115 0.17441182 0.07759795 0.052602794 0.08956778 0.07366483 0.08935346 -0.13926756 -0.020192092 -0.121379204 0.058920257 -0.18219744 -0.18472496 0.08258404 0.12709902 -0.017475365 -0.08913125 0.15649754 0.03344419 0.1389796 -0.078704864 -0.083293 -0.037008204 -0.1333925 -0.08573507 -0.20855752 -0.1790578 -0.04785463 -0.0062442524 0.045099273 0.008522076 -0.035389677 -0.029246792 -0.17718959 -0.15127201 -0.20570552 0.07509065 -0.060173173 -0.042343758 -0.034617115 -0.08922284 -0.19328883 -0.14023986 0.14467612 -0.17542307 0.11885654 -0.101799846 0.010076993 -0.017647196 0.11733784 -0.04585885 -0.14016454 -0.01868488 -0.11675202 -0.09761923 -0.10471952 -0.048604473 0.11401589 -0.10356142 0.023340182 0.061412882 
0.114684105 -0.034213927 -0.21192467 -0.0945695 0.091172814 -0.15977313 0.013388164 0.034930583 -0.08164373 0.08465812 -0.12659074 -0.054889016 0.07777189 0.03976701 0.06979066 0.15386492 -0.032830838 0.011254227 0.11673317 -0.05670651 -0.019969435 -0.18038978 0.034656122 -0.081125274 -0.08341529 -0.08925079 0.05507032 0.094349176 -0.092330456 0.019024676 0.026188672 -0.058168877 -0.012256372 -0.06917415 -0.20729975 -0.08870837 -0.098444015 0.1608694 -0.049049973 -0.07468775 -0.10782113 0.09868464 0.06747629 -0.13057974 -0.17957762 -0.08257942 0.1406141 -0.13664776 0.06078388 -0.20927952 0.17239396 0.036792602 0.10536243 0.0031182375 -0.049382698 -0.041572098 0.16134392 0.039881695 0.13775197 0.04115746 0.040501412 0.09675144 -0.20852004 0.1331645 
0.079214655 0.018998887 0.015137937 0.025627417 -0.2676985 -0.06186614 0.06954021 0.014933337 0.13279183 -0.08868836 -0.16714863 -0.060308665 -0.056086767 -0.08628752 0.013658011 0.09452298 0.0050331843 -0.06866372 -0.026754087 0.11960193 0.06514539 -0.29546636 -0.07017886 -0.033199787 -0.1592772 0.10448978 0.0306271 -0.20252796 -0.014857629 -0.077790946 -0.053491022 0.0625813 0.17126866 0.19919355 0.0024375143 0.07022644 0.07347363 0.08017924 0.06751072 -0.07043729 0.06992544 0.19028138 0.0004084714 0.025275497 -0.17715454 -0.0667832 -0.028341653 -0.3088801 0.10250639 -0.16109431 0.0687016 0.014280509 -0.20738268 -0.0074476604 -0.027360048 0.106513664 0.20382324 0.079053305 -0.0731429 -0.15220794 -0.10905949 0.02223943 -0.036710706 0.1367352 
-0.17166576 -0.005440882 0.12599576 -0.04210533 0.1578073 -0.12632014 0.105652 0.000816378 -0.17364717 0.14406623 0.022362426 -0.022716407 -0.054442365 -0.031602677 0.031681944 0.010153523 0.017085442 -0.039438877 -0.078967035 -0.17128257 0.10379788 0.1217322 0.00028660792 -0.051288348 -0.10070634 0.18136014 0.013118166 -0.17333956 -0.15629615 0.09735898 -0.16749543 -0.19436784 0.00686177 0.12807794 0.048432484 -0.18188924 -0.25616997 0.20263483 -0.1435966 0.006271674 -0.10942629 -0.16806982 0.025852865 -0.10845016 -0.29307958 -0.14451635 0.020549694 0.0022806101 -0.022568688 -0.048794508 -0.066653565 0.023292756 -0.041652042 0.16176678 0.01622412 -0.22035895 -0.21260028 -0.17658965 -0.018518923 -0.13191733 0.1600198 0.056691434 -0.007904948 0.11185351 
-0.09027227 0.12893309 -0.09268883 -0.041118708 -0.080079235 0.06677925 -0.24139862 -0.10627833 -0.10552053 0.06637023 0.043188103 0.03622064 0.1583407 0.17663135 0.16719335 -0.062876455 -0.10298409 0.038486045 0.005195405 0.024227202 0.02924408 -0.053641174 0.09827992 -0.22141998 0.0680046 -0.12516144 -0.18773556 -0.13034277 -0.037808385 0.2007757 -0.11645101 0.11927535 -0.05551973 0.14644946 -0.19121058 -0.06872556 -0.10600341 -0.044864878 0.10634185 0.17994821 -0.03287303 -0.14341381 0.06616866 0.058841504 -0.025267996 0.0523189 0.059220865 -0.22232698 -0.036341596 0.00594271 0.054532863 -0.14984903 0.1532119 -0.034088824 -0.17895724 -0.07972385 -0.067161836 0.06302031 -0.20736705 -0.117156066 -0.13679965 0.05946341 0.08513919 -0.09560881 
0.08230527 0.15879351 0.009497365 0.1711725 0.05761595 -0.02387941 0.10036268 0.043217998 -0.0339273 -0.057298295 0.04440497 -0.00895288 0.07517282 -0.03668528 0.04251107 -0.0952816 0.16120432 -0.075562686 0.09274649 -0.14639677 -0.048302874 -0.17502667 -0.049400035 0.024428105 0.088858746 -0.037288178 0.17446016 0.0051558837 0.014801372 0.15755758 0.041634742 -0.085185625 0.0786888 0.11024809 0.061915334 0.089859135 0.05771171 0.10444143 0.09879341 -0.10591527 -0.13123855 0.13580006 0.032369476 0.19564886 -0.07112047 0.006345095 -0.09430046 0.054944724 0.121156536 -0.019947698 0.1413368 -0.14197607 -0.06968202 -0.01166657 -0.04914724 0.028680474 -0.011337522 -0.15302923 -0.11123513 0.046283875 0.100243144 -0.024615817 0.14718524 -0.15904881 
-0.034052864 -0.09848144 -0.20887554 -0.08220491 0.05502756 -0.17276484 0.12314627 0.08300329 -0.09450919 0.016849458 -0.16056879 0.058226645 -0.15327768 0.12286229 0.10566271 0.11422573 -0.14389022 0.058297876 -0.14178407 -0.048029542 0.112773366 0.15230615 -0.059507664 0.11110024 0.015558002 -0.13528302 -0.1557008 0.0055830153 -0.110984676 0.002221233 -0.27132222 -0.030767608 -0.03677327 -0.093222 -0.1404196 -0.01165562 -0.029450981 -0.13549866 0.014276399 0.011625393 0.12889513 0.011039493 0.10299298 -0.051697344 -0.22506294 0.08849874 -0.11371078 -0.14899817 0.11688456 -0.06327421 -0.12453929 0.15413307 -0.005679576 -0.14180343 0.07038727 -0.073923774 -0.142297 -0.09572177 -0.07381411 0.058843937 0.046469122 0.07650021 0.11878637 0.12466259 
0.20399356 0.06854413 -0.050005175 0.16403536 0.07661667 -0.005827418 0.13655387 0.10115425 -0.0146303475 -0.1603931 0.075796485 0.048470587 -0.02595041 -0.01069922 -0.09744167 -0.17431873 -0.032742076 0.10803824 -0.031507164 -0.16802578 0.10820066 0.035931572 0.11448364 -0.03409415 0.020964552 -0.043334257 -0.1330699 -0.101908356 -0.04421154 0.01885194 -0.20540696 0.03155543 0.20833723 0.17109767 0.1690788 0.06192937 0.033049945 0.12058913 0.025388516 -0.11921628 -0.050012603 0.14902365 0.16835082 -0.027310684 -0.07892665 0.0028755963 -0.12179525 0.020770514 0.15704666 0.10404972 -0.029871883 -0.13168226 0.11106272 0.098737225 -0.028125959 -0.06615525 0.1321128 -0.09851049 -0.09116861 0.11505193 0.0995157 -0.037014693 -0.06646537 0.12480827 
0.028879398 -0.1422897 -0.028015785 -0.1731319 0.0033147393 -0.110195436 -0.026327832 -0.0016096977 -0.10148823 0.104638346 -0.1364871 -0.26764756 0.09217445 -0.13366982 -0.06372766 0.0002620953 -0.038920764 -0.04023675 0.013293369 0.10504176 -0.14371903 -0.061879084 0.14533697 0.010973593 0.12498773 0.068334036 0.13158049 0.0758662 0.14311557 -0.20364831 -0.10766753 0.17503665 -0.046075948 0.0743505 -0.24331513 0.008006721 0.07284919 -0.032923203 -0.1287026 -0.08527199 0.20032707 -0.045861978 0.20029953 0.11900866 0.13859728 -0.10157316 -0.19514085 0.10188651 -0.13242821 -0.009836602 0.036702264 -0.20532012 0.07778911 0.11772669 0.020769661 -0.09501127 -0.11886801 0.081527695 -0.1648632 -0.20845412 -0.18182036 -0.17658311 -0.16098228 0.006835804 
-0.117252216 -0.16252796 -0.03752725 -0.00089182984 -0.12259691 -0.13958643 0.013598407 -0.17371458 -0.13781905 0.094441354 0.099031664 0.031163096 0.1610762 0.11553554 -0.036498215 -0.0789563 0.03560852 -0.1442404 -0.11713186 -0.03809617 -0.005189942 0.16482522 -0.1265442 -0.1061726 -0.08451881 0.028517978 -0.049733877 -0.06531783 -0.09772001 0.04975315 -0.1695848 -0.13707672 0.2040381 0.053074375 0.0828282 0.10650872 0.109517425 0.036673162 -0.0073938165 -0.12118276 -0.058628816 0.0025076196 -0.097339235 0.027530046 -0.1021327 -0.16085547 0.06052351 -0.103684984 0.10294132 -0.008428994 -0.07107281 -0.03702938 -0.054653287 -0.13588816 -0.12586567 -0.030207377 0.106585965 0.027691498 0.18361495 0.067100726 -0.22994366 -0.00105677 0.11613406 0.10752578 
-0.11120513 -0.05736001 0.02805151 0.057182357 -0.15536992 -0.04041238 0.044858918 0.014522418 0.032768205 -0.16056149 -0.1322826 0.027060136 0.13714455 0.15973555 -0.1124292 -0.13304824 0.0012031198 -0.11726201 -0.07264629 0.16739084 -0.013171136 0.14391367 -0.15499018 0.11370833 0.12803741 0.1690798 -0.052922152 -0.14296338 0.016085729 0.07653628 -0.14316854 -0.0986396 -0.049486846 -0.10360711 0.07739498 -0.14793615 0.019934863 -0.15690935 -0.09120085 0.1434244 -0.004589662 -0.0052550733 0.0890104 0.16970752 0.09719418 0.157625 -0.117912255 0.16109304 -0.11069604 -0.014378861 -0.15014085 -0.15940262 -0.11715028 -0.066318616 -0.01621823 0.107879505 0.08089535 0.1532243 0.07314965 -0.1335849 0.032685295 0.14853965 -0.0716689 0.04988864 
0.10841651 0.07180961 -0.008329721 -0.024923686 0.12258497 0.032374863 0.06431416 0.07903041 -0.026368028 -0.0052687004 -0.13938649 -0.030936005 0.02909316 -0.090419136 0.042129625 -0.065692306 -0.08411262 0.11106172 -0.042773884 -0.015949119 0.10889753 -0.10478113 -0.058532815 -0.07320663 -0.07044034 0.14461394 -0.0061209504 0.15584293 -0.05945205 0.116528556 0.12251018 0.085364304 0.07182509 -0.024857748 -0.06656193 -0.08212126 0.024772136 -0.14323229 -0.09580256 0.14308548 0.068983875 -0.10301663 0.14143398 -0.06948052 0.022769785 0.011143178 -0.14389686 0.0765091 -0.05420779 0.18689223 -0.12826096 0.07070877 -0.12524235 -0.06925574 -0.13405952 -0.0039198254 0.020947661 0.15029624 -0.08029339 -0.066623166 -0.11067913 -0.098388396 0.08648014 -0.12657158 
0.19166341 -0.099465735 0.1544072 -0.23538937 -0.11075123 -0.02611878 -0.07335492 0.025088726 -0.15690479 0.10291246 -0.16725633 0.000119828095 0.106149316 -0.15007417 0.108078465 -0.023023764 0.17998366 0.037592065 0.07686796 -0.13468231 0.08855197 0.016981563 -0.07624272 0.072526686 -0.12949675 -0.027680932 0.0039047156 0.005259804 -0.22228651 -0.17887373 -0.059726305 -0.13841772 -0.09705704 -0.02181138 -0.04596622 -0.0984753 -0.1171222 -0.02520588 -0.032741297 0.0978783 0.042517483 -0.19556002 0.024533771 0.11858115 -0.252669 0.12064314 -0.08464697 -0.19432074 0.1523596 -0.19558944 -0.056629084 0.09324782 -0.0012138326 0.09714457 0.038958974 -0.06418905 0.010116808 0.0146704 -0.029440643 -0.0010184352 -0.07083465 -0.01631335 0.09757978 0.16605313 
-0.059628855 -0.10272177 0.010824614 -0.13985997 -0.119259685 -0.1235584 -0.041655965 -0.09052422 -0.11008546 -0.13274534 -0.101614825 0.06970106 -0.17293037 -0.07572014 -0.017364547 -0.12518965 -0.17375694 -0.15011317 0.046541452 -0.06949168 -0.035853125 -0.062188387 -0.07860008 0.1253409 0.050627857 0.16978087 0.14845322 0.15352653 -0.027874112 -0.074630156 0.029120684 -0.028621642 -0.06630723 0.08989458 -0.1020144 -0.17412268 0.09387814 -0.1083859 0.077945784 0.022419557 -0.13353571 -0.1658331 -0.107152626 -0.12466359 0.05530505 0.037987337 0.15318596 -0.07035392 -0.17535804 -0.055899702 -0.09749451 -0.13206154 -0.12440434 0.06594506 0.009780472 -0.036240518 -0.17117584 -0.08503881 -0.012945357 -0.10135221 0.0010589085 0.07537256 -0.0679678 0.016739806 
0.037895247 -0.18674052 -0.028176889 0.16796912 -0.074628174 0.003004393 0.05701783 -0.090894796 0.16648166 0.14992537 0.05494115 0.020338003 0.014589158 -0.06736887 -0.10626934 -0.15938346 -0.016853778 -0.13740982 -0.07149379 0.09268437 0.122990325 -0.17341325 0.15188387 -0.0077326195 -0.06018561 0.0040233326 -0.026516402 -0.13708399 0.13059084 -0.09868727 -0.16049398 -0.08306146 0.09707502 0.06488841 -0.14747533 -0.09524144 0.15832825 -0.06588902 -0.06879434 -0.1885038 -0.024459517 0.09167648 0.15786272 -0.09058149 0.13911888 0.014813472 -0.12741046 -0.21366993 -0.073998995 0.20254426 0.16170895 -0.065940976 -0.0012935308 -0.10214763 -0.05854805 0.003450913 -0.07533566 -0.11301125 -0.030761253 -0.22509557 -0.082226515 0.016245702 0.0013075894 -0.15548234 
0.114210464 0.03364332 0.078812405 0.051230878 -0.08215415 0.096636444 -0.12965423 0.092133775 -0.11089974 -0.085944615 -0.10865713 -0.06275733 0.0246902 -0.172199 -0.1433717 0.12255072 0.16899408 -0.11947101 0.07379399 -0.035681188 -0.15022509 -0.18072617 0.10194471 0.018844904 0.036155086 0.16542199 0.050673738 -0.015608707 0.017943224 0.16349286 0.1315596 -0.16053933 0.15815884 0.047208626 0.016195972 -0.02471674 -0.045345586 -0.1466585 -0.16860835 -0.1414101 0.17009124 -0.17263825 -0.032011416 0.15118983 0.057752814 0.12224004 -0.13067049 0.11679466 0.05834492 -0.06887287 0.0057667885 0.049728096 -0.156314 0.15665188 0.032684077 -0.12567225 -0.018934747 0.07598485 0.019208536 -0.09159501 0.077407226 0.13428883 0.009977112 0.02189896 
-0.089053065 -0.14441358 -0.08986206 -0.08126006 0.05610723 0.018954266 -0.030727329 -0.040565543 -0.062688075 -0.09393659 0.114478774 0.043048743 0.04930454 0.07848729 -0.064989775 -0.06679342 0.03415824 -0.0590409 -0.2317558 -0.09578568 0.05691975 -0.18241228 0.12098641 0.04115954 0.13167924 0.19784401 0.079335526 -0.044238277 -0.120545454 0.0010897603 -0.19296834 0.11839514 -0.0022246724 -0.15506344 -0.022226578 -0.023606978 -0.18335558 -0.11934508 -0.1906467 0.10900479 0.1368372 0.01218395 0.09553444 0.056104183 -0.3159923 0.051835217 0.10294769 -0.16660795 -0.13387614 0.091948554 0.06725548 -0.16222636 -0.058339804 0.110417366 -0.20508337 0.0762028 -0.035047974 -0.19960234 -0.17002445 0.05958983 0.0013295555 0.1138511 0.08154175 0.1848784 
-0.16708978 0.07202208 0.08621316 -0.09475307 -0.15367796 -0.1573895 0.0871117 0.038110796 -0.16317545 -0.16767806 0.025048444 -0.057373483 0.039676912 0.12767558 0.17644739 -0.03570409 -0.09220091 0.19154556 0.045597583 -0.10204091 -0.17883535 -0.020190611 -0.013710519 -0.06463666 -0.012638103 0.026560074 0.08791957 -0.0941561 0.07940289 0.026498474 -0.34370685 -0.12988615 0.07730752 0.0031204442 -0.09380876 -0.08142467 0.033505436 -0.09551103 -0.18140551 0.14245407 -0.09367971 0.08045604 0.112343915 -0.048241045 -0.22332379 0.12572335 -0.030645639 0.05402726 0.17145924 0.03471098 -0.1130393 0.051736563 0.098801285 -0.014908442 0.123746105 -0.14776123 0.025864854 -0.12890026 -0.028880248 0.094095916 0.11394809 -0.05326882 -0.116423786 0.14953898 
0.17913689 -0.06046388 0.13825016 -0.10028497 0.07167588 0.16113631 -0.1453959 -0.09442098 -0.082706444 0.022485277 0.059678294 -0.12298964 0.1643753 0.06643513 -0.0353439 -0.12701802 0.13546735 0.056346275 -0.080182284 -0.077751935 0.07755909 -0.07992754 -0.113838084 0.117726155 -0.11962777 -0.016517384 0.15867402 0.14666152 0.07395915 -0.05160409 -0.088958755 0.05761234 0.15993714 -0.058431845 0.1179571 -0.13665932 0.026457384 -0.07235113 -0.13443266 0.07968611 -0.0693289 -0.041553278 0.12976775 -0.15521921 -0.07508146 0.052867804 -0.024513675 -0.093832746 -0.13172212 0.077642485 -0.084063865 -0.014183849 -0.1766432 0.045427065 0.12226801 -0.058205664 0.034505397 0.0376332 -0.14633718 -0.028738461 0.012760648 -0.133919 -0.015034716 -0.08463892 
0.061880913 0.050487235 -0.054341216 0.05749422 0.1770808 -0.13989197 -0.07771434 -0.059009474 0.11522021 0.061113425 -0.20724031 0.040199704 -0.16108763 0.09356685 0.114468485 -0.13037905 -0.2440182 0.2015071 -0.19709624 0.14472114 -0.011317172 0.12550262 0.034689948 -0.15566047 0.013947201 0.1214759 -0.17557716 -0.11749375 -0.102068886 -0.050748687 -0.11300361 0.05417009 -0.025732186 0.07999169 0.118737824 -0.15679635 0.07237688 -0.12187566 -0.19803019 -0.05948045 -0.002053202 0.12221525 -0.12780873 -0.26192302 -0.17253341 0.10647736 0.0951217 -0.06622014 -0.07324246 -0.18080777 -0.060897823 -0.16063881 0.16866092 -0.14798853 -0.0826352 0.1234577 0.09251184 -0.092734836 -0.06831916 0.09310366 0.07453228 -0.23412418 0.024223693 0.09532888 
0.070279144 -0.041067354 -0.03199146 0.080348104 -0.028487608 0.013567941 -0.09215017 -0.048180547 -0.15855235 0.14160393 0.14472543 -0.061624337 0.12760864 0.0041899583 -0.008040172 0.1683854 -0.04498448 -0.1669282 0.15012966 0.07299204 0.111610286 -0.15341589 0.13448912 -0.04280119 0.023992538 -0.12509936 0.05695454 0.012466811 -0.030318549 -0.09950584 0.15349807 -0.047751494 0.12308389 0.19859125 0.08393665 -0.0832616 0.04012177 -0.050277375 0.1331489 -0.116534755 0.20748387 -0.12527932 -0.17564358 0.15527418 0.13131358 0.117053896 0.16481753 -0.0944921 -0.09181982 -0.08000362 -0.18104626 -0.057337135 -0.14973734 -0.0016167533 0.06774798 -0.030619422 0.025651159 -0.06616454 -0.014820147 -0.02419219 -0.12507558 -0.0509692 0.04317722 -0.19841342 
-0.0029452178 -0.30310512 -0.10509768 -0.0061825854 0.12526341 0.12736171 -0.17991896 -0.19465552 -0.10173671 -0.07486925 -0.17406371 -0.0997671 0.13181022 -0.16387326 0.18223567 -0.13821639 0.08374893 -0.022347884 -0.04731124 0.045385677 -0.08235513 -0.11936254 0.024120169 0.08763606 0.13349217 0.12445756 -0.070156224 -0.044642627 -0.19705957 -0.0057816394 -0.12590384 -0.028827993 0.08061119 -0.06476139 0.07353107 -0.11940224 -0.21534388 0.042561006 -0.048808575 -0.08083545 0.12253717 -0.1426482 0.15931743 0.04702495 -0.10555836 0.007296982 0.010317377 -0.011791616 0.112748645 -0.15611579 -0.004180821 -0.19394857 -0.05569071 -0.05678884 -0.082524225 -0.14965737 0.04954425 0.010971437 0.16229744 -0.08538877 0.123841085 -0.17567466 -0.1566952 0.13210277 
-0.085382625 0.17024498 0.01941836 -0.22697641 -0.034153506 0.067240074 0.055369075 0.17194782 -0.053183407 0.039855853 0.01783964 0.053344876 0.08771099 0.15503918 0.04767786 0.058969576 0.053279135 -0.12892398 -0.033849876 0.13974158 0.13133805 0.05193883 0.20539367 -0.18614422 -0.10407602 -0.1534313 -0.007857215 0.137475 -0.0706652 -0.03331623 0.15864344 0.23588286 0.11420381 0.08464016 -0.09316132 -0.11587441 -0.008892212 -0.14827016 0.006707157 0.11376378 0.090286314 0.068876 -0.11514566 -0.13216922 -0.035958912 -0.04312399 0.03870685 0.11411161 -0.20671923 -0.07535374 0.16966939 -0.039721936 -0.04702938 -0.0892597 -0.095317654 0.07777582 0.10800739 -0.04634077 -0.0015388763 0.10082782 -0.100471124 0.012719371 -0.0039051129 -0.19754428 
0.13600521 0.08460287 -0.1737133 -0.0622283 0.07225277 -0.1721035 -0.008701329 -0.18447259 -0.0053664725 0.13505958 0.14039443 -0.1610454 -0.07029087 -0.10130947 -0.06696555 -0.09306112 0.06807861 0.056657743 -0.14639513 0.08706805 0.22084403 -0.10647054 0.027042074 -0.17798962 0.031129384 -0.12469293 0.028324738 0.027885381 0.006993613 0.17311732 0.045202795 0.017053362 -0.1606436 0.1932725 -0.21500522 -0.11822577 -0.09824745 -0.06712084 0.08108518 0.037465252 0.116349846 -0.05372212 0.14148216 0.036935627 0.15871139 0.01899488 0.10347045 -0.15326501 -0.1463788 -0.11027781 0.07878107 -0.07664477 -0.04771538 -0.030688986 -0.019555863 -0.028428115 0.1157527 0.12248479 -0.12724628 0.07260404 -0.09238574 -0.16707662 0.15399034 0.018692471 
0.0054046777 -0.0640265 0.04265966 -0.06331342 0.14499937 -0.13786046 0.15492643 0.09760594 -0.1695469 -0.055573564 0.04794456 -0.07344126 -0.073329836 -0.033692103 0.07650074 0.029024867 0.15033972 0.011141132 0.105176754 0.061384536 0.053637475 0.1483214 0.12019822 0.11782358 0.05069922 0.098584145 0.10413637 -0.16057593 -0.01738333 0.0490926 0.15550162 0.03941396 -0.018126935 0.021877516 -0.039525744 0.052565545 -0.17363204 0.12854813 0.061617788 -0.15383875 -0.13267018 -0.03279261 0.030673664 0.04788418 0.01662188 -0.124063745 -0.17760698 0.15719566 -0.093080215 0.16809805 0.08554241 -0.01195243 0.012694071 -0.026440285 -0.17078002 -0.07364108 0.08832045 0.14253335 -0.11354065 0.17364971 -0.16138865 -0.103954576 0.06545774 -0.14935537 
-0.22219688 -0.19715202 0.15848744 -0.07992102 -0.14769927 0.17076884 -0.10261708 -0.15786694 0.1039706 -0.084127285 -0.14232117 -0.027862037 -0.03526216 0.032849714 0.036278304 0.17378595 -0.22238867 -0.060821626 -0.15875229 -0.06791915 -0.15977816 0.008128446 0.0030807438 0.016703708 -0.06708929 -0.037157133 0.10467661 0.16148052 -0.11162624 0.060867194 0.09785203 0.05235087 0.03167935 -0.07965777 -0.04787681 0.03769604 0.0825128 0.18875583 0.13410473 0.059936546 0.17118655 -0.02767722 -0.12322013 -0.094506115 -0.037147295 0.17839499 0.11170736 -0.1563974 -0.009052171 0.07265194 0.05695821 0.0075164936 -0.12724437 -0.142165 -0.16829269 0.09421325 -0.0008099252 -0.12510397 0.10364662 -0.119318224 -0.11488114 -0.19685307 0.06431176 0.16882583 
0.028442984 0.012700837 -0.08560981 0.066315584 -0.034125343 0.098623924 0.06407682 -0.051493257 -0.12606491 0.009647649 -0.04617533 -0.10010855 -0.060031522 -0.161365 0.027175937 -0.16366425 -0.008943693 -0.03265217 -0.19160892 0.11758154 -0.089834 -0.095896006 -0.13911243 -0.17161763 0.13829291 -0.074689135 0.07006878 0.06778303 -0.014567066 -0.043719847 -0.08122006 -0.05127711 0.18254466 0.017460573 -0.15594515 0.13263176 -0.015919166 -0.1259644 -0.07711244 -0.071359746 0.04858233 0.03844075 0.1226804 0.09712465 -0.05806071 0.037258375 -0.07637968 0.0035710724 -0.25152522 0.12754229 0.09357168 0.11116922 -0.051426537 0.09150486 -0.012785089 0.10458017 -0.1124792 -0.04748764 0.14571398 0.0050866925 -0.012136716 0.06683036 0.02125479 -0.067532 
0.026791135 -0.034747537 -0.18644232 0.10435634 0.027547318 -0.019355599 -0.13121298 0.1007853 0.10580852 -0.16928783 -0.1784272 -0.013393863 0.1813061 0.23337172 -0.18682432 0.14465496 0.052683648 0.09135982 -0.34571856 -0.09529233 0.16463825 0.11350023 0.041210707 0.06667018 -0.032747727 0.012272785 -0.10529141 0.047395963 0.017201578 0.05291918 0.019645812 0.06869497 -0.09051174 -0.053445045 0.0897398 0.097432576 0.078401476 -0.02769642 0.098807245 -0.17452858 -0.12892333 -0.12351062 0.08508898 0.092552595 -0.24976718 0.07562613 -0.117078066 0.10188328 -0.21415097 -0.22072311 -0.1845558 -0.1415084 0.022490606 0.13966627 -0.06665078 0.07590264 0.04223727 -0.06332987 0.13369673 -0.12886754 0.030647466 -0.18239477 -0.12717836 -0.031243842 
0.058286827 0.056217063 -0.008679871 0.10241797 -0.06362403 0.10197127 -0.015389927 0.023562705 -0.05284825 0.061398555 -0.03627182 0.06041729 0.03596038 -0.15536915 -0.0153942285 0.021104038 0.13560437 -0.107265376 0.0728592 0.06284841 -0.09031763 -0.025655702 0.013559639 0.079442926 -0.079810314 0.021579893 -0.0056266985 0.11462405 -0.052776497 -0.13670887 -0.0018638067 -0.15676506 0.04118844 -0.15777782 -0.014172681 -0.0030891993 -0.051778633 -0.026549498 0.11832048 -0.16678573 0.14502317 -0.18741325 0.10528218 0.01660627 -0.21148178 0.09252909 0.08141195 -0.09906405 0.00018012906 0.077535465 0.0026278067 -0.19080496 -0.04349246 0.009569324 -0.09890808 -0.190011 -0.14695756 -0.07843648 -0.12853064 -0.12291996 -0.090806626 0.106042475 0.016726606 0.0012659095 
0.07214199 -0.11663124 0.061332885 -0.02399621 -0.075569324 0.08617874 -0.005008169 -0.014657221 0.10590052 0.036294516 0.09941597 0.19832575 0.11242053 -0.15439753 -0.06996521 -0.09058528 0.11405538 -0.15060426 -0.07874378 -0.13537562 0.12897453 -0.066333696 0.19479057 -0.1737792 -0.06520996 0.07894118 -0.0518418 0.029329251 0.096478544 -0.091428936 -0.05312286 0.007849494 0.090371646 -0.20137121 0.04733438 -0.030298304 0.05777777 -0.052598316 -0.02739104 0.18052976 -0.025478927 0.14575833 0.05517741 0.026280953 0.1691728 -0.015553657 0.13002236 -0.1706924 -0.008280193 0.107451916 -0.10495048 -0.10975399 0.083283685 0.15154688 0.016013002 0.15676299 -0.06424416 -0.14207122 -0.07983998 -0.1455465 0.08270361 -0.11072598 -0.12507342 -0.18105203 
-0.18879108 0.02967173 -0.089431345 0.16999643 -0.16170867 0.10929118 0.038257483 -0.17794606 -0.09187831 -0.03348527 0.09836725 -0.1816343 -0.15512832 0.08988632 -0.074980676 -0.04452028 -0.12757316 0.029084083 0.027455116 0.110424235 0.042426217 0.00802734 0.08578855 0.05643103 0.11832767 -0.11105725 0.123061866 0.009380693 -0.0039638556 -0.021051595 -0.1546034 0.077079125 0.11134843 -0.018430863 -0.042855192 0.16304311 -0.23414671 -0.021948636 -0.15641285 0.1349963 0.16138889 0.01800157 0.121835224 0.03891426 -0.2637498 -0.12846506 -0.17434722 0.043129515 -0.08010084 -0.15554659 0.031225467 -0.108314805 -0.103987075 -0.061868507 -0.03733238 0.003291491 -0.23276803 0.017219199 -0.16915205 -0.1338585 -0.039852444 -0.0025921674 -0.06944639 0.06538327 
0.11596898 -0.02971234 0.028137345 -0.18489581 0.10541059 -0.109601416 0.045773216 -0.10165059 -0.17308494 -0.02054163 0.114325374 0.07796512 0.031943105 -0.1570269 0.11934889 -0.11822492 0.15989776 0.02446289 -0.023536256 -0.17663649 -0.026796628 0.17105895 -0.13808268 0.1594884 0.026217613 0.011609341 -0.1820724 -0.07693651 -0.18776459 0.14260347 -0.20814294 -0.037283923 0.15104942 0.08635982 -0.13071401 -0.095703624 -0.035269488 0.11106363 -0.18102702 -0.15343751 -0.1323498 0.180119 0.18582813 0.16494474 -0.05029311 -0.02971866 -0.12865415 -0.11147421 -0.11579015 -0.23685455 -0.10250184 -0.12805924 -0.08884598 0.06353346 -0.12937453 -0.1630288 0.044704154 -0.14296867 -0.16662315 -0.13406767 0.10980702 -0.046861276 -0.08194564 0.19004923 
0.11014687 -0.22208859 -0.11725093 -0.050034825 0.0056049284 0.018484749 -0.10797414 -0.078365244 0.08433292 0.13669878 0.09895709 0.039711684 0.04259131 -0.12209558 -0.036794554 0.046026643 -0.01627406 0.19228019 0.028593866 0.09821489 0.118919216 -0.06165907 0.019482112 0.10339344 0.042958003 -0.10045947 0.13390061 -0.0733903 0.005597939 0.119980976 0.13478677 -0.12675212 0.078547396 -0.14934616 0.10974444 0.0490955 0.035579745 0.099042796 -0.15245609 -0.042017724 -0.070553154 -0.044934995 0.15397365 0.010381061 -0.09684059 -0.14701958 -0.14805582 -0.19096012 -0.085872434 0.015931355 0.1252854 0.09729577 0.019204933 -0.020919431 0.004993645 -0.14468795 -0.03584708 -0.12698191 -0.04996538 -0.11973974 0.16722584 0.016362097 0.052058984 -0.051555693 
-0.18225743 -0.1767434 -0.055761643 0.124138586 -0.08816555 -0.104606956 -0.18129368 -0.21426366 -0.08506422 -0.16608822 -0.1065583 0.12240797 -0.16133519 0.056935232 0.120719895 -0.14419174 0.008648249 -0.07645691 0.0041694567 -0.12444582 0.011118019 0.12483979 -0.026860166 -0.021435611 -0.039304327 0.11172486 -0.1528274 -0.029771468 -0.006810895 0.0118005695 -0.10731046 0.124014415 0.16903462 -0.21940519 0.09734704 0.06525835 -0.2140879 -0.017445752 -0.06938542 -0.00058606185 0.07909703 0.046873245 -0.10923236 -0.016672462 -0.028018108 0.029924894 0.1543305 -0.14782876 -0.011432806 -0.015568064 0.12520137 -0.016190182 -0.1654472 0.04250222 -0.02621237 -0.17350854 -0.16174507 0.14296284 -0.056072757 -0.006284075 -0.14427492 -0.009052475 -0.17731392 0.22248094 
-0.14115289 -0.1104906 -0.15167198 0.086471155 -0.12778504 -0.031156756 -0.023782922 0.1797628 0.07353678 0.032575943 0.08690458 0.13971813 -0.060069084 0.030602582 0.1874994 0.08661373 0.17536366 -0.2195224 -0.11397934 -0.120104775 0.11213962 -0.23171312 0.13042101 -0.094084814 -0.13350073 -0.15273167 0.095192604 0.059682198 0.005846642 0.071565315 0.114727 -0.10945136 0.06638415 -0.057153124 0.117230296 -0.07391029 -0.10634903 0.03968275 0.06560993 -0.099161096 0.0877218 0.11959371 0.102595456 0.06480802 -0.06714036 0.048317418 -0.08170857 0.1327392 0.11183758 -0.089843065 0.053870387 0.113332 0.07060918 -0.062429257 -0.01252822 0.04629983 -0.009654684 -0.26086688 0.08985608 -0.20632614 0.15556347 -0.08516385 -0.15581542 0.0073278323 
-0.038749475 0.030176839 -0.00861401 -0.017892543 -0.10213458 0.1133852 0.15438339 -0.033279825 -0.0538397 0.072082356 -0.021195753 -0.14587255 -0.09805723 -0.033901565 -0.076171875 0.030492013 -0.037192546 -0.10532123 -0.21953537 0.14655036 0.014762141 0.04735153 -0.1625197 0.044089265 0.123996615 0.18928148 -0.1938227 0.0906904 -0.100691535 0.10895368 -0.14202757 -0.031199712 -0.11859017 0.14712945 0.033433042 -0.0033412417 -0.16060585 0.04140179 -0.19797045 -0.027329931 0.15316638 -0.002450767 0.0010831469 -0.18263926 -0.007183029 0.16031 -0.006195041 -0.10080932 -0.023466168 -0.264019 0.022869252 0.0127949575 -0.10981469 0.081209965 -0.11694393 -0.20054689 0.09671123 -0.08583641 0.11161054 0.08174466 -0.06873672 -0.18715757 -0.13292417 -0.018218737 
0.05919669 0.072017565 -0.017361166 -0.11082222 0.027611136 0.15503645 -0.09599594 0.0028135346 -0.08711577 -0.18840785 -0.00793202 -0.18064462 -0.120530516 -0.069197826 -0.048318546 -0.15637806 -0.2008972 0.0685306 -0.10722317 0.118991 -0.08987008 -0.19083501 -0.046894062 -0.10060528 0.11532528 -0.004345061 -0.119794406 0.12178284 -0.10735042 0.10655895 0.02211901 0.13759433 0.19256303 -0.0812543 -0.14334458 0.05928728 0.10764125 0.058918312 0.1449434 -0.08579979 -0.0462682 0.027469032 0.10596672 -0.18643773 -0.04302983 0.068302296 0.022533339 0.047609683 0.028123436 -0.15663679 0.082362376 -0.0068407827 0.0436169 0.003062515 -0.100970134 -0.006612105 0.069347955 -0.101995304 0.009641736 0.04545686 0.12577266 0.016394401 -0.1279748 -0.05279459 
0.101934046 0.1954409 0.17672202 -0.22065282 -0.04038608 -0.13064599 -0.18253422 -0.056731686 -0.047967248 0.16099451 -0.09157654 -0.25668156 0.17383507 -0.06425673 -0.1494104 -0.07020967 0.09205532 0.13745211 -0.010893681 0.08982072 0.016297339 -0.07371624 -0.022354502 0.057136342 -0.13559666 -0.04365116 -0.19117093 -0.010607097 0.0661584 0.004879278 -0.05505149 0.1342179 0.11269427 -0.105940245 0.07392704 0.14960125 -0.09461871 0.080445126 -0.059788812 -0.011844133 0.08547445 -0.1184367 0.0854253 -0.09490817 0.169937 -9.145054e-05 -0.05071615 0.017548773 -0.16358642 -0.0062896274 0.10479439 -0.19981243 0.076220155 -0.04068296 0.035465404 -0.07015367 -0.049474183 -0.20795622 0.0045039617 0.066414714 0.15240237 -0.14771427 0.04606664 0.026558649 
0.11796685 -0.012567216 -0.18533346 -0.15943187 -0.022305926 -0.09328003 -0.16859867 0.0017116637 0.14001064 0.08964279 0.016704893 0.16893762 0.0006904132 -0.09885841 -0.040590566 0.23185354 -0.18261017 0.1592348 -0.14127822 -0.17908609 -0.020650515 -0.06425878 -0.025657767 -0.12729117 0.24435043 -0.14096153 0.06750151 -0.04146631 -0.07512161 -0.06303643 -0.16326971 -0.004733311 -0.21321791 -0.049575742 -0.02207058 -0.18413691 0.011407516 0.16086033 -0.19739974 0.10215098 0.06954816 0.02333366 -0.1266279 -0.20170236 0.046812788 -0.090956196 0.036268882 -0.1754434 0.029503344 -0.10302224 -0.11198837 0.018879162 -0.16996282 0.13048235 0.10040147 -0.0469673 -0.022439905 0.08541998 -0.15723442 -0.037007112 -0.014766517 -0.044254802 0.03536814 0.15103261 
0.093788564 -0.11918264 -0.026254943 -0.0073213275 -0.13861771 0.14652415 -0.073143296 -0.17324491 0.028271645 0.15374559 -0.17338966 0.14779647 -0.004758928 -0.119443476 0.0992682 0.07101491 0.108296596 -0.14763373 0.059137672 0.16010241 0.13415506 0.12870328 -0.051557247 0.05735417 -0.16653448 -0.05389482 -0.09966259 0.00028915863 -0.040061843 -0.07339334 -0.12368311 0.0025520436 -0.15836771 -0.11667672 -0.085517995 0.13619253 0.07715292 0.09380675 -0.051738977 0.11887419 -0.1451436 0.13996565 -0.11875188 -0.024431061 0.07524922 -0.15129006 -0.108206056 -0.039283495 -0.031251702 -0.030364383 -0.12951103 0.15540908 -0.10482261 -0.015570086 0.03150303 -0.044184085 0.14473164 -0.11030827 0.11201746 0.094165295 -0.09368385 -0.12502326 0.104548536 0.09038342 
-0.019081429 -0.0710813 0.013963639 -0.05449692 -0.027303513 -0.032497086 0.074152306 -0.0811472 -0.12446516 0.13284785 0.09711692 -0.072698906 -0.09583709 0.07615497 -0.0993292 -0.15586558 -0.17626742 -0.07572167 -0.0046840073 -0.13394779 -0.18535666 0.07070684 0.113665566 -0.033664744 -0.060995255 0.036130294 -0.13657801 -0.007263206 0.07460297 0.11134605 -0.2152286 -0.086210266 0.18343516 0.0055285194 0.07313059 -0.12155413 -0.09852373 0.030386057 0.027678985 -0.12541267 -0.0438264 0.1109196 0.18956321 -0.17667365 -0.054963287 0.009125367 0.037846584 -0.13233408 0.19926187 -0.09565463 -0.17308661 0.07872047 -0.108854026 -0.025779895 -0.12619479 0.02126848 0.0033333325 -0.010161458 0.07560769 0.018738465 0.025317388 0.009402174 0.11360464 0.029715912 
-0.20043984 0.05319891 -0.09169941 -0.03923658 -0.05208985 0.047771256 -0.15738127 0.060617965 -0.053314164 -0.15719546 -0.034974594 0.017758029 0.013205974 0.12760615 0.05316037 -0.12671891 0.022497313 0.07835401 -0.20104852 -0.0767314 -0.07068327 0.15221685 0.14078835 0.0982135 0.13172753 -0.03528771 0.0049415966 0.18412702 -0.14284225 -0.031808317 0.057197765 0.13880764 0.16187312 -0.05945893 0.085957915 0.09079669 0.05639927 0.12303547 0.11570166 -0.10799703 0.18934853 -0.008220337 0.016197452 0.05371572 -0.05629282 0.06157411 -0.020909086 0.12819886 -0.04479619 -0.19472058 0.18923609 -0.08696884 -0.15628298 0.09107747 -0.07635749 -0.110849716 0.080395274 -0.089549236 0.052230816 -0.15733856 -0.08971598 -0.0077748485 -0.05978867 -0.05067874 
-0.10981017 0.04481803 0.025481736 0.12728435 -0.1577613 0.06609007 0.040069144 0.03132455 -0.1571254 -0.08646887 -0.095097326 0.118400946 -0.11808424 0.1845004 0.011508166 -0.07365936 -0.04280985 0.13422388 -0.117398664 -0.14241117 0.06594196 0.15672505 0.038803175 0.10087981 0.07413431 0.009299629 0.059280295 0.022458298 0.03671855 0.11280361 -0.10958719 -0.010442618 0.13810687 0.004142759 0.11469669 -0.044544138 0.09457401 0.18094681 0.022084879 -0.07966407 0.14639649 0.0154354265 -0.020254966 0.16488937 0.08721678 -0.0075824764 0.10432209 -0.21288691 0.14629641 -0.0539681 0.15894459 -0.005460576 0.08815975 0.05056156 -0.12495496 -0.17968386 0.13122958 -0.033465724 -0.12057409 0.008363748 0.10706277 -0.16222398 -0.061870664 0.07739823 
-0.13533084 0.1061134 -0.16488929 -0.16755605 -0.23982523 0.11451221 -0.2152987 0.029021304 -0.10608955 -0.07597538 0.01764618 0.038813323 0.15904477 -0.12613583 0.27152607 -0.0560769 0.08484668 -0.11468899 -0.20618442 0.12502627 -0.1256973 4.1673306e-05 0.02959437 0.13824661 0.16336307 -0.015353554 -0.03001917 -0.042495646 0.07540016 -0.12729523 0.1152402 0.034215406 0.09333601 -0.14608471 0.10513535 -0.15909588 0.011281197 -0.15072794 -0.040810965 -0.038192187 -0.07751039 -0.16174954 0.15572987 -0.18459947 0.14224197 -0.017726036 0.03706127 0.023899492 0.0019912948 -0.09373526 0.08190665 0.07919595 0.15257534 -0.10471303 0.10965308 0.03889237 -0.11333324 -0.004455123 0.16372813 -0.0034258242 -0.14397635 -0.11411563 0.03548681 0.104172975 
-0.09343416 0.07436172 -0.1589824 0.043395262 0.026824968 0.1480042 -0.22092548 -0.22265373 -0.0073296875 -0.04601815 0.055933297 0.06648529 0.15331721 -0.055366065 0.1604168 -0.13442557 0.08681667 -0.043591164 -0.12906478 -0.13794434 0.04942155 0.03427317 0.12727289 0.04639045 0.07590738 -0.027587345 -0.13819262 -0.08235374 0.005617553 -0.13901031 0.16598453 -0.01639455 -0.05304562 0.05432036 -0.04594695 -0.0807186 0.037648406 -0.061059073 0.047405537 -0.15268016 0.07970775 -0.09911025 -0.036261823 -0.11300487 0.120055854 -0.029410372 -0.015134813 0.09286659 0.0321381 0.036667336 0.11964385 0.0900938 0.022330904 0.12898105 -0.022778353 -0.035310373 0.09214395 0.066458054 0.1674207 0.055228602 -0.12011362 -0.009703493 -0.04060859 -0.17966953 
0.09614258 0.013976541 0.090948075 0.047467258 -0.023409564 -0.06761272 -0.077706285 0.111183666 -0.10119497 -0.036650468 0.053182475 -0.08270102 0.07589622 0.10251527 -0.07185106 0.020798856 -0.06086393 -0.094802834 -0.254583 0.037806775 -0.048683316 0.050043408 0.113340974 0.1409047 0.15940689 0.112278625 -0.18218684 -0.14433041 -0.14085978 0.13852008 -0.02118924 0.009790798 -0.047484547 -0.094733536 -0.15635014 -0.1168526 -0.19835831 -0.013562497 0.12677777 -0.17257166 0.046018224 -0.16919446 0.16005516 -0.15970828 -0.0064249346 0.073392846 -0.026588764 -0.16872396 -0.05154593 0.098231435 0.012342773 -0.08839777 0.01692578 0.11684298 0.18225011 0.13685006 0.09648443 -0.07153622 -0.1464344 -0.1640525 0.16571817 -0.023433566 0.08717815 0.07193211 
64
-0.0065171085 -0.03561686 0.04084935 -0.029264985 -0.03300513 -0.009774928 -0.049600765 -0.036297582 -0.042637892 -0.05223782 -0.028977498 -0.07395035 0.024990102 -0.06648186 0.041481413 0.0064751245 -0.0009951226 -0.03769293 -0.053067133 -0.028897364 -0.036659252 -0.02319186 0.019603414 -0.05545979 -0.00837712 0.0070196413 -0.05714871 0.022131506 0.042572938 0.07437795 0.009896197 0.06777353 0.079789445 -0.007450783 -0.09727932 0.008929384 0.009795289 0.007578518 0.011157248 0.0076845577 0.12554245 0.0011861479 0.039184086 -0.034160126 0.046285886 0.08274511 -0.04399085 0.010506067 -0.08814027 -0.032235757 0.039536167 0.011466534 -0.1678725 -0.10046867 0.017806154 -0.02443328 0.07608372 -0.032348827 -0.0054317787 -0.015332076 -0.016976926 -0.037629627 0.009470211 -0.021835692 
64 128
-0.011938874 0.01781271 0.15373893 -0.1639633 -0.06368921 -0.08649438 -0.08067923 -0.023728073 0.22935085 -0.06683226 -0.10504665 -0.04557935 0.10588885 -0.12848425 -0.0053020664 0.15592055 -0.0473557 -0.15052554 -0.15511549 -0.17781146 0.10258681 0.049446218 -0.023871755 -0.14527781 0.19057691 0.09046829 0.04197043 -0.07345183 0.16038337 -0.0012752333 0.040342227 -0.0892361 0.06429998 0.013217867 0.018408481 -0.0024390575 0.056439538 0.025237493 0.10380016 -0.16592377 0.05543592 0.053228255 -0.010449346 0.065004535 0.056998946 0.012995191 0.19920978 0.18324953 0.105232 -0.26453197 0.1782053 0.15968738 -0.17964482 -0.06007628 0.18908288 0.08089796 0.14473858 -0.13012724 -0.036491543 -0.117983475 0.0022194982 -0.02568036 -0.19968629 -0.043283198 -0.07475087 -0.11170945 -0.06887814 0.17151982 0.21360332 -0.010470484 -0.098997414 -0.1922216 0.10559126 0.21972337 -0.077998295 -0.005390836 0.008307291 -0.23225799 -0.075077064 0.019587794 -0.122352436 -0.05883948 0.08417965 0.008297148 -0.043210365 -0.08801743 0.13242958 -0.16476095 -0.11144429 -0.02783225 0.036562983 -0.1481435 0.04490265 0.11263368 0.2093347 0.093166955 -0.16694085 0.068137266 -0.13143714 -0.137097 -0.012970375 -0.071763866 0.019740526 0.071173824 0.16806401 -0.09991462 0.14556965 -0.13246526 -0.17922783 -0.01695316 0.2079226 -0.12932448 -0.007997517 -0.072299466 -0.020486014 0.029525898 0.052801732 -0.1763728 0.01479307 -0.12142755 0.09767424 -0.18574521 -0.12780283 0.07473943 0.122429505 0.06694067 -0.0066904277 -0.19325396 
