3 0 4 4
5
mean
64
relu
relu
relu
relu
relu
relu
relu
relu
relu
relu
sigmoid
128 64
0.24394546 0.020193145 -0.39448935 -0.045602188 0.03241399 0.1320778 0.02489581 -0.021675806 -0.13607572 0.30869192 -0.15834542 0.044794574 0.16041096 0.011518311 0.17018211 -0.16041894 0.11515641 -0.043552376 0.014677684 0.028956708 -0.009387469 -0.25078142 -0.30183196 0.046158276 -0.012947747 -0.08924647 -0.14284131 0.031973444 -0.19428094 -0.9658441 -0.15629609 -0.1338841 0.26816675 0.12217966 -0.22819068 0.1610099 -0.083772324 -0.17648719 0.058854986 -0.1933982 -0.22138536 -1.2700481 0.19354825 0.063925885 -1.4151677 -0.063400775 0.15265472 0.115264975 -0.18554926 -0.09131656 -0.18217462 -0.0891399 -0.20119506 0.2483865 -0.0811634 -0.12785485 -0.031422187 0.0064557013 0.12918495 -0.07969965 -0.09801231 -0.109955035 0.14651603 -0.058976434 
-0.19000416 -0.20322664 -0.14109367 0.16493821 0.01169899 -0.1590644 -0.17382 0.18984357 0.09205989 0.092040144 -0.051694162 -0.09750026 -0.010509105 0.020037275 0.016498655 0.12917253 -0.06584725 -0.15235548 -0.012430451 -0.03857333 -0.15120962 0.12199231 -0.16005464 -0.19055091 0.065732494 0.0031695357 -0.047629874 0.003294702 -0.027264511 -0.24993308 0.1631066 -0.1204517 0.12294025 0.09976564 0.093243085 -0.13486338 0.12971637 0.12943593 -0.05203565 -0.15553696 0.19939622 0.21396784 -0.05714523 -0.052166265 0.14128418 0.13882394 -0.17496377 -0.098920465 0.014594747 -0.07855298 -0.06581517 -0.16022146 0.1928589 -0.39525372 0.035780083 -0.043584898 0.00244873 0.041424993 0.1477963 0.03108792 -0.4054254 -0.09062935 -0.060317922 0.154873 
0.11814165 -0.106708266 0.061437026 0.07906553 0.038334854 -0.025348926 0.081968494 -0.11685615 -0.06799125 -0.11023102 0.06803888 -0.052347906 -0.108884014 -0.052677736 0.065283194 -0.09374239 -0.14981736 0.033402517 -0.12220365 -0.10017339 0.21256591 -0.13791473 -0.25318578 0.014262689 -0.12787338 -0.17325048 0.31159747 0.089368545 -0.07510171 -0.4206984 0.05538977 -0.09640076 0.036776192 0.030252432 0.0016415159 0.20906931 -0.026025573 0.059297435 -0.080128945 0.072895266 0.041833807 -0.18230763 -0.05013508 0.051549736 0.17774397 0.2752063 -0.277764 -0.09106271 -0.030450298 -0.04654845 0.06664226 0.053581066 0.18322052 0.024692103 -0.24862806 -0.0878701 -0.003929363 0.07368047 -0.20529707 0.11424638 0.038926307 0.1513458 -0.024376499 0.10607346 
0.12772341 -0.14300433 0.100976534 0.11936436 -0.043473657 0.09112912 0.060119055 -0.029737603 0.06819598 -0.11698077 -0.0073815538 0.122799136 0.048922293 0.09557972 0.04031233 -0.11278293 -0.08705409 -0.09051107 0.12926592 -0.16618499 0.041549306 -0.07550964 -0.0012195238 0.10231836 0.09576363 -0.05547492 0.1370191 0.15673734 0.11530585 -0.29174972 0.17387012 0.034063064 -0.16475353 -0.08786538 0.0684558 -0.19365433 0.017326588 -0.18173678 -0.15745442 -0.15488786 -0.26834354 -0.06403588 0.15758151 -0.18650572 0.088091746 0.24156986 -0.117699005 -0.094734006 0.20768476 0.20133658 0.02470158 -0.1745209 0.22212903 -0.16452493 0.08829076 -0.18586947 0.11397972 -0.15084282 0.09647611 -0.047342353 0.022735925 0.1726577 -0.13305405 0.061836716 
-0.31701317 -0.19020775 0.028990487 0.11379225 0.2042243 -0.117266424 -0.050720956 0.13712318 -0.0719429 0.16034923 0.15600435 -0.13159549 -0.16516957 0.22428165 0.02761946 0.07229683 -0.13218035 -0.15005632 -0.1888381 0.14078656 -0.11308018 0.2428461 -0.14093845 0.12754773 -0.18599628 -0.028051667 0.106921546 0.1287703 -0.07524314 -0.24354118 -0.17884775 0.074186824 0.15267943 -0.09464092 -0.17446032 0.03319834 -0.09228192 -0.057372496 -0.1181325 -0.14435953 -0.23331875 0.14377183 -0.14281417 -0.1182635 -0.05588137 -0.24268907 0.07581766 -0.046009414 -0.090633325 -0.13133004 -0.07170141 -0.12645896 -0.06510224 0.07329878 -0.20519443 -0.13451973 0.097890474 0.13804655 0.018595155 -0.078387745 -1.569663 -0.11898904 0.06668255 0.09370212 
-0.11399134 0.06104093 -0.08498015 0.04890321 0.053439837 -0.16731983 -0.08396428 0.0764564 -0.02538326 0.121575736 0.0034312916 0.021196166 -0.04250466 -0.10705129 -0.08392455 -0.113886476 -0.07700721 -0.20543617 -0.025384374 0.064219296 0.08324013 0.09233692 0.047305245 0.1332376 0.06302601 0.043301858 -0.05288689 0.124721624 0.14553729 -0.23097852 -0.06979081 -0.19381489 0.18748163 -0.13062136 0.06255568 0.057639908 -0.06431938 -0.07831713 0.12842135 -0.13648883 -0.027710857 0.09819725 0.14605944 0.21448202 0.08191789 0.09631038 -0.027131405 -0.20551956 0.051986706 0.07196273 0.09218065 -0.10702176 -0.12862232 0.06127161 0.0057482845 0.08102429 0.031411324 0.11796964 -0.16601482 -0.036274906 -0.69034815 -0.13228008 0.056630082 0.20752357 
-0.30889532 -0.31372574 0.028847001 0.23786373 0.08140351 0.17545329 -0.07803877 -0.118214324 -0.24772723 -0.69739324 0.017713217 0.22626266 -0.568317 0.51717573 -0.1406151 -0.07474618 0.16046178 -0.3597651 0.15073623 -0.29999492 -0.53004694 -0.05625025 -0.21461761 -0.012109421 -0.033576965 0.104471244 0.05563416 0.045338597 0.15482144 0.45624766 0.050538715 -0.023799777 -0.22833858 0.07435175 -0.19705889 0.17491737 0.1540223 -0.13157268 0.23698272 -0.10123597 -1.256845 0.13833457 0.28078902 -0.3245845 -0.27872348 -0.5722625 0.31172645 -0.08726893 -0.33912292 0.028417086 -0.08024391 -0.079079404 0.15647028 0.13655967 0.2211087 -0.12166377 -0.10624685 -0.04959016 0.08119008 0.12827048 -0.6060872 0.2191399 0.20227958 -0.37873286 
-0.2864917 0.088414535 0.18691386 -0.13654302 0.05378244 -0.21008581 -0.0069926125 0.10711672 0.055701695 0.015037826 -0.11885621 0.087258294 0.097085714 -0.12860604 -0.119986966 -0.036785584 -0.14055783 0.016157512 -0.018380724 0.17605372 0.02936198 0.028580496 0.1638614 0.03956235 -0.11395225 0.09605138 -0.14902882 -0.039132476 -0.05821833 0.18587708 0.085824996 -0.1462969 0.19377473 0.024719449 -0.035653364 -0.15793274 -0.007190543 0.14090139 -0.15864605 0.19401744 0.019044591 0.16611719 -0.25629637 0.19900216 0.20399018 -0.2891247 -0.16861099 -0.046482474 0.07392431 -0.11474232 0.15543191 -0.19485393 -0.23205881 -0.10112719 -0.049211163 0.10967068 -0.20723662 0.08159086 0.06275359 0.13940799 -0.12600507 -0.16928369 0.05471433 -0.08514546 
-0.1302801 0.011283703 -0.086681664 0.073825605 0.12268033 0.0365138 -0.12258866 -0.08025274 -0.15573777 -0.1566592 -0.17067574 0.16237584 -0.088040076 0.08294462 -0.020440798 -0.18774061 0.16679105 -0.095938854 0.06600013 -0.10607534 -0.10366828 -0.037954763 0.03733151 0.08363205 0.077831306 -0.15879485 -0.022872616 0.0443795 0.089321785 -0.10182242 -0.17195281 0.090871945 0.07891409 -0.07443357 -0.006315973 -0.035208054 0.03510064 -0.16553223 0.1824394 -0.09232312 -0.13026392 -0.018992174 -0.061587475 0.053109482 -0.0034643114 0.18343258 0.07083814 -0.04085539 -0.050927207 -0.11668807 0.16022375 -0.066515185 0.04025483 0.16664772 0.10638656 -0.07826076 -0.0010111481 0.15464799 0.06107864 0.056228675 -0.027470006 -0.05635183 0.10525532 -0.12671447 
-0.09994313 -0.15384154 -0.09476849 0.042280897 0.017496519 -0.20820963 0.10771804 0.0053170943 -0.07575555 -0.029984474 -0.20667158 -0.10234863 -0.12724395 -0.12742886 0.14372076 -0.08526761 0.07853074 -0.13922943 -0.03743929 0.020401197 0.04354663 -0.09763638 0.15778756 0.15246439 -0.14997318 -0.063662365 0.07780618 0.08047309 -0.042519365 -0.022682026 -0.01687976 -0.15949944 -0.0021544027 0.076204926 0.08770875 0.06929634 -0.08198914 -0.15873072 -0.05224425 -0.22559735 0.045937363 0.0326035 0.100874074 -0.18377705 -0.24567878 0.13849877 0.06949771 0.10519521 0.13348415 -0.09184279 -0.2132301 0.046113767 0.20736946 -0.14910106 0.15650074 0.069394305 0.0068881726 -0.10156974 0.12390536 -0.052468233 0.1175543 0.15806463 0.09180586 -0.03396645 
0.12290681 0.08135611 -0.0046121343 0.12829241 -0.08389514 0.1181906 0.17582236 0.10498404 0.12553604 -0.04866202 0.16738929 0.023833977 0.1213962 0.02499116 0.101899594 0.007240994 0.14435105 -0.092767306 -0.06343648 0.039421413 0.05643551 -0.10334 -0.15483737 0.095212676 -0.09071864 -0.08478933 -0.015368525 0.09428913 0.09990277 -0.1534622 0.059638012 -0.044381976 0.11215547 -0.0019448276 0.09198387 -0.0621942 -0.033716045 -0.04388783 -0.122197814 -0.047033597 0.055056777 0.09656872 -0.15799537 -0.15162021 -0.08250462 -0.02416912 0.0014481135 -0.13791731 0.0003125407 -0.1755938 -0.1389361 0.05539547 0.05901191 -0.17339033 -0.04366644 0.15472905 0.14544193 -0.08484992 0.021284144 0.13442717 0.101543754 -0.12269796 0.04287445 -0.13562158 
0.14644554 0.00937412 -0.21692702 -0.02049962 -0.028177576 -0.008108743 -0.1771367 0.024597602 -0.14232408 -0.007699558 0.059512295 -0.12134606 -0.29431835 0.051676124 -0.15084437 0.08260858 0.008133912 -0.14868686 -0.020229094 -0.15895464 -0.06626872 -0.061125938 0.21581292 -0.022475507 -0.0017756231 -0.015501675 -0.047431342 -0.007540751 0.15575382 -0.06860409 0.20066644 -0.16788474 -0.21191305 -0.14289835 0.22767201 -0.04459191 0.08774344 0.071211435 0.10701892 -0.1719666 -0.10623675 -0.24121809 -0.006987643 -0.10197957 -0.36111 -0.18278255 -0.03366734 -0.13537498 0.021502122 -0.003511489 0.061409596 0.013331732 0.012810352 0.2265729 0.3940672 -0.095401414 -0.19435135 -0.04026885 0.052368786 0.062219605 0.04869276 0.02076919 0.20676228 -0.10514443 
0.18142875 -0.32824123 -0.24583083 0.0047217924 -0.11207213 -0.14234616 0.010779398 -0.07069012 -0.011807461 0.1281838 -0.18135743 0.13343987 -0.2426647 0.10722031 -0.17833832 -0.02897886 0.00087678514 0.021535164 0.11179558 -0.009763745 -0.040775917 -0.049946126 -0.45197606 0.022145078 0.11627094 -0.21798238 -0.5055975 0.20251578 -0.08191203 0.0027625307 -0.10065967 -0.0765254 -0.14409752 -0.15786037 0.10882676 -0.17677398 -0.08110978 -0.10852378 0.26297224 0.12995678 0.20386693 0.067356184 -0.08394228 0.20310843 -0.14704555 0.093990795 -0.017367534 0.0915975 -0.22177435 0.083868496 0.0025163363 -0.104670346 0.08392028 -0.12484943 0.26109308 0.062227197 -0.050228193 0.08846429 0.10921818 0.117973045 -0.23321185 -0.03704698 0.024424832 -0.06414381 
-0.12081187 0.13274509 -0.19038147 0.09926862 0.04636978 -0.12854308 0.0015118715 -0.13540936 -0.17730312 0.08249007 0.06760748 0.13257188 0.063172385 -0.15458985 0.07317819 -0.062364284 -0.0653287 -0.021236517 -0.15422668 -0.08687752 0.21234779 -0.02544042 -0.11700435 -0.13119318 0.12378285 0.14006688 0.023133282 -0.05551547 0.07396344 -0.15093523 0.059535976 -0.038722165 0.0046102675 -0.19933948 -0.022870269 -0.010567523 -0.1574751 -0.054555513 -0.040594954 0.105075195 -0.18879694 -0.035587355 -0.09483609 0.03300926 -0.19315037 -0.015379433 0.14391977 0.044813313 0.10808669 0.21527417 0.06673805 -0.20946088 0.12241007 0.1793383 0.08162817 -0.10096269 -0.03272524 -0.11827086 0.017503722 0.095323436 0.14657442 0.23328918 0.05847556 -0.10510852 
-0.015844831 -0.08920259 0.12590528 -0.10873412 0.01397488 -0.029859517 -0.1578365 0.15953518 0.038216725 0.095965564 -0.16116731 0.10251009 -0.10752578 0.17620711 0.067884706 0.17002465 0.08690347 0.10176245 -0.007049188 0.040935736 0.10131927 0.079035066 0.12762831 -0.017269816 -0.0054910183 -0.12784526 0.038699865 0.14810356 0.088391446 0.06764065 -0.13295728 -0.091830246 -0.19293565 -0.0014205673 -0.07769406 -0.10201642 -0.0917857 0.049357537 -0.09464304 -0.032851607 0.0015045536 0.0960527 -0.052920394 -0.03310861 0.14690226 0.08145054 -0.077973194 0.10576668 -0.07812103 0.021661282 -0.049960542 0.117685035 0.11924776 0.15228057 -0.16924095 0.11852759 0.064925104 0.1551286 -0.085239284 0.07753756 -0.031950857 0.17430994 0.06616656 -0.07458742 
0.09610051 0.051900394 0.06465304 -0.05757383 0.12614134 0.12343295 -0.2000903 0.16762736 0.013067058 -0.17332323 -0.036723666 0.05222439 -0.1536668 0.10281024 0.12367429 -0.03858749 0.05383005 0.027566485 -0.038768403 0.18981571 -0.1047621 -0.23418525 -0.1320624 0.1656282 0.10546827 -0.21913852 0.041095678 0.043584634 0.102789685 -0.3169788 -0.077821724 0.124795966 0.069001995 0.06500961 -0.08191271 -0.057482887 0.0116492165 -0.034324348 -0.11166854 -0.14176704 -0.029420847 -0.20229937 -0.016573122 0.11469221 -0.031772178 0.3219768 0.02587067 0.04813537 -0.3542035 -0.00534481 -0.0801002 0.04408169 0.19402768 -0.019979712 -0.030760277 -0.018791854 -0.19156355 -0.11043195 0.15211976 0.03039684 -0.13750638 -0.028582223 -0.09938608 -0.17739823 
0.23731798 -0.13002211 -0.45189857 -0.05093791 -0.023761753 -0.18473843 0.04190391 -0.15928431 0.0502647 -0.3961186 0.0077396324 0.03698047 0.08698775 0.17851993 -0.23889041 -0.12411398 0.048850354 -0.057615984 -0.1640095 -0.00044251003 0.16407053 0.036312576 -0.33924296 -0.21236943 -0.11758625 -0.00830574 0.08919039 -0.42187884 -0.1291496 -0.24084887 -0.11722148 0.11288152 -0.10549119 -0.14867963 0.53615284 0.17130058 -0.15261267 0.1518129 -0.35128412 0.058200408 0.11817842 -0.4323073 -0.08830082 -0.15824845 -0.41878572 -0.0036409958 -0.24188222 -0.09536186 0.11341336 -0.16318642 0.03054582 0.0062156944 -0.08914629 -0.20101203 -0.29419237 -0.044397637 0.11530919 -0.08001672 0.10643979 0.3158706 -0.024142787 0.13514648 0.35259858 -0.19468202 
0.17665559 -0.07342869 -0.095908694 0.18167105 -0.065416105 -0.11747531 -0.20174646 -0.18120566 -0.15488209 0.1417465 -0.04724252 0.12793675 -0.099706516 -0.15204674 0.16950306 -0.10095671 -0.04833396 0.0390491 -0.007301341 0.16611423 0.09698842 -0.054898944 0.1064115 0.1883269 0.12084064 -0.18336236 0.107289486 -0.099087775 -0.062794656 -0.050320573 0.05948624 -0.15759243 0.048179694 0.08450459 0.01490531 -0.056848202 -0.17816772 -0.060973864 0.08118805 -0.20782252 0.1445279 -0.09388157 0.100624025 0.05838499 -0.20194715 0.08883483 -0.039495956 0.12297866 -0.061300844 0.17499445 -0.09082269 -0.06093875 0.012616904 0.008131526 0.062284704 0.15756986 0.101235226 0.03045869 -0.13950554 -0.15012777 -0.0540101 0.1671303 0.066244364 -0.07339361 
-0.14835134 0.13088343 -0.06160631 0.03971816 -0.11975646 0.02503279 0.1077223 -0.15290575 0.08058737 0.13780242 -0.07748557 0.07200474 0.14915238 0.08155205 -0.12864594 -0.0045294347 0.056937993 0.099833205 0.026820753 0.09417973 -0.13182688 -0.1422326 0.08760807 -0.13752672 0.16960166 0.11841516 -0.024394171 0.07588182 -0.10391479 0.12611416 0.12521876 0.14334553 -0.06768995 0.1754481 0.06553906 -0.06678541 0.14228278 0.11813099 0.14894398 -0.094367236 0.11764161 0.013817027 -0.12685569 -0.020393576 -0.1385055 -0.16557069 -0.033090796 -0.19738118 0.0053009777 0.034241527 0.12567249 -0.0675188 -0.06714429 0.073241316 -0.06431288 -0.009916296 0.059915464 -0.05960518 0.15724127 -0.053675894 0.062538505 -0.12325441 0.16786753 0.18211214 
-0.050165556 -0.0016528466 0.0028543076 -0.28826937 -0.07171658 -0.013389387 -0.12850419 0.09632102 -0.07854119 0.28211063 0.11530471 -0.15729266 0.17946209 0.18918331 0.043318745 0.11702615 -0.0049581346 0.04395114 0.06396054 -0.09113287 0.06744704 0.16632795 -0.32428777 -0.024460454 0.12063335 -0.27416396 -0.1603521 -0.012384353 -0.20266633 0.26217204 -0.3178717 0.03362062 0.19842704 0.08214462 -0.08364198 0.19768098 -0.06107464 0.12047046 -0.19581775 -0.19998944 -0.15024239 0.64342064 -0.047464054 0.062422857 -0.44516551 0.061245743 -0.0147061115 0.012243427 -0.24156255 -0.11826747 0.1842567 -0.10029544 -0.009582371 -0.060106754 0.052718755 -0.05046144 -0.03105635 0.06221644 -0.15358011 0.0207342 0.13710576 -0.22076294 -0.010720996 -0.039319485 
-0.113746576 0.042933512 -0.10212666 -0.07772868 0.10764402 -0.13869213 0.04195124 0.07405814 -0.16945577 -0.16682902 -0.04481596 -0.033548508 0.16578521 0.057268105 -0.050627947 0.16794305 0.016256675 -0.08886099 0.13397531 0.16477518 0.06899528 0.11832853 0.06169095 -0.17390525 0.1113971 0.047669612 0.1692263 -0.11550142 -0.023440832 -0.03595756 -0.0734508 0.10506998 -0.011956191 -0.11411173 0.17016414 -0.0104578985 -0.036473826 0.034224097 -0.08928819 -0.07207927 -0.11211497 -0.092947066 0.11996664 -0.066176675 0.17508692 -0.021236554 -0.12757707 -0.09737005 0.07788906 0.13099015 -0.041211285 -0.047669508 0.034692153 -0.08608774 0.13119297 -0.07129999 0.097035244 -0.13835469 0.15168135 0.03137711 -0.15638304 0.030798446 0.1749156 -0.1503848 
-0.67757124 -0.032421604 0.092292845 -0.123291604 0.18726356 -0.22246438 -0.06486546 0.17435636 -0.028256025 0.18136342 -0.14491738 0.07042842 -0.06649096 -0.01552927 -0.083085 -0.07174225 -0.123398006 -0.118625596 0.075321384 0.010681051 0.010356578 -0.11811365 0.06877061 -0.22089553 0.051158622 -0.19890688 0.0039312313 -0.17460018 0.11777418 -0.09652529 -0.055337504 -0.14385311 0.08620712 -0.062217075 0.13906047 -0.16429786 -0.15967633 0.029534658 -0.111497715 0.074095406 0.1933498 -0.010475818 -0.26582146 -0.039854467 0.13483728 -0.026869854 -0.19519216 0.026884452 0.08403265 0.02880008 0.17413606 0.12495517 -0.09385859 -0.2680139 0.059880733 -0.16534355 -0.098561965 0.044893343 0.123095356 0.0079283705 -1.0378366 -0.12949069 -0.05911185 0.070699096 
-0.42207372 0.13485883 -0.1821839 -0.044706453 -0.059772022 -0.013711842 -0.044784956 -0.12358253 0.04165654 0.031199206 -0.15515818 -0.06525145 -0.20951673 0.0044855056 -0.07969774 0.092304766 -0.08917932 0.11004959 -0.15599945 -0.11424512 -0.08471032 -0.15276182 0.21542624 -0.19353554 -0.11676904 0.054785557 -0.2623605 0.09101016 -0.013531351 0.006513768 0.035152826 0.011219493 -0.050234817 0.111680135 0.012813425 0.08725383 -0.088130705 -0.0745805 -0.09024976 0.11296599 0.071483485 -0.13043542 -0.20979853 -0.10724114 -0.25317535 -0.0633008 -0.011700602 -0.066475675 0.19080383 0.01933747 -0.1776209 0.06126046 -0.25241578 0.036323275 0.0011630446 -0.06336586 -0.036869712 -0.05200748 -0.10162734 0.06513353 0.24843496 0.14002529 0.14817446 -0.0072506955 
0.23136587 0.02203163 0.018822514 0.026869247 -0.025510963 -0.17661096 -0.0025617843 -0.02262494 -0.050460342 -0.054812748 -0.16575333 0.08104893 -0.15569973 0.0015813292 0.021247374 0.12891175 -0.11469019 0.09270653 -0.08051195 0.0038252724 -0.061617807 -0.056753825 -0.11184821 -0.010206902 -0.06518872 0.10601778 -0.13327698 0.050648607 0.18055767 -0.23130351 -0.19765414 0.16343164 -0.00897119 0.0648147 -0.076178975 -0.009541192 -0.11939074 -0.0074430574 0.010968318 -0.06658478 0.036250398 -0.24158306 0.025366183 -0.1317887 0.037207413 0.10772852 0.108125806 0.16310966 -0.07389841 0.15992318 0.09632959 -0.0006880519 -0.112312526 -0.1128062 -0.062726535 -0.028226139 0.010806348 0.14583555 -0.16319212 0.11877663 0.10652495 -0.010794556 0.18138239 -0.11353283 
-0.1572634 -0.0017415949 -0.003950137 0.10197381 -0.06320712 -0.15837291 -0.07509605 -0.10038978 -0.033590402 0.11773471 -0.09123778 -0.07409601 0.009389687 -0.17315455 -0.007045153 -0.15198666 -0.0015627092 -0.096861355 -0.16362323 0.056653563 0.025401112 -0.070879996 -0.05257362 0.12961341 -0.11848964 -0.05001413 0.010720668 -0.0804007 0.16122903 -0.1839705 0.17305815 0.123465724 -0.1631398 -0.2348877 0.019971259 -0.12708513 -0.17471965 0.076114394 0.037385456 -0.118061066 0.09111165 -0.23038463 0.04518064 -0.20181899 -0.1951225 0.14315023 -0.08360305 0.19749878 0.22981049 0.0014210928 -0.13264105 0.04957584 0.057168387 -0.085390195 -0.15632667 -0.12898967 -0.10426668 -0.1974952 0.033870142 -0.17976749 0.012834469 0.19843599 0.19343224 -0.14844368 
-0.5155945 -0.43753144 -0.035911787 -0.029233536 -0.008995688 -0.050739527 -0.11256606 0.18129358 0.050982174 0.059393875 0.16132139 0.03737905 0.11143193 -0.1120504 -0.15657128 -0.18885486 -0.09172313 -0.16848421 -0.014207613 -0.09812853 0.1480207 -0.14003715 -0.121887326 -0.06714401 0.034668565 -0.31908908 0.0871561 0.034440607 -0.14739019 -0.13936746 0.20520777 0.12654337 0.11495585 0.12193738 -0.18144585 -0.10510563 -0.07425401 -0.08942761 -0.34036958 -0.035264578 -0.19212699 -0.024944054 0.016507868 0.14842124 0.1366292 -0.35125968 -0.050358597 -0.33917114 -0.053446397 -0.18029696 0.09141024 0.04451983 0.0074697807 0.2907404 -0.09672227 -0.10460637 0.15114398 -0.20571564 0.051777553 -0.04342593 -1.0681843 -0.01045603 -0.32733044 -0.16196068 
0.15331663 0.06353825 0.04091195 -0.04979097 -0.117429756 0.15407674 -0.07050135 0.147487 -0.15630497 0.032748587 0.17379774 0.092611164 -0.118898936 0.085687235 0.09913909 0.1363953 -0.098291926 -0.01094312 0.06234421 0.09164513 -0.13001975 0.112095006 0.049261745 0.10445864 -0.16203356 0.11370889 0.10585123 -0.04744616 0.1338554 0.07888328 0.0217697 0.13880803 -0.0043554353 0.07897753 -0.1786287 0.028364357 -0.083034195 0.15552285 0.063846745 -0.10850004 0.08279032 -0.10667753 0.005651387 0.14319068 -0.03177406 -0.002909102 -0.13905998 0.10055566 0.13835461 0.076467484 -0.04901899 0.123468205 -0.0070074988 -0.013470518 0.034387123 -0.055115364 0.13331221 0.017729579 -0.10303705 -0.057800252 0.11375963 -0.14933023 -0.01638552 -0.066283695 
-0.14747909 0.20544231 -0.16789714 0.15377538 -0.0940647 0.0025806988 -0.03342093 -0.21164626 -0.11267146 0.028773744 0.014101717 0.1274649 -0.027810983 0.019505402 0.1765705 -0.08625667 -0.08699978 0.121818915 -0.109030806 -0.14777884 -0.029504973 -0.17815171 -0.15306309 0.24655744 -0.11974273 0.15575299 0.10443294 0.03222985 0.13429579 0.008042373 0.14788364 -0.023632705 -0.16957141 -0.10773072 -0.0053034755 0.07700544 0.003340703 -0.13652062 -0.079512805 -0.16412899 0.12352559 -0.17007506 0.17130752 -0.07494482 -0.14541514 0.0072150053 -0.073793076 0.061297078 0.16019398 -0.013880885 0.040445693 -0.11855254 0.12178123 -0.12741569 -0.057709843 -0.12143485 -0.08718116 0.0116204005 0.05560119 -0.16701242 0.21928181 0.16073297 0.1587078 -0.15212226 
0.22640832 0.0321121 -0.1301974 0.10246893 -0.17189018 0.077479854 -0.13381816 -0.12244508 0.03304657 -0.014589477 0.16488785 -0.09127397 -0.1540811 0.042439114 0.14438812 -0.113121055 0.1087473 0.0075659915 -0.067485295 -0.12456233 -0.13547112 0.06150605 -0.05064005 -0.10978196 -0.17101978 0.09884493 0.3333084 -0.10799854 -0.017313119 -0.24916515 -0.0956549 0.026745515 -0.10668775 -0.14421824 0.012088258 -0.11683092 -0.118103184 0.008548586 -0.087273955 -0.19177483 0.020519951 -0.09217011 -0.0078328485 -0.13721661 0.22297062 0.19037755 0.0637102 -0.003489512 -0.11763819 0.009258149 -0.022969607 -0.12864096 0.22921453 -0.0762765 -0.14793961 0.15778844 -0.14642543 -0.067625225 -0.093377985 -0.21946917 0.013827019 -0.15978727 0.11683168 0.03471263 
-0.085036255 -0.10964537 0.0168514 -0.0486467 0.0124017 -0.0011297674 0.049181644 0.10161236 0.07453603 0.2545254 -0.23340553 0.015652938 0.17722964 0.04854758 -0.18867216 -0.041637674 -0.014276815 0.1088442 -0.1772269 -0.07008557 -0.05500425 -0.11211141 -0.2663714 0.08034036 -0.12212947 -0.06856 -0.2820297 -0.031258073 -0.15478703 -0.9119226 -0.1469266 0.16372707 -0.032608777 -0.037540395 -0.0013469901 0.03457202 -0.09394301 -0.07700327 -0.1959454 -0.20559116 -0.30390117 -0.016575452 0.14749199 0.035314474 -0.0021010514 0.076760545 0.24369857 0.020824606 0.041948292 0.07698734 -0.10524033 -0.15593037 -0.08897662 0.1037371 -0.16661811 -0.06685199 -0.006735805 -0.031940963 0.10263642 -0.19232057 -0.12935473 0.040042974 -0.017939758 -0.041638765 
-0.47785488 -0.19433962 0.048496272 -0.08440653 0.09985553 -0.16503106 -0.101091065 -0.049685787 0.19839619 -0.024400078 -0.002614524 -0.19725285 0.082492985 0.059609823 -0.10884828 0.08968532 -0.03464315 -0.09428225 0.13309097 0.037480794 -0.04309212 0.17855397 0.12769136 -0.14231743 -0.15124194 -0.12456619 0.034298524 -0.17890343 0.07512992 0.081430584 0.039511204 -0.14609568 0.13215958 -0.11615914 0.06928218 0.110456124 -0.09883686 -0.12997909 0.11735151 -0.04509321 -0.1423506 0.056173865 -0.21873482 0.16951245 0.034522437 0.05638799 -0.06621553 0.09788215 -0.1908368 -0.0729358 0.22031559 -0.14012003 0.029805122 -0.3350052 0.0032810098 -0.06694943 -0.102490656 0.1964561 -0.10961163 0.06714256 -0.9806573 0.07774237 -0.19276106 -0.0022233631 
-0.34816477 0.13115217 0.15070994 0.034383684 0.132186 0.05655081 0.11206876 0.24756728 0.10442411 0.29196438 -0.19288273 -0.0671203 -0.09707301 0.054513134 -0.191604 -0.13261819 0.09693172 -0.07146008 0.014771741 0.09472367 -0.0855562 0.07166417 -0.27402046 -0.20150717 0.11107968 0.15806347 -0.17998213 0.0077406564 0.04623452 -0.45872617 -0.058643453 0.0058887624 0.030652463 0.12396727 0.10361837 -0.2613516 -0.03684475 -0.13234174 -0.1731054 -0.23810823 0.23047669 -0.050800722 -0.088252544 0.22117972 -0.07187753 -0.2474524 -0.21324167 -0.27521333 -0.15718329 -0.01233159 -0.06409553 -0.16944148 0.32773125 -0.704738 -0.22127102 0.16010712 -0.06866085 -0.05765863 0.0010171474 0.13083751 -0.42177066 -0.0589659 0.053396963 0.06719014 
-0.17352483 0.074364476 0.15166892 -0.15083446 0.098325804 -0.13114148 0.038441308 -0.087600656 0.10974103 0.08950726 0.04225542 0.03693871 -0.22599919 -0.0762492 0.12747176 -0.018393507 -0.004009932 0.101821974 0.12786815 0.116539285 0.10037752 -0.032527436 -0.14472294 -0.13128069 -0.11957626 -0.16204755 -0.021345584 0.11628791 0.0007699431 -0.097472504 0.16463153 0.057726692 0.1181883 -0.0213097 -0.014593406 -0.19466296 -0.19763878 0.022852119 0.10303198 0.04025311 -0.030476818 -0.03714164 0.033391897 0.20950349 -0.10724421 -0.16772272 0.039427713 -0.11602513 -0.19492257 -0.04740293 0.09648976 -0.14547956 -0.03713286 -0.10501985 -0.16807762 -0.1640541 0.05334572 0.07560351 0.12108135 0.019751616 -0.87781376 -0.03657767 -0.12877491 0.0042105517 
0.08671674 0.0009855812 0.061429746 0.023670213 0.1762193 -0.02101932 -0.049121264 0.08976569 0.1660455 0.2045693 0.019354383 0.10208297 -0.22678804 0.19211692 0.032040175 0.08466412 0.0176977 0.19800816 -0.12274031 0.029461056 0.020034168 -0.11521994 -0.029987238 0.14595048 -0.0029020607 0.3028932 -0.10530506 -0.096250616 -0.18689342 -1.2818785 -0.16055284 0.053319853 -0.16298945 0.08820622 -0.09457864 -0.06829411 -0.08295596 -0.026845366 0.03433666 0.06067008 -0.37263286 0.032599702 -0.0404838 -0.19900338 -0.09977016 -0.0060458733 0.13263275 -0.018178541 0.06329566 -0.082655296 0.04292394 0.12216882 0.0621799 0.12635958 -0.057188194 -0.13992098 -0.16562392 0.13038914 0.1377189 0.118715644 -0.35893348 0.03942662 -0.14416252 -0.12921888 
0.17933032 -0.045162905 -0.197166 -0.08242678 -0.18321617 0.017659977 0.043823794 0.05397044 0.13233337 -0.16321868 -0.13198914 0.10020051 -0.08844302 -0.073933996 0.087277085 -0.088618465 0.017251683 -0.13491186 -0.07584627 -0.036693323 0.05916692 -0.22094549 -0.12754527 0.20008399 -0.08165472 -0.05968322 -0.039396778 0.0126643935 -0.06462811 -0.04074477 0.15058087 -0.06373136 -0.12347534 -0.06426272 0.07511867 0.19175975 -0.17515138 0.14011972 0.10938928 -0.08973454 -0.107727185 -0.17161407 0.25016508 0.031662695 -0.1443451 -0.046361968 0.21332197 -0.026391516 0.103888504 0.035378817 0.08803366 -0.017407633 0.06695313 0.028887676 -0.030818427 -0.11096572 0.10093362 -0.13616315 -0.20423332 0.087759905 0.056773465 0.20614378 0.1286283 0.0939752 
0.07938375 0.148021 -0.07320045 0.023622064 0.108580105 -0.13711849 -0.12814951 -0.21145222 -0.027353764 0.24232437 0.022053165 0.21392909 -0.03909473 0.09615858 0.020883556 -0.14447868 -0.07532405 -0.03330149 0.019076377 -0.0718922 0.1104876 -0.008271953 -0.3989157 0.10026078 0.14653002 0.027263733 0.0578937 -0.15332566 -0.07816773 -0.0707221 0.19799128 0.15188454 0.0038987403 -0.008284256 -0.1322351 -0.19095123 0.1273234 -0.06549907 0.027116535 -0.06599652 -0.14301065 -0.14215231 0.12739988 -0.025273817 -0.11215252 -0.13177587 -0.14020517 -0.10247833 -0.16008294 -0.05610468 0.15936357 0.1762081 -0.042202335 -0.1730544 0.022558607 0.15604179 0.14129908 0.02261023 -0.14217387 -0.07519377 -0.014130125 0.16991545 0.043676753 0.054859057 
-0.011258291 -0.032820124 0.013891067 0.18092498 -0.13548732 -0.15249014 -0.059988577 -0.18658963 0.029311677 0.1970535 -0.12235615 0.10380045 0.08316456 0.011997793 0.13282557 -0.028892733 -0.16371126 -0.16805038 -0.14263767 0.05326317 -0.1923681 0.08893852 -0.061569814 0.01310608 -0.060347 -0.09793321 0.08331198 -0.19023103 0.15829854 -0.1963038 -0.15535177 -0.026100695 -0.020314317 -0.20719615 0.05570746 -0.14541484 -0.08530318 0.099337004 -0.0980848 -0.050945953 -0.0015515339 -0.23632233 0.025899425 -0.017250435 0.0040440927 -0.06338025 -0.08953375 0.076707266 -0.00587443 0.16601653 -0.15515816 -0.1790125 -0.07596613 0.012082274 -0.26174134 -0.044511586 0.15679455 -0.064005606 0.04156104 -0.11181977 0.12515642 -0.087065294 0.062470283 0.018275062 
0.036635768 0.19614042 0.008518514 -0.026338588 -0.08012367 0.108694434 -0.20240499 -0.1962796 0.12741752 0.045761712 -0.037679106 -0.0015706404 -0.071673505 -0.23205309 -0.036880694 -0.12323293 -0.14230162 -0.21244098 0.028289026 0.12754226 -0.079428926 -0.10377048 0.04288855 0.15638772 -0.16047037 0.20752217 -0.0015928925 -0.15796368 0.111423485 0.0873257 0.045293782 -0.1220277 -0.14982788 0.12703353 0.13465425 0.1067417 0.034918457 -0.03737147 0.12267297 -0.13376236 0.0006014027 -0.22701424 0.04637776 -0.09777547 -0.090878315 0.033469554 0.20277494 -0.06436864 -0.0368676 0.20313527 -0.20218635 0.046462525 0.07140014 -0.07901515 0.27445436 0.1441812 0.0036276667 -0.06748877 0.016015824 -0.04279862 0.14287466 0.090903774 -0.08870191 -0.15963237 
0.070556335 -0.16175953 0.08297349 0.17059535 0.1482983 0.051310398 0.07892607 0.14052005 -0.08747235 -0.12898003 -0.11862928 -0.0619869 -0.2261902 -0.13782993 0.11915423 -0.07231192 -0.07346103 -0.13064629 -0.18699141 0.12956707 -0.059169587 -0.14133042 0.084129475 -0.12784427 -0.15807006 0.12799641 0.25362742 0.05965562 0.0010897863 -0.095852636 -0.06386797 -0.08452786 0.09193698 0.0037824723 0.08414721 -0.05932283 -0.18454257 -0.10470923 0.101554744 0.027879538 -0.03836323 -0.18125448 0.17850693 -0.15802333 -0.009929498 -0.114649385 0.04996087 0.062228214 0.121005416 0.0627276 -0.17441636 -0.19777288 -0.11864109 0.026996292 0.021595873 -0.030070022 0.04768381 -0.12269708 -0.21360596 -0.053827114 0.12400553 0.154213 0.14907038 -0.1284194 
-0.02786216 0.19006218 -0.105399735 -0.14446597 -0.17238982 0.024270907 -0.04769902 0.046391074 0.042203493 0.08711122 0.12625337 -0.007792552 0.06402139 0.20880784 0.0396224 -0.10695368 -0.16380635 0.04469014 -0.009006462 -0.2678115 0.015816176 0.0720803 -0.21302275 0.17585833 -0.11513891 -0.0008358183 -0.17820248 -0.11859559 0.10511738 0.113813505 -0.01228092 -0.028684516 0.033797953 -0.080457374 0.049025904 0.16938879 0.06931785 -0.059454646 0.09290979 -0.20666368 -0.29521918 0.12578206 -0.16417496 -0.066996776 -0.049187917 0.059984133 -0.108050235 -0.22225307 0.030623479 0.18106583 -0.08738501 0.034915663 0.0064033275 0.08166194 -0.37370655 -0.09426809 -0.04323614 -0.13144793 0.10719196 0.16805246 -0.18121989 -0.1259893 0.082835495 -0.058496196 
-0.53515023 0.24100775 -0.054123886 0.00567103 -0.0015850174 -0.019787818 0.13144301 0.24773216 -0.18442322 0.46921808 -0.20378016 0.08225446 -0.188286 -0.08990187 -0.37548918 -0.110486 0.03731932 0.3010444 0.06670528 0.15145642 0.043979373 -0.20271535 0.4185074 -0.1948602 -0.11900266 0.042092916 -0.054240502 -0.48013008 0.047889397 0.06793988 -0.08946206 -0.08547972 -0.033347398 -0.06420532 -0.0032458215 -0.21217614 -0.15333728 -0.20611976 -0.32046366 0.0030057821 0.36470237 0.17446391 -0.13419558 -0.08774002 0.016904227 -0.41522443 -0.06436573 -0.26455408 -0.15525444 -0.16460651 -0.06327542 -0.10532212 -0.0962914 0.062349014 0.06803025 0.012382728 0.13980983 -0.11277252 -0.08971179 -0.08558994 -1.2593198 0.16131297 0.10044897 -0.10039505 
-0.107529745 -0.086176954 -0.1290544 0.1706927 0.115803346 -0.095257536 0.04640942 -0.07443562 -0.029799903 0.05708625 -0.061604388 0.07235091 -0.068263575 -0.17026968 0.18124373 0.0060295146 0.013953424 -0.2207754 -0.15890904 0.01536074 0.06907452 -0.12699008 0.1320863 -0.16814639 0.11900489 0.12862071 -0.07133682 0.03059401 0.1650019 -0.19332884 -0.110906936 -0.17278141 -0.16844238 0.064552054 0.09036135 0.16409975 0.1246319 -0.16104421 -0.14439107 -0.10997588 -0.20771734 -0.13132475 0.14742209 -0.10732462 -0.014108956 0.07138834 0.14705932 -0.09476665 -0.036630437 0.1514377 -0.08329195 0.07349689 0.12942734 0.1720719 0.088757284 -0.0725065 -0.13703837 0.1423745 -0.0991484 0.0007880279 -0.070595324 -0.050196815 0.22431254 -0.010673889 
0.07097996 0.1451669 0.037499264 -0.1768755 -0.08816296 -0.012436633 -0.038541034 0.120627 0.13377875 0.2512887 -0.015543753 0.06246188 -0.050058957 0.021321807 -0.03641096 -0.11130399 0.14704835 -0.021604946 -0.13348107 0.13093688 0.15806752 0.0987974 0.0969955 0.09698985 -0.085211135 -0.08989479 -0.18292578 -0.12624373 0.1284204 0.097497635 0.08741918 0.08294008 0.2226236 -0.10695392 -0.037365198 0.025343314 -0.08782445 0.061338887 0.0046857223 -0.023090813 -0.108367786 0.17256537 -0.14394212 0.045525584 0.11915305 0.13307083 0.06900289 -0.0036137053 -0.0020085704 -0.037716866 0.04854646 -0.053526077 0.009661358 -0.119172424 -0.09371304 -0.1348441 -0.15914252 0.17493251 -0.01717693 -0.12836167 -0.81843585 -0.15733942 -0.2414527 0.11220697 
0.064292036 -0.13938153 0.07095076 -0.013517507 0.11704835 0.0696988 -0.09009896 0.06483605 -0.02616184 -0.047882307 0.43054098 0.02915711 -0.0977644 -0.20468919 0.19025654 -0.060816396 0.00933343 0.12292318 0.16081156 -0.11136725 -0.013443767 0.11155989 -0.14348833 0.028460689 -0.15364465 -0.357291 -0.27679798 -0.1285073 -0.21889378 -0.063839175 -0.019992748 0.007164905 -0.07257983 0.048546746 -0.40556327 -0.2462193 0.15673539 -0.12011451 -0.6785476 0.028723855 -0.24998425 0.18433829 0.07825047 -0.033912204 -0.31130165 0.100335166 0.07281531 -0.1965275 -0.18814197 0.022917265 -0.0027247062 0.046901345 0.27837497 -0.09339602 -0.04513512 -0.13027366 0.026324814 -0.055221744 -0.042222023 -0.1129119 -0.015917296 -0.0719809 -0.25811487 -0.27797216 
-0.18596044 -0.16079451 0.118130185 0.022173 -0.06234624 0.055658806 -0.17425112 -0.0077697644 -0.079873465 0.007028501 0.119571395 -0.20946418 -0.10102051 0.20110409 0.0040819184 0.13387184 0.012346966 -0.05786689 0.12630966 -0.048310976 -0.1383581 0.15584503 -0.10710345 -0.18372904 0.033628296 0.030342706 -0.053232614 -0.056321405 0.04865838 -0.005444685 -0.012667055 -0.17871605 -0.11742555 -0.24452318 -0.13433823 -0.004972807 0.009362384 -0.02649562 -0.040399425 0.092413746 -0.07131917 -0.04731528 -0.013895117 0.098712504 0.11870487 0.07961736 -0.014715012 -0.17312527 0.10678161 -0.031443443 0.21349984 -0.05766918 -0.07647567 -0.34104145 -0.032950126 0.0956756 -0.008867942 0.10017158 0.026950218 -0.00777374 -1.1348174 -0.11592929 0.08231584 0.12270637 
0.12767391 0.0023726446 0.12518406 -0.10886534 -0.08102606 -0.06091328 0.109022655 -0.0027733673 -0.043175284 0.064966224 0.13395084 -0.13757738 0.25542924 0.10102401 -0.022099202 -0.01597879 -0.11066102 -0.0957434 0.12398008 0.18643132 0.0937158 -0.19572036 0.07568025 0.15987223 0.096242025 0.0636438 0.017991582 -0.023514042 0.027211837 -1.305781 0.17753257 -0.17595066 0.16842219 0.10980305 -0.16060825 0.16897698 0.02512345 -0.056083374 0.00016941017 -0.2272653 -0.42608365 -0.079232335 0.041977685 -0.0802443 -0.28540957 0.17455454 0.0034543406 -0.019484106 0.01544173 -0.17592475 -0.043182448 0.13721555 -0.11461948 0.088862464 0.037811752 -0.03474147 0.0022901825 0.089646615 0.1231012 -0.07093596 -0.47326207 0.17811225 0.050709765 -0.12622835 
-0.20415285 -0.022656575 -0.17975356 0.043657254 0.032025807 -0.1452767 -0.09472094 0.019049028 -0.08395774 0.08082592 0.15049993 -0.22113244 -0.009665203 -0.054007407 -0.013065336 -0.00059841655 -0.013833207 -0.099241614 -0.08852594 0.0003446518 -0.17287713 0.1599158 -0.2128508 -0.0383299 0.12835558 0.13883217 -0.0086053405 0.026069175 0.05325155 -0.07603567 -0.15262783 0.06386327 -0.1709662 -0.082712844 0.14880386 -0.23286511 -0.16467483 -0.051781625 0.10428094 0.23429282 0.12581046 -0.15378435 -0.13187918 0.10680696 0.008282677 0.21525113 -0.18387187 0.16127439 0.04999276 0.15832017 -0.10775092 -0.06763853 -0.0573555 0.045604996 -0.16347565 0.021692354 -0.13305154 -0.047490187 -0.2010424 -0.07081336 -0.05286621 0.04108603 0.16900782 -0.026105762 
-0.078059986 -0.20337965 0.1854036 -0.19390203 -0.088897325 -0.06860561 -0.08410819 -0.13370743 0.11041806 0.15194465 0.058840383 -0.19474602 -0.099795595 0.1991491 -0.096017264 0.1129486 -0.11648338 -0.22305626 0.033847008 0.15396686 -0.14503424 0.2162059 -0.19721384 -0.22975662 -0.04696211 -0.048812434 -0.059689783 -0.035829194 -0.10080736 -0.023898367 -0.06311803 0.0014395072 0.16677405 -0.019506391 -0.13788372 0.12445345 -0.14545825 -0.13164298 0.03993291 -0.011793092 0.08178156 0.00967506 -0.03666545 0.112589076 -0.09326127 -0.08987533 -0.08746622 0.07251608 -0.0011150087 0.12212504 0.111392416 -0.12384733 -0.10667575 -0.23281445 -0.30415484 -0.053477474 0.12456537 0.09016322 -0.17310658 -0.030622354 -0.95480764 -0.18452346 -0.15036567 -0.045740746 
0.1750605 -0.08833258 -0.13260883 -0.080215134 0.009244399 -0.029612744 -0.14888689 0.12827559 -0.14561406 0.029562028 0.12909792 -0.024705367 0.0060459943 0.07646424 0.034515746 0.1281103 0.07960719 -0.11614264 -0.06718688 -0.04164418 0.18429407 0.10700697 0.1753709 0.100233845 -0.1082135 0.112344146 -0.17099187 -0.1064588 0.08184972 -0.61881477 -0.037852097 -0.15833153 0.115470074 0.009801378 -0.1331978 0.061519843 0.15541218 0.09890833 -0.16526188 0.03936452 -0.1994032 -0.12770271 0.029410379 -0.12863646 0.033706702 0.005285966 0.17849723 0.05526706 0.13030012 0.0054543647 -0.17800277 0.034792706 0.1695403 -0.039980404 -0.25023547 -0.1695676 -0.057260744 -0.10410779 -0.05017433 -0.0358778 -0.07030262 0.1858161 0.0062303175 0.08604977 
0.021261012 -0.1580086 -0.011851979 -0.08490595 0.20831724 0.076043345 -0.05479439 -0.001610957 0.15022996 0.11496667 -0.02395674 0.13881844 0.0147969285 -0.15451574 -0.1540169 -0.13284476 -0.13102455 0.08106557 -0.08983407 0.12734066 0.18109058 -0.12494391 -0.15455784 0.0134242475 -0.07642287 -0.04855312 0.08226127 -0.013421613 0.1753542 -0.44041178 -0.03252732 0.1732705 0.026567925 -0.0069231787 -0.15640521 0.14082232 -0.07214583 -0.15181686 0.051795408 -0.005135393 -0.25295305 -0.0017541038 0.0885216 -0.08167307 0.110440046 0.11891003 0.058185045 -0.026067913 -0.21798353 0.16623479 -0.10685652 -0.12450114 0.13701764 -0.08432467 -0.24777983 0.11702531 0.14534912 0.12288298 -0.067207776 -0.14350891 -0.20334207 0.1584604 -0.115472175 0.060059194 
0.080752745 -0.042487856 0.121743426 0.053898394 0.08075938 0.14064653 -0.09456459 0.08645907 0.06848703 0.10185009 0.13322976 0.023189537 0.17459056 -0.015457041 0.17565693 -0.1707575 -0.043807313 -0.15227808 -0.130544 -0.09204889 -0.08231115 0.12748037 0.25302845 -0.11454451 -0.07521105 0.11800744 -0.13451715 -0.1617014 -0.10328826 -0.10818606 0.089797705 0.115022495 0.016408475 -0.14108011 0.041915834 -0.12967218 0.120002136 -0.10021467 0.0065523526 0.078795716 -0.18956853 -0.0248873 -0.0649049 -0.19815618 0.13735838 0.085476264 -0.035134323 0.0012757009 0.19104336 0.06291312 0.03717412 0.06789465 0.1182784 0.064281076 0.055058062 -0.10352126 -0.04852207 0.05083234 -0.113689974 -0.10067874 -0.12954 0.09400245 -0.083284855 -0.16344799 
-0.0034928867 0.051113665 0.08005134 0.11820702 -0.084204964 -0.10517553 0.07992518 0.071932174 0.12753128 0.011325959 0.20029816 0.063511826 -0.017506748 0.10376968 -0.07841481 0.07566947 0.03443003 -0.19782493 -0.06800203 0.06471569 0.20606455 0.08689528 -0.2036085 -0.09388769 0.00838531 0.06421088 0.18524574 -0.008789422 0.038830016 0.013222648 0.19316335 -0.1384056 -0.12768003 -0.07253346 0.048805878 -0.1588065 -0.110270746 -0.058271326 -0.054204542 -0.066881575 -0.02602692 -0.08114666 -0.060923297 0.012531919 0.16236873 0.16549508 0.09390546 -0.06597846 0.14279252 -0.045316514 -0.15028302 0.065636635 0.14957286 -0.03506391 -0.08513982 -0.08551426 -0.16352591 0.11466765 0.09577373 -0.18001027 0.036497902 0.07450129 -0.019888684 -0.071207374 
-0.052921157 0.08568211 0.21204135 0.0029734685 -0.123348646 -0.15088734 0.01693473 -0.07361425 0.034717824 0.20495808 0.11928551 -0.094900675 -0.023585543 -0.08323908 -0.18470222 -0.1944134 0.0042684446 0.048360493 -0.039189752 -0.13433267 -0.15765665 0.08538179 0.10927259 -0.18581013 -0.07962788 -0.12997651 0.06436722 -0.09317878 0.10553514 0.0154551165 -0.118543535 0.09695037 0.17354977 -0.030643234 -0.10754162 -0.09502295 0.007734796 0.06278424 0.05970612 -0.027925396 0.09056052 -0.007837588 -0.079766095 -0.017345166 0.23852782 -0.03542658 -0.0771431 -0.20305161 -0.05641208 -0.010759434 0.031700306 0.13082637 0.03129151 -0.1330624 -0.17850968 -0.13463587 0.10975682 0.16761908 -0.101884924 -0.020129353 -0.16655222 -0.04326798 0.08375843 0.04900839 
-0.12942691 -0.09658221 0.10771038 -0.08508016 0.18537097 -0.094984196 -0.042979464 0.16586065 -0.12711567 -0.040961977 0.08314314 0.06464837 -0.17383339 0.05144324 -0.13259964 0.13422516 -0.017012581 -0.15023656 0.14031672 0.028963363 -0.02489961 -0.0078496 -0.06665033 -0.12176282 0.1453318 -0.16839686 0.16400145 0.07981093 -0.023902927 0.062693305 -0.038047854 0.15453677 0.09718829 0.0149204265 -0.15682797 0.071357735 -0.038566336 -0.044113427 -0.14615077 0.033324737 0.046427052 -0.19324897 0.1381858 -0.0848135 0.056909498 0.12789887 -0.15040237 -0.047004383 0.05838212 -0.02867081 -0.03507247 0.017154366 -0.02736512 0.014565691 0.029006407 0.027146384 0.056941986 0.0009905761 -0.06616427 -0.10373794 -0.16646704 0.10904825 0.041836962 0.077782646 
0.18847995 0.021999124 -0.18217492 0.10936307 -0.07188079 -0.18384662 -0.08856215 4.4110493e-05 0.122931756 -0.19914384 0.111529835 -0.14133686 0.031636752 -0.054946736 0.0005366283 -0.105615206 0.07507624 0.06934213 -0.14841895 -0.0053845565 -0.13652179 0.078580186 0.18900077 0.224911 -0.115277186 0.086248 0.17044465 0.062006213 -0.045284875 -0.080112316 -0.106944785 0.09595493 0.036739588 -0.23113969 0.059153926 0.14109005 -0.18340948 -0.04769843 -0.2830505 0.062640876 0.075962275 -0.41266236 0.20449656 -0.056537174 0.13696736 -0.10055388 -0.09403736 0.115199424 -0.19425978 -0.29267266 -0.14168008 -0.09204677 0.18417653 0.010957205 -0.1818102 -0.08490792 0.016296558 -0.14768897 -0.036300506 -0.13959977 -0.024418246 -0.0065134447 0.17939718 -0.07097364 
-0.33264944 0.009264008 -0.010377744 0.007208948 0.17417955 -0.035198815 0.17145965 0.14583327 0.05523606 -0.08603863 0.08453676 0.0744786 0.08211588 -0.15002556 0.06871029 -0.050309055 -0.1534747 0.16235442 -0.1511479 -0.04619998 -0.14452215 0.09474705 0.27063727 -0.14795355 0.15973586 -0.17390028 0.06998536 0.06527837 0.090846695 0.027350092 -0.08814631 0.10766671 0.0683357 0.0060256603 0.023093875 0.09895145 -0.15358858 0.029053107 0.07235094 0.092371754 0.11583774 0.21239895 -0.26265275 0.11037748 0.05274982 -0.10593881 0.050323818 -0.013774375 -0.18782242 -0.027575824 0.16892517 -0.014858663 -0.19848236 -0.15626298 -0.12242017 0.055845506 0.04115412 0.019036224 0.034698498 -0.00056147564 -1.3015916 -0.074353494 -0.1579896 0.009272902 
-0.11753521 -0.15973067 0.20213512 0.089258604 0.111491054 -0.07928411 -0.103256635 -0.04285985 0.1715899 -0.135988 0.14382073 0.052001566 -0.2269968 -0.047865555 -0.056403533 -0.14154935 -0.028543202 -0.0737256 -0.09154776 0.024986831 0.083138086 0.15014312 -0.085041545 -0.05537259 0.14719328 0.10685347 0.20249784 0.02203556 0.074272946 -0.15021998 0.066902 -0.023765745 0.017720817 -0.07141176 -0.080127224 0.05047746 -0.12504853 -0.068039425 -0.04256877 -0.017880619 -0.018156048 0.17628339 -0.11525341 0.19977017 0.14285636 -0.07797186 0.04751344 -0.18538997 -0.1004382 -0.10642522 0.122340664 -0.11867816 0.15799691 -0.037165724 -0.2256527 0.008718037 -0.12864707 0.20028688 -0.093832925 -0.029288923 -0.14551449 -0.018513674 0.029835153 0.042700283 
-0.0089791715 -0.22864282 -0.031471215 0.11887289 -0.09832379 -0.123804204 -0.009465688 -0.05165728 -0.1258435 0.026445005 -0.05820804 0.2133984 -0.073115095 0.056685396 0.18504387 0.12068913 0.0032195258 -0.05145205 0.015815666 -0.034568664 -0.040985677 0.08450678 -0.12920517 0.06483556 0.052844305 0.097707674 0.18111517 -0.028680047 -0.1213586 -0.6502117 0.18103099 0.049057048 0.082710974 0.08919467 -0.10900658 0.12660657 -0.12912323 0.1115158 0.044905223 -0.13980673 -0.31168115 -0.2766948 0.07296439 -0.085726455 0.08483166 -0.023323128 0.1019446 0.0924872 -0.0813826 -0.1343768 0.0739551 -0.119201235 0.22349817 -0.04887066 -0.21871658 0.09285976 -0.10046884 -0.14179726 0.008464419 0.047569703 -0.029735006 0.01101308 -0.007109294 0.024896458 
0.11393863 -0.1233899 -0.33594802 -0.24093278 -0.09636327 -0.115490526 0.14925952 -0.2064233 0.20641068 -0.0323259 -0.04150246 0.108885564 0.25600466 0.13801458 -0.1601478 0.08145592 0.06388647 -0.19465546 -0.057133652 -0.2342603 0.21213305 0.10507707 -0.17860374 0.16675115 -0.11701632 0.25296214 0.18710794 0.26973712 -0.13083427 -0.54310274 0.053916916 -0.14364359 -0.13263784 -0.00620678 0.076269716 0.33448875 0.020340124 -0.049855556 0.100087136 0.1273054 -0.4908621 0.21519682 -0.23422545 -0.1369466 -0.39753276 -0.200017 0.053778272 0.09112682 0.17988637 -0.18534788 -0.109043 -0.1362538 -0.36671433 0.36198863 -0.18836533 0.15803257 -0.13417195 -0.050570447 0.07560829 0.24024911 -0.43916348 -0.0053722356 0.008876165 -0.186829 
-0.06292818 -0.011082243 -0.050039552 0.11959406 0.004149984 -0.0049222545 -0.02028814 0.12037829 -0.037721854 0.06487951 -0.21419317 -0.18439539 -0.16447483 0.09640335 -0.14029731 0.01070642 0.08204089 -0.04732803 -0.035607785 -0.069377944 0.042095363 -0.11250299 -0.009518453 0.022537112 0.023319557 -0.229722 0.11924369 0.0050371736 -0.3152796 0.031465176 -0.083448626 0.10764618 0.068347685 -0.09324667 0.032802727 0.06310038 -0.033114675 0.015727624 0.15417728 0.05762816 0.080429114 -0.20055811 0.1499027 -0.026059868 -0.09558872 -0.08798415 -0.14082928 -0.015602115 0.12486566 0.12186767 0.08434355 0.12704048 -0.18182358 -0.083687514 0.11956545 0.13559957 -0.05144398 -0.12723239 0.11535164 -0.03190852 -0.0076142694 0.05187563 0.098895155 0.20040064 
-0.2449039 -0.08922028 0.1562965 0.14889416 0.13851196 -0.2073313 -0.15664648 0.10854362 -0.004873243 0.2621519 0.15809813 -0.20091946 -0.062092815 -0.13336702 -0.0341137 -0.06745392 -0.054581404 -0.011097197 -0.0056768055 0.18636091 0.012900614 0.20303798 -0.18959814 0.122354664 0.008306691 0.1591727 -0.1396583 -0.14148809 -0.109283194 -0.50819707 -0.11276057 0.034628753 0.117625296 0.11839801 0.026582586 0.1640515 0.13276505 0.108462654 -0.13970414 -0.045009937 0.17330448 -0.09885919 0.121515 0.014044646 -0.14214969 0.021351332 -0.28683642 -0.21073529 -0.17702897 -0.059389427 -0.00850093 -0.16976084 0.20065142 -0.10173816 -0.0021798504 0.06044279 -0.06195462 -0.09408584 -0.12163241 0.09892618 -0.82698673 0.0025989055 -0.076481625 0.009287778 
-0.08401643 -0.14894368 0.024925804 0.0064510503 0.040319387 -0.00958243 0.031516865 0.086781174 -0.084068045 -0.060498632 -0.13485861 0.0845755 0.076033674 0.17497687 0.0066623287 0.03335235 0.11080791 0.1444549 0.011983648 -0.123502806 -0.031195933 0.13083994 -0.16208385 -0.14138381 0.0074508935 0.0766268 -0.14784332 0.15200138 -0.048895575 -0.01781649 -0.10796498 -0.01307328 -0.060260504 -0.07146099 -0.11580658 -0.10689283 -0.047115967 0.089822635 0.113537654 -0.15057054 -0.094270594 -0.13957217 -0.14405352 -0.012220522 -0.08650059 0.04626197 -0.17476009 -0.19226123 0.12760666 0.12489947 0.10784207 0.034837946 0.1197766 0.050969977 0.11002487 0.10694437 -0.032889843 -0.07980106 0.013696879 0.14032261 0.13727652 0.121034786 -0.13992392 -0.046235718 
0.04190441 0.06270988 0.017092977 -0.0459221 0.10883467 -0.13858326 -0.07365085 0.19969904 -0.02348441 -0.12591057 0.12954062 0.06680574 -0.16240513 0.02561145 0.09542642 -0.10421225 0.05137986 0.004016518 -0.101206824 0.11756122 -0.1457383 -0.08524466 0.0006622643 0.06827878 0.061616402 0.03121424 0.022057349 0.030238483 0.06605728 -0.1354387 -0.11490112 -0.18053599 -0.09588112 -0.12059691 -0.096110485 0.03116833 0.088740595 -0.02676257 0.06961488 -0.14252606 -0.19506526 0.157304 0.14789464 0.019685306 0.09338319 0.18425937 -0.019146308 0.110066414 -0.21824317 0.10240862 0.15894994 -0.064561 0.022820482 -0.12888797 -0.2805663 -0.096192844 -0.15301493 -0.014450066 -0.15034232 -0.061615128 -0.17758512 0.12086725 0.07376566 0.014004443 
0.47817346 0.20909354 0.17295168 -0.20136005 0.0946382 0.028592208 -0.07521876 -0.019579738 -0.39373374 -0.33862525 -0.030955069 -0.05008115 0.00070469774 -0.14304054 -0.061498556 -0.0008405402 0.07874709 0.11083402 -0.11482913 -0.18810843 -0.19588201 -0.17450361 0.08040938 -0.1324425 0.032410175 0.09081249 0.22808535 0.117709786 -0.05006614 0.0039023333 0.03585941 -0.0053488296 0.049732298 -0.008050255 0.06278228 -0.22080849 0.0945607 -0.1550629 -0.093929805 -0.06922954 -0.22023746 0.06335055 -0.12901746 0.02500055 -0.32168457 0.11914872 -0.007993898 -0.0005550641 -0.16694863 -0.29040956 -0.249636 -0.054711543 0.38719463 -0.21384175 0.045533724 -0.11270894 -0.15890203 0.09124935 0.14138415 -0.10960933 0.15112041 -0.09915348 0.32008237 -0.025380025 
0.1825345 0.21772039 0.021965772 0.14501359 0.15161237 -0.17104588 0.027918695 0.24188624 0.053313337 -0.20401323 -0.111013584 -0.14635834 0.06170784 0.04337441 -0.1278555 -0.12846586 -0.09040773 0.12112953 -0.0087329 0.19227481 0.25422853 0.039790306 0.055244356 0.17803559 -0.19782463 -0.20992982 -0.16426943 0.0036684384 -0.27119854 0.18753694 -0.10648656 -0.07920146 0.05010007 -0.020745032 -0.07307901 0.22092961 0.0047332277 -0.225908 0.017750693 -0.04859712 -0.096199825 -0.13060623 0.16779082 0.17124537 -0.048791148 -0.22751425 0.1178281 0.16129315 -0.10030528 -0.2194254 -0.09451264 0.04895242 -0.2857657 0.23559949 0.2093026 -0.18285306 0.0773189 0.16406678 -0.013865604 -0.15029968 -0.041014764 -0.21356572 0.08404325 -0.10939162 
0.018173145 0.15870526 0.001867528 -0.048795026 0.08249912 -0.11904021 -0.17252517 -0.085606635 0.063990474 0.18384215 0.12964582 -0.0060304166 0.05170925 0.056147654 0.05054081 -0.14856657 -0.11201718 0.16202459 0.07038688 0.14900377 -0.3905897 0.12794808 -0.17702368 -0.046426535 -0.09301859 0.00425631 -0.07601552 0.1340319 0.16860758 0.17297445 -0.14683662 -0.0033921096 -0.14921425 0.022058198 0.036224246 -0.25721592 0.099277474 -0.021247996 -0.11411428 -0.16436349 -0.17877202 0.19788314 -0.11671053 0.035194557 0.08930146 -0.16596895 -0.040078916 -0.18258551 -0.0078053633 -0.07685922 0.10318308 0.004937282 -0.09609641 0.20352195 0.144999 0.02953319 -0.058831166 -0.13563392 0.14469832 0.09036967 -0.13926062 0.10441997 0.048383474 0.13871972 
0.2948363 0.079359114 -0.051336806 -0.0035515355 -0.019304274 -0.19790915 -0.12630533 0.014410807 -0.014517728 -0.17855176 0.22658086 -0.03620177 -0.03913458 0.21286708 0.15860671 0.07882977 0.1043273 -0.0654822 0.047831487 0.061179228 0.11924028 0.16990833 -0.38405132 -0.20504816 -0.17291984 -0.17849524 -0.13747059 0.02631425 -0.018546084 0.13607849 0.014098685 -0.01990507 0.0119592985 0.1188003 0.14689139 -0.045666456 -0.05576563 0.12744647 0.15788339 0.122879334 0.04243874 0.10193261 -0.17137751 0.14557399 0.11984531 -0.30703574 0.055302914 0.07739632 -0.13043593 0.11187891 0.14344116 0.077279925 -0.16988972 -0.03898315 -0.10303015 0.1032866 -0.13352953 0.14755508 0.1469724 -0.037893124 0.04665558 -0.07366593 0.022083497 -0.066909276 
0.16806823 -0.0014134054 0.12906708 0.082829595 0.086401634 0.000600968 -0.09182883 -0.21901917 -0.104905665 0.06690396 0.12808928 -0.07204596 -0.094236106 3.8740254e-05 0.17284457 -0.07065397 -0.1564407 0.09933553 -0.15775369 -0.10955308 -0.19120602 -0.052814934 -0.14131697 0.001076147 0.06027217 0.13565572 -0.102752395 0.16467114 -0.0094062975 0.1103895 0.11841096 -0.08303957 0.029575668 0.09244072 -0.05496213 -0.16016996 -0.012763854 -0.2042282 0.06360755 0.047293734 -0.33102176 -0.0027730532 0.112288326 -0.080855146 0.10684186 -0.19496617 0.075187534 0.2116343 -0.079025514 -0.14102341 0.0489208 0.05830081 0.09197556 -0.10853226 0.03802277 0.122260205 -0.08080081 0.04444169 0.095469326 -0.13648872 0.016512748 0.1608618 -0.17956892 -0.20022956 
0.14988942 0.047364812 -0.19558126 0.10915957 -0.060733065 -0.22605018 -0.08643732 -0.27148706 0.18290323 -0.05130977 0.16372783 0.095913984 -0.13965677 0.08994483 -0.022807546 -0.11252895 0.103747584 0.05307505 -0.16659264 0.04690428 0.11483799 0.06882396 0.0670129 0.12048482 -0.07438651 0.1243569 -0.15296336 0.20230493 -0.10788941 0.05375624 -0.03479178 -0.10976889 -0.08508302 0.025658507 -0.10817348 -0.49232277 -0.12132615 -0.14167674 0.09575381 -0.039649643 0.004673351 0.24349721 0.16813189 -0.038434908 -0.079145454 -0.25657815 -0.0054172836 0.051683404 0.03775282 0.09270998 -0.17641625 -0.14484933 0.03125831 0.17367706 0.16062202 -0.17539178 -0.17249121 0.08101197 -0.10868291 -0.16632955 -0.0008127969 -0.014094393 -0.18432154 -0.021808052 
-0.14219615 -0.048329238 -0.15144128 -0.17992303 0.14280123 -0.14596555 -0.05376805 -0.13606909 -0.100170426 0.017982043 0.091692135 0.0010592629 -0.14791884 0.06109438 -0.08539667 0.0174234 -0.08225498 0.115808934 0.021559633 0.011037984 -0.10716732 0.08958411 -0.13829014 0.055945072 0.05433296 0.0018819864 -0.16948096 -0.024314774 -0.07036754 0.17626329 0.13694268 -0.021739833 -0.13059874 -0.16849354 0.03957665 -0.2631386 -0.004437641 -0.007480469 0.10563457 -0.15854053 -0.12749279 0.18818396 0.15889248 -0.036257964 -0.0034336569 0.01700684 -0.039530925 0.095377736 0.077774025 0.09936906 0.004708738 0.14016777 -0.056670804 -0.022145154 0.17191756 -0.18493037 0.08971487 -0.11177378 -0.12686014 0.041202877 0.05157911 0.0771302 -0.064556085 -0.13684522 
-0.039940037 -0.24932902 0.053060085 -0.12361952 -0.025542615 0.13680129 -0.045098647 -0.3337317 -0.043878008 0.08486033 0.37510687 0.3996233 0.0029508856 -0.3663297 -0.16017993 0.12086268 0.0721596 0.17980368 -0.13482207 0.060097873 0.14122449 -0.024139622 0.43953833 0.1802606 -0.11844741 -0.26410282 0.14228663 -0.3957206 -0.14554003 0.10327337 -0.117764175 -0.05567756 -0.04267021 -0.07582668 0.04432447 0.037861604 -0.16885212 0.03830005 0.21755756 0.109717965 0.30996108 0.2759347 -0.039026156 0.08444742 -0.11901878 0.23002076 -0.044631295 -0.17081495 -0.0528418 -0.18250702 -0.054646138 -0.0017214202 0.064189985 0.00080745365 -0.20554806 -0.17706603 0.12192133 0.08372845 0.05975693 0.373295 0.06731121 0.05450372 -0.20291248 -0.06082502 
-0.66308314 -0.15698312 0.042144053 -0.04928855 0.024841992 -0.04640789 0.1127905 -0.17646958 -0.10615425 -0.15262988 -0.4213263 -0.52402616 0.22947843 0.07315945 -0.10946085 0.076948434 0.0872634 0.15935603 -0.022940014 0.009125657 0.1836413 -0.09799765 0.086169355 0.146882 0.10266213 0.12079425 -0.16046032 -0.27858415 0.068019554 0.21996553 -0.066871464 -0.1584789 -0.048110053 -0.14701694 -0.10453119 0.004389193 -0.057438016 -0.13961948 -0.15516499 -0.07790427 0.1130251 0.0010447218 0.005693618 0.27883172 0.18983251 -0.23723388 0.29711515 0.06385729 0.059546612 0.027036982 -0.033979733 0.11842113 -0.053258438 -0.09178892 -0.10192764 0.10457225 -0.13356638 0.02346617 0.064109124 0.06632691 0.15342432 -0.15668838 0.06122704 -0.05950432 
-0.11726771 -0.22311193 0.10042519 -0.036009397 -0.11582949 0.03219544 -0.114090994 -0.09934502 0.13767771 -0.13719968 0.004441276 0.27261296 0.14551456 0.048861522 -0.010639804 -0.051201973 -0.088549 -0.11262357 -0.15593031 -0.16187964 -0.0032031354 0.08873254 -0.056418423 -0.114234485 -0.14071001 -0.15284686 0.05499596 -0.27277136 -0.27419278 0.10778818 0.016888121 -0.07309874 -0.095538266 -0.0655007 0.06512433 -0.07390304 0.055019572 0.009916667 -0.3231237 -0.06116273 0.20092458 0.19534628 -0.18326315 0.17719936 0.07857627 0.012864377 -0.15752874 -0.104090676 -0.17191699 0.050148737 -0.041678835 -0.1089403 -0.11742685 -0.04554612 0.22935297 0.007570311 -0.095014274 0.15731494 -0.14147015 0.038566545 0.21587236 -0.09360849 0.035331685 -0.12796645 
0.18898177 -0.27783677 -0.07785665 -0.1942046 0.17178752 0.0064044213 0.061361622 0.10683311 -0.010962101 0.2886951 0.06258247 -0.41456628 -0.15243538 -0.05357941 -0.100549355 -0.1230393 -0.18174952 0.0019216471 -0.18611772 -0.17462753 0.0055343146 -0.0745005 -0.50019556 -0.041411832 -0.077097274 -0.07502065 0.035917073 -0.27889177 -0.400545 0.018889759 -0.09253345 -0.0865802 0.20185247 -0.12398237 -0.4182582 0.03010716 0.09420342 0.045330152 -0.06760953 -0.08950049 -0.4909367 0.0038950064 -0.30432206 0.12938981 0.24442518 -0.024255207 0.08996289 -0.14080045 -0.06780025 -0.07678816 -0.07312193 0.12342415 -0.30287597 -0.13101594 -0.17912869 -0.043518186 0.10105323 0.14596605 0.035178214 -0.08607422 0.19650523 -0.24760734 -0.16246156 -0.10347929 
-0.028338466 0.23321378 -0.019571519 -0.11461198 0.08759125 0.15289523 0.10210186 -0.07235381 0.20544447 -0.10180446 -0.046555698 0.14349881 0.0026642492 -0.20334628 -0.26200595 -0.113569394 -0.19770138 0.004187412 -0.21765622 0.13361692 -0.18542936 -0.08627942 -0.15970045 -0.23895378 -0.03689795 -0.030367866 0.09682838 -0.23138122 0.01860024 -0.017036187 0.066865176 -0.10483901 0.081978336 -0.119209304 0.046969272 -0.15354916 -0.13360587 0.088102736 -0.152869 0.017427929 0.08642018 -0.15253438 -0.17760202 0.010773389 -0.03763968 0.0075424695 -0.15919527 -0.21202086 -0.066231534 -0.14073402 0.12604445 -0.05533352 0.09271059 0.08967453 -0.004167486 -0.09330508 -0.12508461 0.11791966 -0.0036213447 0.052500498 0.21339284 -0.088023685 0.017894583 0.013275615 
0.32762456 -0.0014946774 -0.12507485 -0.19535352 0.032803625 -0.0900165 0.07348925 -0.10387335 0.034034748 -0.26341546 0.26557794 -0.074990824 -0.056182776 0.08560166 0.13695073 -0.11957356 -0.04641174 -0.08965574 0.07656971 -0.03262142 -0.11173347 0.06785296 0.104064845 -0.050838772 -0.11845709 0.08437276 -0.14437546 -0.049306802 0.12951502 -0.06976374 0.2057959 -0.10672788 -0.12875842 0.06804319 -0.18602096 -0.108426444 -0.14305325 -0.10012246 0.14213076 0.099398725 -0.15575257 0.007589717 0.10949976 -0.018559339 0.067326725 -0.14786726 0.027580937 -0.0053942865 -0.08535635 0.033375025 -0.040561017 0.047741797 0.015181687 0.2690779 0.19717146 -0.02745696 0.08573656 0.050384875 0.0025267904 -0.08649299 0.104696006 0.19850065 -0.43882343 -0.16103758 
0.30076927 -0.094880655 -0.012639602 -0.124135345 0.0071494216 -0.085007966 -0.13672577 -0.2408425 0.23714375 -0.3427602 0.17498684 0.38932464 -0.07314785 -0.02780554 -0.18021664 -0.12199592 0.123466484 0.08682823 0.046653915 -0.16629979 -0.19723657 0.113164976 -0.09150787 0.1034881 -0.04055738 -0.14973862 0.09570868 -0.18733464 -0.16621149 -0.027150523 0.14565115 -0.05446019 -0.19375125 0.11260093 -0.15086818 0.29265353 -0.07307677 -0.12628412 -0.22750653 0.0067864973 0.2199494 0.1070867 -0.31912324 -0.09572577 0.14556977 -0.0037622384 -0.010868247 -0.1943493 0.045308433 -0.18288991 0.12210088 -0.052651796 -0.10391541 -0.13789618 -0.02268173 0.111154325 -0.032119278 0.018058114 -0.06826445 0.02044019 -0.012485907 -0.02798179 0.09511865 -0.23036149 
0.22623675 0.056023583 0.061318368 -0.08887939 -0.055760346 0.17749685 0.060352076 0.07129835 0.096272975 -0.333692 -0.088158906 -0.20944543 -0.1604717 -0.054997135 -0.14727676 0.11798127 -0.0003022564 -0.018166801 0.12327379 -0.0671073 -0.42320856 0.08962334 0.028639896 -0.49498287 -0.1269727 -0.072115965 0.21428691 0.0439772 0.056995507 -0.072775535 -0.04659645 0.17329179 0.17823677 -0.16767333 0.045793805 -0.30026564 0.037363254 0.09588991 0.017419115 -0.09530463 -0.028045151 0.07118962 -0.47741428 -0.033216793 -0.08400137 -0.24341363 0.117990404 0.15632156 0.21969643 -0.14994125 -0.010578797 0.109361686 -0.22697419 0.19741635 0.0630035 -0.18093279 -0.04006526 0.08209066 -0.09871627 -0.15554383 0.053504743 0.15996724 0.024797846 -0.053010054 
-0.04948471 0.092111014 -0.007876097 -0.124599546 0.1707234 -0.12977238 -0.13787523 -0.21633898 -0.008737117 -0.11127118 0.18904848 -0.1254681 0.040001836 -0.15910485 0.06935039 0.05446693 -0.12023357 0.10328358 0.050599527 -0.18511298 -0.004758101 0.022612225 -0.07653959 -0.038117312 -0.16414048 -0.062025927 -0.12441398 0.25438583 -0.0874233 0.2139082 0.08427583 -0.08911406 -0.11837757 -0.12263825 0.1642242 -0.11563749 0.098748274 -0.0543725 0.23653664 0.22471277 0.14247508 -0.093117304 -0.12232762 -0.10756296 -0.0248284 -0.23697273 0.12167289 -0.063371465 -0.05635627 0.11561482 0.02875324 -0.036509063 -0.17469798 -0.27988982 0.11392608 -0.07970476 -0.055863053 0.080090895 -0.0594611 0.07937463 -0.22337978 0.07091327 -0.13504572 0.016555278 
0.05821868 -0.034004398 0.094245605 -0.010818034 0.07644201 -0.069112524 0.12819909 -0.04692451 -0.06292609 -0.27825153 0.20127693 -0.21309085 -0.02652661 0.1152937 0.15993114 -0.12798388 0.08791853 0.018739229 0.068007186 -0.071032934 0.29998028 0.061397992 0.00957752 -0.36333895 -0.11101576 -0.09661088 0.18644449 0.22813164 -0.06498344 0.24560888 -0.15780137 -0.018989451 -0.061022293 -0.087842785 0.16373774 0.02220663 0.030904971 0.05865772 0.17828113 0.07838613 0.20005225 0.04724268 -0.19027634 -0.09615551 0.04091071 -0.17768043 -0.078924805 0.14473106 -0.010927125 0.158555 -0.06096422 0.08365098 -0.0525468 -0.34603205 0.09448263 0.107095525 0.13741945 0.21889539 -0.009068884 -0.1814301 -0.37633076 0.05789103 -0.10800072 0.102280244 
0.027481735 -0.18705444 -0.03724347 -0.22535963 -0.03869874 -0.021484708 -0.10724216 -0.08159192 -0.020781387 -0.040446054 0.13924715 -0.12623762 -0.12279395 0.19718726 0.09393589 -0.19874182 0.14608659 0.138196 -0.04929821 0.16978909 -0.06909073 -0.13413984 -0.18692052 -0.0493992 0.12982996 -0.14792262 -0.03350735 -0.081260964 -0.15057613 -0.05580531 0.048740122 -0.011427645 -0.085767135 -0.12198813 0.058961205 -0.0065496033 -0.0750306 -0.102467 -0.10455017 0.068313465 0.04476912 0.22465137 0.038824894 -0.13292827 -0.13559338 -0.38425726 0.029276483 -0.05366315 -0.0968231 0.11811197 -0.028533941 0.07714983 -0.12734717 0.107747875 0.18600285 -0.018835718 -0.18225683 -0.039632574 0.049963642 -0.0049495352 -0.21365336 0.057386093 -0.038578425 0.18219905 
-0.37619925 0.10788765 -0.014568954 0.17989482 -0.09201905 -0.002445821 -0.17020915 -0.09776607 0.16459994 -0.054548793 0.121161476 0.08713637 0.10135399 -0.09363795 -0.04459489 0.04850754 -0.06953255 0.064688966 0.09311927 0.11104599 -0.45197597 -0.10934847 0.0005696886 0.029428964 0.09147926 -0.031695075 -0.07741413 0.12349996 -0.265792 0.27141064 0.01919004 -0.032104388 0.14065498 0.1205098 0.026521226 -0.12664616 0.1415611 -0.13529788 0.3922116 -0.093971565 0.04464101 0.022381827 -0.19513512 -0.043633062 -0.10627227 0.1400364 -0.14929745 -0.084764145 -0.027995056 -0.2587807 0.05173038 0.0076020407 -0.15410501 0.12584305 -0.009575855 0.063199274 0.15908466 0.12733693 -0.068530366 0.10403101 -0.311024 -0.03655039 0.07046185 -0.10878421 
0.19235404 -0.031184958 0.16737133 -0.18489468 0.05358024 0.05816069 -0.12016058 -0.2968144 -0.06641671 -0.25968343 -0.18094347 0.20540285 -0.27917123 0.47801396 -0.025264176 -0.10110678 -0.16182213 0.06526776 0.0021593773 -0.1842515 -0.1388582 -0.06155306 0.03697032 -0.07337053 0.0342433 -0.064753294 -0.025343101 -0.18119903 0.05132148 -0.1557052 0.19554617 -0.084161595 0.42131314 0.0959666 -0.08849619 -0.050076924 -0.063234985 0.10210701 -0.47204822 -0.10569387 -0.32970655 -0.38629547 -0.13378175 -0.19872905 0.41264582 -0.1772937 -0.017998151 -0.009064226 -0.104615435 -0.16720265 -0.010790753 -0.12251443 -0.058346525 -0.1689754 -0.0960899 -0.17021616 -0.09420749 -0.051414385 -0.08139117 -0.0014984325 0.14231977 -0.13288978 0.0470894 0.11473766 
-0.09323739 -0.09346304 0.053821 0.083880045 -0.1401917 -0.057858393 -0.11702734 -0.06835949 0.06085671 -0.024881223 0.07413633 0.11153918 0.076704726 0.01426865 0.1226965 -0.09260412 0.15992351 -0.14767979 0.11403681 -0.15453666 -0.15032153 -0.06541846 0.08624313 0.14047764 -0.023435548 -0.1635736 -0.04694968 -0.13413382 0.10101897 0.100453615 0.086822815 -0.030429646 -0.14516902 -0.046906695 -0.10488955 -0.014048702 -0.15080573 -0.042484313 0.05702563 0.034184616 -0.08221042 0.1371825 -0.0031364176 -0.17556751 -0.09650557 -0.10433184 -0.048244223 0.045783862 0.06042298 0.03266766 -0.15401304 0.0308595 0.053546257 0.15153886 -0.04730139 0.11037235 0.03184271 0.05340041 -0.06958108 -0.09607869 -0.02229634 0.21540414 0.023146916 0.07028963 
0.14685467 -0.09602468 0.17168924 -0.35233715 -0.082589835 -0.05111758 0.13095185 0.14152397 0.008548915 0.13309304 -0.08968162 0.07585704 -0.10381236 0.094376266 0.0033450357 0.036086407 0.06191556 -0.22575247 -0.032134905 0.036501374 -0.0878533 0.19614714 0.3222221 -0.16430838 0.005009451 -0.0578069 -0.2046823 -0.1320828 0.40460455 0.039538894 -0.2820563 -0.08576867 0.177499 -0.09734185 -0.26413554 -0.19700804 0.058929283 -0.081190415 0.07760757 0.0842769 -0.31226754 -0.044921946 -0.47968173 0.16715491 0.23240413 -0.14580788 -0.2873665 -0.1563374 -0.02370269 -0.1934878 -0.13015516 0.13932677 -0.14868845 -0.0214098 0.051010575 -0.11271104 -0.081768386 0.060154196 -0.0067159557 -0.11656111 0.095087536 -0.0906092 -1.736061e-05 -0.0402221 
-0.0016961589 -0.19163793 -0.11697165 0.045119274 -0.19741748 0.0146355545 0.007386327 0.5506351 0.16706562 -0.026313962 -0.4478426 0.014838789 0.2536771 -0.13684312 -0.17317013 -0.026935816 -0.10005877 -0.016063394 0.10954622 0.02521217 0.3245347 -0.022647189 -0.3122528 -0.08660986 0.077003315 0.19122499 -0.22694486 0.10393141 0.08241204 -0.38081297 -0.09917374 -0.13413824 -0.11723224 -0.12009588 -0.13230164 0.34476212 -0.14231205 -0.07614401 -0.06532755 0.088524014 -0.17724776 -0.089001015 0.21026288 -0.0158679 -0.6338743 -0.052280426 0.014688409 0.11302003 0.08732525 0.08285652 0.033076473 0.1527036 -0.0014691518 -0.12076498 0.041408625 0.12307486 0.044794045 0.04198917 0.10364913 0.2482946 -0.4546042 0.18179466 0.17764997 0.13934301 
0.7264365 0.121139854 -0.0809437 0.0937649 -0.01306058 -0.022133583 -0.12702088 -0.17737854 -0.097048044 -0.44785944 0.11009602 -0.16179371 -0.11599689 0.13357158 0.020195704 -0.15929642 -0.091827966 -0.23522645 -0.14834183 0.21747577 -0.09335804 0.10324712 -0.073542625 -0.17676765 0.10953246 0.14364798 -0.06207921 -0.004291073 -0.03078986 0.10338216 -0.14154477 0.17565145 0.009713356 -0.03527371 0.10514381 -0.102940574 -0.15726592 -0.015751377 0.062407445 -0.19391723 -0.17209542 0.07217835 -0.35762233 0.08823249 -0.03951285 -0.026072249 -0.10840776 0.28396192 0.22869779 0.07289378 -0.11044516 -0.15794948 -0.017885031 -0.32185808 0.35766295 -0.11182271 0.16560343 -0.03428156 -0.12568776 -0.11259525 0.6778569 0.13899015 0.09026695 0.06998392 
0.06254787 -0.31182107 -0.37699246 0.08624371 -0.22944045 0.1753233 0.13363117 -0.3553827 0.055007465 -0.1856282 0.1991477 0.20090514 -0.26539418 -0.1218683 0.16957405 -0.07440465 -0.095940426 -0.21675423 -0.06800377 -0.07008407 -0.14406349 0.09232089 0.3488933 0.017370919 -0.10788493 -0.07123234 -0.06896643 -0.13679163 -0.11363847 0.3348007 -0.047127027 0.08470566 -0.46676132 -0.003472549 -0.030026315 0.2020518 -0.1491588 0.14534341 -0.0942162 0.013280314 0.2216517 -0.38012996 -0.09014131 -0.0452766 -0.4594487 0.3836235 -0.31851977 0.07241202 -0.17212611 0.06164362 0.019935308 -0.020546086 0.26740983 0.24607684 -0.09824949 -0.15306045 -0.03587824 -0.013573539 -0.08671395 0.0849481 0.121561535 0.18866579 0.25684693 0.13547492 
-0.030265631 0.2817694 0.08121899 -0.12162948 0.037933752 0.0580481 -0.10543046 -0.4630042 0.064193904 0.15798314 -0.06823663 -0.18451032 -0.12274585 -0.21174486 0.14047164 0.009314214 -0.014974586 0.033496927 0.13008623 -0.107884414 -0.2897809 -0.19563094 0.015868083 -0.06829439 -0.12587851 -0.006995232 -0.01171742 -0.05300366 0.23571686 0.21730731 0.13640901 0.10425832 -0.19040298 -0.1829452 -0.13665421 0.22155362 0.03406005 -0.008991505 -0.06561356 0.22559282 -0.25269258 0.36932716 -0.07825135 0.019707132 -0.036694977 -0.025270121 0.0851005 0.07183301 -0.31731653 -0.046553884 -0.037383586 -0.05753809 0.11478216 -0.048500467 0.08433616 -0.16670085 -0.06312151 -0.12683164 -0.03599372 0.02229051 -0.16204703 -0.10085131 -0.10883049 -0.17654769 
0.34273884 0.13565356 -0.025627406 0.17272188 -0.18590622 -0.15569548 -0.046192013 -0.17505555 0.13935842 -0.29261714 0.1064904 -0.15434355 -0.08803422 -0.002811364 0.02679886 -0.054862842 -0.069413245 0.02650325 0.06655527 0.2150875 0.8495205 0.20778328 -0.21850467 -0.464534 -0.09451035 -0.18519194 -0.03701161 0.18902816 -0.14291646 0.21685843 -0.14556304 -0.059269086 -0.010893988 -0.14636926 0.36235255 -0.11157093 -0.1488172 -0.08067503 0.08780423 0.27373737 -0.06986293 -0.049852483 -0.57944185 -0.057269488 0.15608987 0.6939101 0.053711034 -0.17984697 0.04541072 -0.13667119 0.16718414 -0.11237756 -0.20953235 -0.20530158 -0.10196921 0.1522094 0.13914461 0.050462097 -0.161376 0.057957195 0.6762586 0.016312018 0.09243505 0.14057827 
0.0693259 -0.13906041 -0.21305266 0.083571695 -0.16946094 0.15003943 0.11231275 0.10344994 0.038465023 -0.040463157 -0.023961376 -0.09136079 -0.12939616 0.09612643 0.16819578 -0.07517083 -0.04956589 -0.08324051 0.12343388 0.28498614 0.2835038 0.15673175 0.15868199 0.1394944 0.08325152 0.0643186 0.02241479 0.12569682 -0.11702414 -0.26852784 -0.18415199 0.15316297 0.07697146 -0.03683323 0.10606321 -0.20487635 -0.1593084 -0.0062835957 0.052438267 -0.29397663 -0.14450082 0.15303916 0.017719543 -0.10647572 -0.14157377 -0.2748886 -0.14250192 0.32912603 0.14872713 -0.05317214 0.18147208 -0.03721672 -0.2662699 -0.012380824 -0.1443124 0.04360764 0.019550916 0.072608665 0.12565356 0.038189404 0.16847709 -0.008719354 -0.055765457 0.028744044 
0.124882504 0.12169612 0.09546083 -0.06299891 0.0838383 0.05312973 0.14590037 -0.032843214 -0.0977346 -0.13067277 0.044252247 -0.10385239 0.106054366 0.13548896 0.1799889 -0.00023368144 -0.118814714 0.0046892175 -0.116119005 0.069179334 -0.24859731 0.0015909508 -0.060484815 -0.019727672 -0.07691172 0.09232591 -0.143834 0.12664679 0.059256986 0.18710186 -0.12415572 0.15439324 -0.1514602 -0.2075006 -0.06413891 0.12912841 -0.16285567 0.018865319 0.1913676 0.07737608 -0.10240039 0.16601586 0.08925897 -0.03734864 0.17119546 -0.18100779 -0.033540662 0.06819575 0.04974614 0.11700546 -0.014842869 0.11444591 0.0984682 0.03512278 0.28274176 0.15691213 0.011146893 -0.122774355 -0.071089976 -0.09607131 -0.05948275 0.09240249 -0.11689644 0.009983119 
-0.045471728 -0.04145891 -0.10724941 -0.121302545 -0.054823663 0.08052494 -0.027271666 0.15706874 0.15938534 0.13941532 -0.020657968 0.07405718 0.20115465 -0.32926944 -0.06706938 0.054578383 0.065659605 0.0024410456 -0.21006194 0.11496377 -0.2215971 0.104911424 0.27040774 -0.34139168 -0.044930566 0.023646394 -0.005695736 -0.07304026 -0.1167216 0.31787804 -0.019897409 -0.07566665 -0.07980577 -0.09592369 0.083153255 0.10615718 0.07138209 -0.16352159 -0.13848276 0.15110956 -0.05036979 -0.16312884 -0.20331632 0.10760256 -0.07238953 -0.1700287 0.037396718 -0.1530726 -0.08227571 -0.16730542 -0.12061401 -0.11862025 -0.055078093 0.11143411 -0.08688974 0.06750545 -0.07120452 -0.08427333 -0.16587363 -0.14609748 -0.038241483 0.030472344 0.2355112 0.039590187 
-0.13563013 -0.18560919 -0.21844947 0.080107704 -0.035140574 -0.112640545 0.16012117 -0.043287836 0.0402451 -0.22870271 -0.058965262 -0.12114782 -0.3361704 0.04154599 0.028648406 0.07079288 -0.119494595 0.08075734 0.10474997 0.20654194 -0.3157921 0.050571308 -0.038033295 -0.17161827 -0.10295223 -0.053836532 0.09931893 0.11923352 0.033526644 0.1938978 -0.11089765 -0.11565933 -0.022594474 -0.091215305 0.27894166 -0.18293582 -0.059378866 -0.114737086 -0.08217658 0.06301138 0.028763011 -0.16142768 -0.20657712 -0.07467666 0.13420294 -0.12406779 -0.057828765 -0.060927037 0.20838328 -0.05601543 0.07059319 -0.112706445 -0.22070336 -0.007363207 0.07563308 -0.10139869 -0.046388596 -0.0651743 -0.059289843 -0.13003527 0.20560838 -0.16050698 -0.0074287234 0.13516286 
-0.01699803 -0.22421426 0.06671065 0.12454885 0.10870933 0.075884484 -0.08914776 -0.12155637 0.15541472 -0.22437768 -0.046523668 0.117472954 -0.14872624 -0.083012536 -0.025096387 -0.046557702 -0.15879266 -0.2283551 -0.16234809 0.01875024 -0.14606228 0.16440909 0.2214937 -0.27729097 -0.17104259 -0.047844034 -0.11597356 0.11701757 0.024224298 0.17660928 0.018868186 -0.13982174 0.0870289 -0.016942162 0.09439278 -0.062465113 0.10319425 0.064234085 0.057516705 -0.19836614 0.08418879 0.0415568 -0.20025878 0.20245129 -0.21352573 -0.20644933 -0.16394344 -0.0019040509 0.18176863 -0.04597956 0.1464863 -0.17633452 0.021456748 -0.004536757 0.23327139 -0.09572114 -0.17865264 -0.083043374 0.04795529 -0.03278116 0.008025614 0.1271859 0.111906596 0.12142205 
0.13443051 0.026868304 0.16127229 -0.17887354 0.012159762 -0.07256921 -0.14229546 0.1144984 -0.07625732 -0.020506406 0.0981254 0.06933534 -0.02256093 -0.12715822 0.099446066 -0.12300687 0.097976066 -0.1850363 0.0110931005 0.13329232 -0.059202656 0.040861666 0.061926518 -0.11957943 0.08169827 -0.03380685 0.078486346 -0.20752233 -0.19889705 0.2581773 -0.041801248 -0.099762306 0.14770444 0.059359044 -0.12799211 -0.123699225 0.11326369 0.030077534 0.09606461 -0.13356893 -0.198892 -0.06354685 -0.15235116 0.15473272 0.04862728 -0.06973054 -0.15487236 -0.26900348 -0.08320761 0.050948 -0.13190112 0.026560133 -0.064300396 0.019366182 -0.039187286 0.08902054 -0.0021871082 0.14551046 0.09415262 -0.043330614 0.14166461 -0.077934295 0.24436325 0.12454441 
0.13077527 -0.27248093 -0.034939043 -0.17173743 -0.08118717 -0.07687665 0.13936646 -0.015352697 -0.013640532 -0.21681498 -0.07330473 -0.015909037 -0.18249401 0.11580288 -0.193458 0.039342977 -0.09793518 0.07964386 0.09991724 0.006779805 0.031329647 0.057896137 -0.18708599 0.02094306 0.15208739 0.012973017 -0.0027409722 -0.2109162 -0.20580967 0.15858038 -0.10413047 -0.034448013 -0.011548811 0.16142617 -0.12378121 -0.03750998 -0.13996337 -0.17509587 0.0497384 -0.17776431 -0.24517424 -0.06409847 -0.28173432 -0.010447505 -0.119782045 -0.05989719 -0.18705992 -0.07154935 0.17423181 -0.044614803 0.11713922 -0.13859569 -0.1457607 -0.055611577 0.1343378 -0.1426052 -0.1665604 -0.03636154 0.059426997 0.09230292 0.19867995 -0.11796975 0.12471151 -0.06338321 
0.0024622697 0.10121849 0.2923591 0.129425 -0.074188314 -0.022885736 0.03032428 0.081956066 -0.25382608 -0.21447963 0.16272593 0.17806609 0.00909503 0.14314197 0.3541315 -0.15903753 -0.053794194 0.14899273 -0.1282314 -0.13908155 0.0010003094 -0.13468255 -0.010802032 0.15147986 0.008155584 0.0028171057 0.20385143 -0.11021968 -0.19644053 -0.06912151 0.2101856 -0.13533364 0.12084354 -0.035555556 -0.013235662 0.039592296 0.016552279 0.072498225 -0.16319261 -0.19208759 -0.1365999 -0.1260969 0.16188498 -0.31409064 -0.051549867 0.083535455 -0.21711653 0.0099729225 -0.20043191 0.029928543 -0.11145078 -0.14917392 0.12493037 -0.03881025 -0.060848627 -0.100212805 -0.039601482 -0.1578971 0.0786157 -0.12673208 0.17791966 -0.032354075 0.19099273 -0.10918893 
-0.20487112 -0.2191913 -0.12206503 -0.20593806 -0.099750705 -0.14539859 -0.058096696 -0.16887286 0.060629025 -0.31207806 0.07339033 -0.11037678 0.10262884 -0.03939771 -0.010665938 -0.21752964 0.03823233 0.037161108 -0.014435266 0.07370566 -0.46329504 -0.14952543 -0.17910057 0.12618923 -0.13630283 -0.08107082 0.16393885 0.17008896 -0.028725307 -0.26586857 0.020349337 0.03227588 -0.048329033 -0.07136275 0.08871309 0.023406956 0.047417887 0.065438196 -0.087171085 0.1518097 -0.022192458 0.0032205025 -0.17173295 0.06791827 0.044976074 -0.11773143 0.10092892 0.14394026 0.027341574 -0.12013577 -0.03805483 0.041522015 -0.0051251524 -0.1998285 -0.121165454 -0.11921976 -0.10665866 0.1823665 -0.14030205 -0.08088206 0.11199082 -0.189028 0.019124167 0.044972174 
-0.13413252 0.10216538 0.050814558 0.015360144 -0.16610096 0.033907052 -0.055146057 0.15243866 0.083083436 -0.22678958 -0.110486865 -0.05821365 -0.24591061 0.050164875 0.013119483 -0.10023003 -0.14439254 -0.10222564 0.015633065 0.022989772 -0.25882298 0.1990847 -0.2580685 -0.12957154 -0.1757104 0.10751392 0.11608587 -0.049646113 0.13453698 0.20473462 0.07040011 0.016038468 -0.09970372 -0.08585021 0.048559282 -0.09145127 -0.13308917 0.043111492 0.0016786366 -0.22266424 0.0070889946 0.13299161 -0.07506651 -0.030671641 -0.10579266 -0.099141054 -0.14287129 -0.114941806 -0.0051879487 0.037713923 0.16866875 0.010705875 0.057419024 0.013273698 -0.15508683 -0.13417624 -0.16138394 0.023168426 0.15841621 -0.091818795 0.0071142428 0.11138364 0.21187967 -0.028153023 
0.005528641 -0.1512142 -0.15502039 -0.05927228 0.023733605 -0.0084285615 -0.109142475 -0.16350517 0.16083558 -0.099362284 -0.030579532 0.15367834 -0.08424708 0.0025949767 -0.16754782 0.06583111 -0.09386735 0.14990734 -0.20263886 -0.001086066 0.07898363 0.13130869 -0.029744294 -0.016027352 0.088622086 0.15065812 0.07800855 0.17711961 -0.075730875 -0.03980285 0.09061495 -0.15791851 0.16523866 -0.20840465 0.1438131 -0.0016089964 0.1146874 -0.037240364 0.074035406 0.03437046 0.034769498 0.13841648 -0.011051389 0.14879481 -0.082125045 -0.21172537 -0.06510346 0.12272354 -0.037886553 0.044083208 0.13447255 -0.06426547 -0.17112632 -0.07117217 -0.16459264 0.022421585 0.15705916 0.20110598 0.05527044 0.1378104 0.17354792 -0.09289986 -0.050017063 0.03799109 
-0.11871451 0.26687658 -0.1785947 0.07009328 0.1179328 -0.13104226 -0.010244816 -0.086799085 -0.09399603 0.10622675 -0.026208077 -0.091234654 0.15794295 -0.18006437 0.023024805 -0.1371999 -0.08476422 0.040207006 -0.058936052 0.13961859 -0.47665262 -0.25863793 0.22640015 -0.028295659 -0.040170282 -0.041529085 -0.12149444 0.15518345 0.10091975 -0.10454535 -0.005265758 -0.13928819 -0.28286394 -0.18210907 0.1840005 0.08622579 0.045631204 0.033556174 0.047899213 0.009208231 -0.08585739 0.18473177 -0.04117321 0.07173416 -0.09889746 -0.1518475 -0.10855896 -0.15606467 0.013683073 0.004254169 0.03906086 0.11653823 0.16008654 -0.12337753 0.2000102 -0.05058678 -0.14533801 0.17720814 -0.15046932 0.057814483 -0.090395615 0.1695617 0.21562262 0.032965563 
-0.13949236 0.07368291 0.05590141 0.034681313 -0.119731195 -0.15143862 0.13938507 -0.08311822 0.18675084 -0.27639472 -0.1164334 0.12559444 -0.032654155 0.099077895 -0.023174116 -0.064681225 -0.090588756 0.26304165 0.11493025 0.037525054 -0.28654975 0.10906678 0.10739309 -0.053570546 0.008632136 -0.13872859 0.06939901 0.1802589 0.077780016 -0.07732019 0.19496058 -0.026243094 -0.0031698095 -0.15269119 -0.029955402 -0.12448277 -0.030986995 0.00065136974 -0.084735766 -0.12807696 -0.004294904 0.06904892 0.06354987 0.12584299 0.08840111 -0.52164763 0.108143 -0.15770525 -0.10086874 0.09395482 -0.09729364 -0.016491689 0.10036387 0.066426106 -0.0041872934 0.004351214 0.055235773 0.03154141 -0.16365404 -0.019806912 0.031415656 0.07934123 0.033916708 -0.099441215 
-0.22188702 -0.2778135 0.21178423 -0.30024824 0.13170874 -0.030001245 -0.09843725 -0.07382746 0.25385195 0.16264926 0.048895203 0.022387747 0.20534775 -0.47580642 -0.15892059 -0.015055121 0.02825408 0.18448113 -0.06825158 -0.02043996 -0.25980872 -0.05691015 0.045154773 -0.016378174 -0.019021422 -0.1870092 0.106711626 -0.21432434 0.019856198 -0.08267639 -0.04866279 0.012777479 -0.08636058 -0.084372774 0.03172002 -0.7645559 -0.07227149 -0.15381356 -0.379759 -0.13951857 -0.089168414 0.0057450864 -0.20749383 0.019760696 -0.076453246 -0.1273182 0.012179905 -0.0265024 0.22322868 -0.14203216 0.14695498 0.07559821 0.1847788 0.009842097 -0.10648835 -0.1539668 0.030021502 -0.014992712 0.06361057 -0.26451457 0.2303622 0.14390394 -0.019992094 -0.27925864 
0.32037544 0.0026306512 0.026429247 -0.12624648 -0.039481543 0.0018881024 -0.101583175 -0.16518934 -0.08272959 -0.23619731 -0.010317408 0.18377466 -0.0793672 0.14906652 0.12272362 -0.12237026 -0.029004334 0.1096781 0.018849129 0.07202444 -0.03269937 0.024861146 -0.30965665 -0.10173644 0.12645957 0.022660282 -0.102063276 -0.16006227 -0.16516419 -0.004304341 -0.116549715 0.08236731 -0.09290532 0.1225184 0.114447355 -0.06630229 0.062721856 -0.023583934 0.07430872 -0.04316942 -0.08285144 0.118981734 -0.10571301 0.081222676 0.18225738 -0.18307123 -0.20034112 0.054133553 -0.051769186 0.11735085 0.010239351 -0.011256711 0.11124361 0.2648042 -0.055822086 -0.03947813 -0.033670556 0.018884577 -0.1555819 0.07965083 0.08312839 0.10310612 -0.18141413 0.10971547 
0.16232233 0.090848655 -0.091510944 0.23144606 -0.23568396 0.003121525 -0.10201223 -0.02315669 0.1511692 0.061765667 -0.053598695 0.054328356 -0.071714014 0.07478599 0.11147848 0.15647866 -0.030888587 -0.03747877 -0.1764168 0.0026490986 0.09695361 -0.05771203 0.036827717 0.10387564 -0.13468282 0.07050371 0.16807733 -0.07187466 0.15351625 -0.010789528 -0.2025317 -0.070812225 -0.27556908 -0.0010309517 -0.009581794 -0.16600634 0.1764677 0.08292143 -0.16682236 -0.14778753 0.14470387 -0.13611314 0.05730384 0.05752893 0.16993079 0.14236815 0.034763277 0.056164674 0.2076849 0.050489478 -0.113927685 0.051629886 0.13177313 -0.015468487 0.03511252 0.037381712 0.059978634 0.14977074 0.1514801 0.051743813 0.20763421 -0.09052382 0.0399939 -0.097851865 
0.09799266 -0.16975848 -0.05064577 -0.09870314 0.05760783 0.082985535 0.11914628 -0.047919802 0.1746863 0.057233263 0.20271675 -0.18230805 0.021140479 -0.11199633 0.09809642 -0.17265067 0.10474507 0.017425444 0.0629892 0.17724438 0.10667488 0.12704827 0.01715814 -0.2646161 0.11473113 -0.10661893 -0.07826956 -0.071490705 0.065217935 0.14466135 -0.048041336 0.0032856306 0.16557877 -0.017536025 0.102817126 -0.023451088 -0.089624904 -0.054606434 0.11351932 0.045822516 -0.07813553 0.17969163 0.014817652 0.019686377 -0.078604974 -0.31788775 -0.07395656 0.1498803 0.1073056 -0.19450596 -0.1352374 -0.15847188 0.10132797 -0.18776274 -0.057046887 -0.16907305 0.16874401 0.09561375 -0.06798377 -0.16867058 0.12937213 0.019924572 -0.2155639 -0.024890222 
0.162765 0.028847158 0.046254642 0.17750743 0.0019975193 0.036605597 -0.11696328 -0.07086359 -0.035853002 0.0694052 -0.014895679 -0.17542604 0.13905643 0.16942485 -0.0043281373 -0.06994716 -0.10897114 0.06774804 0.1535617 -0.08478202 0.004019454 -0.1322667 -0.15734927 0.15546864 -0.039841503 0.20064303 0.008909978 -0.045533035 0.13869314 0.17308177 -0.03470086 -0.14401877 -0.07353831 0.05956626 -0.15975042 0.0063874973 0.09648113 0.11849792 -0.17204344 0.056828737 0.061612204 0.11914436 0.080356635 -0.010814546 -0.042446453 0.15847854 0.0029539638 -0.0026707945 0.094049 0.072727464 0.049848646 0.14443476 0.05802901 -0.09518416 -0.046187133 0.15144525 0.13785698 -0.17365813 -0.15227348 0.072123155 0.014425888 0.064662896 0.116746195 -0.10723932 
-0.11655867 0.23337765 -0.05598256 -0.17513771 0.1660552 -0.04337526 -0.04742766 -0.03626523 -0.06989402 -0.0028995601 0.044507965 0.061612643 0.12830706 0.028987836 0.024849461 0.14578378 0.068290606 -0.07016011 0.028864091 0.11308605 -0.05916745 -0.17732847 -0.15447782 -0.13597116 0.10906272 0.116386 -0.06993985 -0.006385234 0.07440902 -0.025561988 -0.026995156 -0.028322427 -0.4369506 -0.1094535 0.12731372 -0.6095296 -0.014306501 0.02031014 0.15019685 -0.08188821 -0.1568379 0.10229682 0.13942641 0.096752696 0.05612998 0.0031874632 -0.011161845 -0.09016513 -0.19858012 -0.052763302 0.074670784 -0.1088151 0.12894207 -0.018038003 -0.028415676 -0.1537477 0.10739033 -0.03426573 0.016009701 0.02179053 0.106955506 0.014801714 -0.023998322 0.05533927 
0.0011040885 -0.14630516 0.0068506757 -0.22796707 -0.06378677 -0.050842322 -0.09806604 0.1562003 0.09025927 -0.1572596 0.044186328 0.05392134 0.08064021 -0.12250772 -0.15613963 0.1186314 0.065498315 0.047920737 -0.10501902 0.1574277 -0.31250975 -0.06793123 -0.17356701 -0.03308693 0.086850755 0.15262854 0.08613783 -0.12154398 -0.07171488 0.11732584 -0.18245605 0.03984216 0.16713212 0.080490254 0.213381 -0.17662247 -0.023283653 0.039935745 0.013253712 -0.10810563 0.06382876 -0.1447717 -0.0361869 0.12208347 0.10274382 -0.1435881 -0.028738102 -0.088173196 0.082881674 0.14544012 -0.026439035 -0.058550876 -0.044992015 -0.04282419 -0.19418359 0.09047367 -0.16073531 0.013184511 -0.07428658 0.11531176 -0.1277797 -0.1495224 -0.05273677 0.17449501 
-0.0635512 0.010582598 0.057211913 0.1183181 0.14160375 0.019497976 0.0054409467 -0.03183188 0.01547431 -0.043854676 0.0025049099 -0.12835361 0.13633929 0.023321586 0.09594104 0.12049968 -0.1534529 -0.20496553 -0.112717874 0.0033895602 -0.10888239 0.048229765 0.2444281 0.086749546 -0.05836278 -0.1374683 0.14413524 -0.19960785 0.041568596 0.1305863 0.0967094 -0.088201605 -0.15341486 0.1301198 0.22302121 -0.068534784 0.048718862 -0.08918986 0.17641842 -0.25184855 -0.2245741 -0.041741073 -0.14744844 0.07112451 0.13786551 -0.090017654 0.15274754 0.105703644 0.16113359 0.0159898 -0.13948111 0.08273832 -0.12708873 0.11317902 -0.0056712353 -0.16045702 -0.0933473 -0.11813567 0.06555968 -0.04292542 -0.16054969 0.041590855 -0.050195944 0.19920215 
0.1652611 0.0759293 -0.10142176 -0.028016001 -0.17721874 -0.10760149 -0.11323914 0.09983171 -0.109954804 -0.17307195 -0.17423977 0.106989995 0.12861434 0.059413705 0.01945486 0.1407571 -0.12282337 0.110576995 -0.1480459 -0.034226496 -0.14267503 -0.013357081 -0.15472487 0.15453716 0.04448524 -0.0890891 0.16155684 0.027369708 -0.13864484 0.0011789631 -0.008975938 0.13597523 -0.08338999 0.13672382 0.06471636 0.0021991984 0.14291067 -0.052283816 -0.09084387 0.08895455 -0.010566844 0.17557293 -0.015291967 -0.09090433 -0.09152156 -0.087352484 0.025571188 -0.1701213 0.09408353 -0.11050327 0.080024116 0.013572158 -0.093518905 -0.15019867 0.054733366 -0.14644767 0.14177628 -0.14906067 -0.07310411 -0.1512057 0.071942866 -0.1381088 -0.15944454 0.081089765 
0.37124005 -0.12252164 -0.2131651 -0.1872649 -0.05757548 -0.089671776 -0.12310036 0.12986773 -0.10407679 -0.10760595 0.12168023 -0.38479635 0.1855448 0.21412653 0.088075265 -0.11902489 -0.062632605 -0.120599955 0.08005885 0.13833374 -0.3671693 0.1849752 0.21772328 -0.029531464 -0.15803231 0.001656619 -0.1539577 -0.08452866 0.078565925 0.08958454 0.05432505 0.017211258 -0.03709711 0.12443529 -0.14134258 0.049830437 0.08674421 0.04624111 -0.1536116 -0.13468234 -0.09304183 -0.06505048 -0.4022805 -0.041842494 0.23256136 -0.022158042 -0.21924227 -0.03906984 -0.0064284117 -0.00840379 -0.041154154 0.14523107 -0.3210221 -0.094031624 0.026774682 -0.088446595 -0.08427435 0.20721737 -0.17189248 -0.17703043 -0.021961082 0.100391686 0.15840091 -0.19236909 
-0.116358116 0.22518916 -0.039602805 -0.08621746 -0.04169085 0.07406388 0.08364872 -0.05349836 -0.034086697 -0.20401819 0.19535805 -0.10013867 -0.18126161 0.044552956 0.049433872 0.1291149 0.08674227 -0.11651556 -0.018806957 -0.09439466 -0.0033879485 -0.17889266 0.16762596 -0.016799415 0.12971894 0.11645318 0.057102602 -0.013515865 -0.020725938 0.20254122 0.0038550117 -0.1769195 -0.013296506 -0.06607428 -0.17584884 -0.20230646 -0.0658831 -0.1372527 0.04560117 -0.026092334 0.0038892133 0.080769144 -0.105228536 0.13823335 0.049133178 -0.19129273 0.16698648 0.29800528 0.19814335 0.053837325 0.10809725 0.077968635 -0.12809114 -0.037739992 0.17761427 0.12884906 0.15999524 0.028358422 -0.114579916 -0.063936524 0.051065903 -0.06309976 -0.40394482 -0.090877995 
0.31486097 -0.1431969 0.16462955 0.04559032 -0.1061846 0.0135228075 0.16753355 0.31960404 -0.20575494 0.17033996 0.18718882 -0.03146657 -0.14024551 0.39061284 -0.024938047 -0.09880431 -0.05839808 -0.066205785 0.14790204 -0.06639388 -0.41068837 0.09568957 -0.37347582 -0.2704562 0.13793066 0.083678775 0.009799899 0.16048759 -0.07000868 0.17904459 0.050229132 -0.16372068 0.13815369 0.039664663 0.08277191 -0.41633987 -0.0004221797 0.05846387 -0.18266384 -0.1366695 -0.07274466 0.022201253 -0.0067825387 0.10092544 0.10673412 -0.18779133 -0.34046742 0.23108535 0.3190116 0.20713685 0.06117188 -0.09784521 0.033426244 0.22981466 0.19823939 -0.018199852 0.05222555 -0.09111475 -0.14226422 0.03405886 0.075451165 0.10353877 0.019185474 -0.2001108 
0.15436593 0.020676102 0.07389809 -0.0001636894 -0.02901916 0.078997 0.06116566 -0.021267254 0.16982028 0.19873917 -0.18199694 0.19143164 0.12872659 -0.04847251 -0.22512484 0.04497098 -0.12552215 -0.134757 -0.0044554584 -0.061687246 -0.14743796 0.06404004 0.14201811 -0.25979763 -0.0993504 -0.017787894 0.022533298 0.13531841 0.0034645745 0.100657985 -0.18131167 -0.15195654 -0.1496652 0.052713506 0.107777335 0.06104408 -0.15501456 -0.03296722 -0.071991384 0.035463408 0.15338095 -0.13267109 -0.2672301 0.1574921 0.07946446 -0.20011789 -0.06990853 0.04188028 -0.033502664 -0.006569391 -0.07633008 0.06529837 -0.042621445 0.24258137 -0.061150376 -0.029144084 -0.027442351 0.022927154 0.042171735 -0.15850145 -0.06080677 0.12551557 -0.066806085 0.00046851128 
-0.10194359 0.052817695 -0.164187 0.18470638 -0.16380884 -0.12826735 -0.013469622 -0.15496077 0.092357054 -0.14193982 -0.06546224 0.21444926 -0.0905168 -0.1414694 -0.033648618 0.1512755 -0.04735662 -0.018073048 0.050253034 -0.09077958 -0.15171807 -0.18232547 -0.11160239 0.027811414 -0.11291027 -0.1004051 -0.13115266 0.1538514 0.14617789 0.19469996 0.16389146 -0.13648266 -0.037301503 -0.17347734 -0.19148202 -0.10128943 -0.08621041 -0.049578354 -0.016623806 0.022554727 -0.11405518 0.017680513 0.057235062 0.113620065 0.1969496 0.023936246 0.10348479 0.03615423 -0.20111929 0.18852842 0.11826351 0.16125967 -0.061500266 0.14384188 0.17932448 -0.12861945 -0.09243048 -0.19315249 -0.058761172 -0.05734409 0.10226563 -0.038701884 -0.05384471 -0.12905659 
-0.18676902 -0.07504338 -0.021241225 -0.0297943 0.022869125 -0.12695396 -0.11975041 -0.5443634 0.05957685 0.1469748 -0.019105196 -0.14888282 -0.09975777 -0.2142562 -0.1757183 0.08100515 0.031665944 -0.047821727 -0.12798746 -0.14739063 -0.0677639 -0.15481323 -0.21358822 0.041026603 0.005760804 0.07930496 -0.22316988 -0.18577115 -0.18833293 0.1762317 0.042964976 0.098686025 -0.2294399 0.015813103 0.113341644 0.046626944 0.0374447 -0.22354479 -0.15322584 -0.08499912 -0.24260873 0.1970402 -0.070018776 0.0033002303 0.24718198 -0.12930553 0.14677517 -0.06504231 0.18227509 -0.16149877 0.12548807 -0.089888684 -0.14383417 -0.053178683 0.09938594 0.080469854 0.008524615 -0.10480137 -0.013884259 0.023627408 0.11003492 -0.103180364 -0.09704175 -0.13423185 
0.06976378 -0.14180182 -0.04662858 -0.08756913 0.018107861 0.056901827 0.015052706 -0.013749367 0.09484946 0.032250807 0.026285347 0.03368763 0.052969042 0.15638755 -0.065223806 -0.044144273 0.17243575 0.15152827 0.17339547 0.14670135 -0.07272396 -0.0565075 -0.061538517 0.028137583 0.06900935 0.037020706 0.035402987 -0.04493742 0.02177272 -0.09701902 -0.037218884 0.010269374 -0.073230006 0.048172966 -0.06126571 -0.052720238 0.06116642 -0.035177022 0.022195634 -0.05026032 -0.13508095 -0.04117369 0.028505094 -0.0014381852 0.02046787 -0.16835019 -0.18095894 -0.1261631 0.09703246 -0.09863327 0.22171973 -0.11189811 -0.009724129 -0.10288096 0.03303378 0.031154066 -0.11116585 -0.07842655 -0.13365546 0.15535502 0.03631696 -0.011980805 -0.008167494 0.05555227 
-0.005209672 0.15823282 0.1490793 0.021706657 0.13511296 -0.16676639 0.10640289 -0.121144265 -0.12526159 0.023054268 0.15888543 0.022132624 0.036182307 0.088029265 -0.05842913 0.107634954 0.030074894 0.09718475 -0.10299539 0.0016543968 0.16689864 -0.03027274 -0.0027159594 -0.10597349 0.09079586 0.059522033 -0.16881253 -0.11604797 0.046797134 -0.14861755 0.0742462 -0.1210154 0.161261 0.09510474 0.096056744 0.007212743 0.06394541 -0.15105961 -0.085068375 0.04213292 0.049435552 0.14288291 -0.035958517 0.10050851 0.17156307 -0.13476594 -0.09324471 0.09302632 -0.016559087 -0.15030445 -0.1418368 0.14729415 0.111456834 -0.11683692 -0.010916083 0.08115221 0.017829418 0.002627424 0.032959435 0.04151006 -0.013723587 -0.0026335893 -0.08459704 0.02675584 
0.032240648 0.05648556 0.07979796 -0.08594397 0.03489782 0.07521437 0.055195257 -0.055793777 -0.11122225 0.05592583 -0.14421083 -0.07876015 -0.090096176 0.1887906 0.077963024 -0.09824139 0.15105067 0.071721025 -0.18519461 0.16585806 -0.0021443754 0.18538459 0.1482365 -0.025633367 -0.088792026 -0.14354238 0.11519691 -0.043711558 -0.04240267 -0.023776896 0.1001982 -0.114342585 0.029211001 -0.1611054 0.1316905 -0.09511731 -0.0065719057 0.10304066 0.09504441 -0.11632151 -0.048070766 -0.0012974624 0.15107493 -0.10350506 -0.16194095 -0.0027038534 -0.01665133 -0.04528371 0.09147164 -0.051015615 -0.08903326 -0.05742275 0.089817815 -0.1004532 -0.046027455 0.04078272 0.15618084 0.025016611 0.1424009 -0.12038355 -0.14448449 0.21518287 -0.03808752 0.18125997 
-0.12840943 -0.12868471 0.002225255 -0.0016100088 0.15174314 -0.14690273 -0.04698101 0.13104528 -0.1422025 0.013565854 0.12038894 0.097557224 -0.026578834 -0.17214806 -0.0006262429 -0.13632189 -0.16513562 0.040137064 0.0009172905 -0.030223573 -0.5855798 -0.05920109 0.093990855 0.19105756 0.0032086384 -0.09183313 -0.040354863 0.09502488 0.070540145 0.04526953 0.03192585 0.14163926 -0.045126155 0.043290306 -0.15683247 -0.2749357 0.047053482 0.10640833 -0.17345686 -0.14377752 -0.2686692 0.19015655 -0.11736452 0.13642474 0.13797808 -0.0034262321 -0.2487256 0.11031031 -0.22052275 -0.07185196 0.11681926 -0.1852984 0.12388402 0.15546308 0.026095765 0.11016705 -0.013372266 -0.050403282 0.063426435 -0.07182589 0.11818812 0.17048316 -0.2676669 -0.28188288 
-0.16344365 -0.13789637 -0.053830743 -0.07492082 0.0017641843 0.09892083 -0.007640176 0.07229596 0.022569876 0.20012318 0.21731995 -0.31505805 0.1822488 -0.123334676 -0.03255877 -0.15320826 0.047141433 0.072141245 0.16288483 -4.24482e-05 0.4085598 0.06862992 0.15239201 -0.13259034 -0.07845404 0.03340218 -0.31075427 -0.059817765 -0.16580643 -0.09435495 -0.18269359 0.108015135 0.12672706 -0.07373398 -0.20906617 -0.23669145 -0.061062478 -0.16879435 -0.23839748 -0.12955797 -0.3412437 0.21106018 -0.28215316 0.057856057 -0.13992375 -0.015231248 -0.29710373 -0.07027965 -0.32080245 -0.3629336 0.05010265 0.17519851 -0.08326259 0.0020176682 0.038452342 0.026545346 -0.10020712 -0.039032582 -0.16535269 -0.09790052 0.24786097 -0.070144154 -0.09728809 0.054302454 
0.07559475 0.004118703 -0.0055623343 0.17981881 0.122074895 -0.13244626 0.07974922 0.25111517 0.12202568 0.06575873 -0.15768345 -0.17724627 0.22681494 -0.13746604 0.07942315 -0.11162144 0.12616792 0.1277253 -0.013635317 -0.06203596 -0.21433188 0.18262984 -0.5063603 0.11567448 -0.14771594 0.094715185 0.020549733 0.21144821 0.13302076 -0.082386084 -0.16442135 0.13888963 0.15020324 -0.08344821 0.06179245 -0.2654388 -0.09612782 -0.037544355 0.26510584 -0.0109258965 0.13463257 0.12222083 -0.122802116 0.17265707 0.023486653 -0.13774793 -0.13896206 0.036006607 -0.05686756 0.0754502 -0.0076161586 -0.12934348 0.061363235 -0.05451805 -0.10235534 -0.097792104 -0.14108612 0.17487642 -0.14049517 -0.091668345 0.11269481 -0.08523519 0.10132878 0.18152797 
0.21488504 -0.16831686 0.14682473 -0.3540029 0.19375199 -0.16134836 0.092346445 0.09334242 0.21484096 -0.6242936 0.0013167023 -0.20697556 0.05161433 0.1626686 -0.13802297 0.02117728 0.0062451744 -0.23104939 -0.019764714 -0.075020954 0.5497355 0.0045391647 0.49183273 0.09023996 -0.06322777 0.14506152 -0.2738115 -0.26159972 -0.14192708 -0.06359784 -0.13402937 0.017286226 0.11000207 -0.105827674 -0.07126227 0.086401425 -0.19944856 -0.08556009 -0.07706795 0.26326334 0.0052283793 0.016982926 0.0025753656 0.03979642 0.18197301 0.14524165 0.098292686 -0.30970263 -0.09464435 -0.055767253 -0.0617008 -0.17352472 -0.2475283 0.07392214 0.08764722 0.070406556 0.067793176 0.24898082 -0.15237774 0.21787193 0.16996048 -0.02912531 0.029253157 -0.097350754 
0.18766165 0.00026203817 -0.088022016 -0.006530298 0.028538162 0.05924343 -0.027412405 0.09166685 0.04183924 -0.22735687 0.0031267046 -0.00818991 0.16717856 -0.008960541 0.09749899 0.052432127 -0.013802684 -0.09432793 -0.20302388 0.083089165 -0.22199503 0.0026840665 0.08556231 0.014219129 0.1304195 0.036750354 -0.116417386 0.06892309 0.09955543 0.044490203 0.015260013 -0.013844404 -0.104931906 0.10960536 -0.2721344 0.083925255 0.052788455 -0.016927354 -0.08061045 -0.21790448 -0.0918549 -0.022673305 0.0793355 -0.056039367 -0.036348138 -0.18249303 -0.071507454 -0.119012825 -0.053162318 -0.17087246 0.09496037 -0.059487436 0.34770176 0.28978974 0.086632304 0.011927471 -0.13248114 0.04141538 -0.1905091 -0.16511819 0.11017033 0.08190021 -0.10486046 -0.14323373 
-0.1465967 0.20271032 -0.027227877 0.08515231 0.16175872 -0.22548234 0.10224721 -0.16340727 -0.024357835 -0.20888734 0.23454551 -0.13256322 0.10091158 0.0060521807 0.1064326 0.114835694 0.09256196 0.2657114 0.14352573 0.08915068 -0.14902683 -0.03413811 0.035858862 -0.025772667 0.124414414 -0.07224187 0.23506013 0.12618949 0.09306296 0.11777628 0.08355356 -0.02119206 0.05914141 0.19182399 0.20206279 -0.27692646 0.037764497 -0.107856624 0.107670635 0.07814475 -0.0651294 0.11839004 -0.112658806 0.074747026 0.085200354 -0.07641916 -0.16564013 0.082365364 -0.11162467 0.10483145 -0.18669905 -0.18080407 0.120848335 -0.17062964 -0.16294141 0.08840803 -0.084889695 -0.017729605 -0.06622978 0.040115647 -0.13544714 -0.08637881 -0.06799684 0.05591586 
0.12397411 0.031217681 -0.15747577 0.002735421 -0.010891259 0.08936456 -0.16670795 -0.20197412 0.08886692 0.05143056 0.068375304 0.15378219 0.039400894 -0.09262191 -0.09435116 -0.105749615 -0.09007579 0.27193725 -0.086993106 0.040874705 0.069621794 -0.057424374 0.14921254 0.057801165 -0.082854 0.13622814 -0.021297405 0.052737385 0.1296933 0.093030795 -0.08965278 -0.0463525 -0.09566282 0.10880888 -0.091236554 -0.021704972 -0.06292243 -0.053042468 0.09419627 -0.07691203 -0.18988922 0.005412722 0.17352298 -0.12885727 0.14173268 -0.15635557 0.07423229 0.032311898 0.025380079 0.01707195 0.12836826 -0.1705717 0.124743454 0.105413854 0.25145927 -0.13995467 -0.1829052 0.011260696 -0.17736293 -0.14894384 -0.101186514 -0.06389506 -0.029341085 0.19992374 
64
-0.014171626 0.02807934 -0.036962744 0.030096915 -0.009062972 -0.06912687 -0.032707926 -0.013186182 0.021470308 0.056484986 -0.054756686 -0.022557873 -0.08822074 0.06351941 -0.018396404 -0.023771387 -0.013383501 -0.07235234 -0.027631175 0.07099546 0.023800781 0.012705174 -0.04295477 0.0065340498 -0.026403943 0.0017710265 0.025272032 -0.019588824 0.02365959 -0.07347222 0.011603138 -0.040090397 0.0062908046 -0.03992195 0.07429451 -0.029486788 -0.04985296 -0.065721296 -0.032606635 0.0001765157 -0.019059375 0.008255121 0.048852038 0.020656135 -0.05159431 -0.009295312 0.04830893 -0.06190351 -0.0026415365 0.016800454 -0.026141994 -0.014804444 -0.011642007 0.013094753 0.1434638 -0.03639564 -0.03468561 0.018387876 -0.03993789 -0.014460857 0.037003595 0.019525092 0.020432994 0.05476186 
64 64
-0.096643984 0.14790258 0.032799736 0.09710649 0.14572991 -0.18718725 0.16304404 -0.043873146 -0.17902417 0.2484298 0.1363653 -0.089313045 0.1061242 -0.09550165 0.13270912 0.059239354 -0.0054248855 -0.16905932 -0.19978581 -0.03793605 -0.05377395 -0.17473593 0.15712343 -0.10267633 0.05200463 0.009146321 0.010523973 -0.38468248 -0.06574829 0.18886231 -0.021622915 -0.28550914 0.2644774 -0.093641445 0.19865589 0.03911756 0.08440595 0.27501562 0.08641774 0.039905753 -0.068670236 -0.018354231 -0.16133748 -0.22259884 0.20546228 -0.1457918 -0.39375207 -0.21667156 -0.44090796 -0.053085983 0.09905756 -0.14840753 -0.22610307 -0.07454717 -0.16270274 -0.029649392 -0.14916407 -0.11473183 -0.3060416 -0.037266146 -0.024131961 0.18493944 -0.226127 0.32814738 
0.053969115 0.013716286 0.24261972 -0.17550278 -0.17103276 0.100409254 0.0553545 -0.23817545 -0.69144917 0.020834198 0.027758727 -0.10924448 0.11689991 0.13226458 -0.09099788 0.08089596 -0.048238013 -0.21160421 -0.044151574 -0.13417396 0.02594803 -0.2027901 -0.032911938 0.020461727 0.19420971 -0.10368886 -0.029346935 0.06586881 -0.0456462 -0.119612396 -0.16346736 -0.23577595 -0.24190918 0.16746736 0.09532323 0.14243948 0.12310896 -0.115627795 0.13092235 0.1285213 -0.2032967 0.14053603 -0.052984044 0.078185774 -0.27640173 -0.027304053 -0.07276728 0.20389746 -0.14551151 0.098440014 0.05143293 -0.06208667 -0.105815366 -0.11126811 0.5053179 -0.0023688867 0.13506347 -0.06055661 -0.12970035 0.13911091 -0.07752951 0.32754445 -0.11358483 0.05055315 
0.18752158 0.035112407 0.2042831 0.124653175 -0.18430978 0.14599478 0.37583396 -0.04840118 -0.19441338 -0.10836863 -0.0024631757 -0.03307614 0.049956523 -0.008782524 0.11797732 0.18053213 -0.12280452 -0.17939797 0.18502744 0.19203241 -0.06391449 0.057045724 -0.075595155 -0.10977805 -0.18831928 -0.19763303 -0.33679137 -0.20257898 0.13104537 -0.022073997 0.23172598 0.0009081348 0.2936569 -0.7652431 -0.5873154 -0.16721931 0.23317967 -0.12148522 0.059494972 0.020332806 -0.092465065 -0.14626525 -0.028573524 -0.7600503 0.33734968 -0.09042871 -0.2492367 0.035345502 0.32522884 -0.20708746 0.1498923 0.22061479 0.106564045 -0.21589534 -0.04616175 -0.6844525 -0.2913167 0.054543223 0.23939095 0.13097382 0.20030227 -0.064346656 -0.27677202 -0.17681071 
