3 0 4 4
5
mean
32
relu
relu
relu
relu
relu
relu
relu
relu
relu
relu
sigmoid
64 32
-0.0061250636 -0.15888207 -0.060015053 -0.080333576 -0.1525557 0.14965758 0.26357275 -0.03905271 -0.14618732 -0.13184163 0.19853278 0.1049684 0.014223254 -0.0010019141 0.021660192 -0.1006547 -0.1933957 -0.02833138 0.025506806 0.19827674 -0.070355 0.088752784 -0.42391425 -0.17496666 -0.115664266 -0.06783589 0.14724262 -0.20772745 0.28690246 -0.105860926 -0.31080818 -0.09014419 
0.10815695 0.00191868 0.024032073 0.32380134 -0.00996619 0.21829537 0.14603698 -0.08623891 -0.035176016 -0.18715756 -0.08098891 -0.015164322 0.17386039 -0.17953523 -0.15872616 0.2209474 -0.2124556 0.06380147 0.001231727 0.19633591 0.16448188 -0.1189102 -0.49710295 0.22411694 -0.22205606 0.08565205 0.19565387 -0.100859866 0.26480612 0.04281385 -0.10556885 0.1403466 
0.10158488 -0.23878324 0.17294393 -0.48955736 0.061133284 -0.08302186 -0.095077604 -0.10321052 0.16174015 -0.16591641 -0.14059533 0.13116607 -0.10368619 0.2217596 0.17648731 -0.10763714 -0.1969848 0.4377317 -0.06322268 0.2083639 0.17685549 0.20209643 0.24736115 0.04096688 -0.18707058 -0.2777271 0.10059699 0.012114644 0.1994305 0.014352126 0.074319236 -0.1068945 
-0.19327627 0.006183505 0.032456227 0.17083491 -0.0005641896 0.12539251 0.10499019 -0.19976473 0.031355727 0.07232754 -0.008781122 -0.16172981 -0.036484245 -0.0052182428 0.10374242 0.19925612 -0.06846311 -0.03843021 0.06942602 -0.1099759 -0.108240545 -0.20655309 -0.0053629144 0.094368316 -0.081820615 0.06544401 0.06453841 -0.029461164 0.1290913 -0.00091892015 0.2530933 -0.13388745 
0.036110397 0.15120915 -0.028970122 -0.29063913 -0.069522895 0.30304006 0.12417812 0.14274614 -0.29097 -0.22100282 0.31639528 -0.23426518 0.14621942 -0.25288394 -0.030327257 0.1822291 -0.27304658 -0.12502049 0.18889062 -0.1714772 -0.14068803 -0.10160093 -0.41742736 -0.19780804 -0.16325259 -0.011553225 -0.1885455 -0.042400874 -0.028193468 -0.0069866464 0.10836421 -0.013290104 
-0.15294658 -0.16934554 0.012186548 -0.30304408 -0.11005018 -0.020456403 -0.19217889 0.09224169 -0.15788385 0.0071576363 0.01783077 0.29643932 -0.0034545206 -0.0035434493 -0.19571032 0.11691808 -0.025057174 -0.01631758 -0.056234714 -0.15690519 -0.047224127 -0.008189742 0.09936153 -0.8329494 0.103466466 0.10615327 0.2972589 0.124589816 -0.10870276 0.14928219 -0.02161065 0.0037898337 
0.03406457 -0.09383704 0.26006836 0.10872099 -0.004004082 0.0726011 0.05718619 -0.051052175 -0.16123886 0.21256757 -0.10810538 0.18176848 0.2094879 0.06607783 -0.15753673 0.2503844 -0.060002528 0.19018371 0.24881186 0.06035061 -0.21944126 -0.2511561 -1.4166585 -0.3520045 -0.18300158 0.0051005245 0.23017117 -0.11491642 0.08630818 -0.24025865 0.13361506 0.02223875 
-0.06110738 -0.054819584 -0.10401848 -0.072868824 0.20600826 0.22076672 -0.19493136 0.033952244 -0.17352259 0.23467898 0.20665449 -0.19846332 0.16808273 0.2148832 0.20551348 0.09398338 0.15861486 0.00010580033 -0.10320771 0.17072614 0.09570286 -0.23734082 0.24924122 0.08393198 0.0895997 -0.12911296 -0.21992375 0.095526464 -0.06517142 0.061729103 0.092349134 -0.20625272 
0.1309963 0.15930656 0.24510957 -0.012724065 -0.045222845 0.14248382 -0.2793912 0.11602973 -0.019478628 -0.21549751 0.2567586 -0.0340185 -0.13828112 0.013702189 0.18904454 -0.030456886 -0.058289625 0.24681376 0.11461943 -0.076848015 0.11213159 0.30879265 -0.051819537 0.081352115 0.23972347 -0.1241859 0.16749977 -0.17004961 -0.062969066 -0.06589121 0.16338281 0.21101907 
0.16617551 -0.021822095 -0.20572953 0.018144796 -0.12666303 -0.079144634 -0.035548445 -0.1412641 -0.11727676 -0.20331632 0.2328795 0.044810366 -0.11114112 0.2660327 -0.043942068 0.08284716 0.10882393 -0.1984006 -0.07167326 0.057285078 0.059734613 0.06660964 -0.05371765 -0.014392475 -0.11198738 -0.10682903 -0.0647236 -0.1277713 -0.063734815 0.18976301 -0.09248224 0.059978627 
-0.065477245 0.033454455 -0.24725561 -0.033011787 -0.033739194 -0.08567915 0.17724273 -0.25537065 -0.12660044 -0.22825968 -0.3271699 -0.060545832 0.00764463 -0.08663398 -0.06396065 0.16567023 -0.017352516 0.21787389 0.14457999 -0.19715576 0.091597535 -0.23666385 -0.33462983 0.043659452 0.17650898 -0.074713364 -0.05892019 -0.20565769 0.21135831 -0.28323665 0.007838068 0.07137086 
0.24818508 0.18263182 0.0054385015 -0.8185905 -0.31986284 -0.0894577 0.13631542 0.13786499 0.6634341 -0.06791093 0.11419083 0.15339339 -0.33077714 -0.055170015 0.1835226 0.38908455 0.04309552 0.5665364 -0.1597997 -0.23523368 -0.15407631 -0.028113673 0.04417294 -0.012894472 0.2621903 -0.23919395 -0.1010403 0.25655645 -0.19602674 0.16614576 0.055230536 -0.026144017 
0.06929033 -0.050890636 0.00753267 -0.10691459 0.1873583 0.22111923 0.20163189 -0.123603724 0.09390258 0.13912632 -0.19532163 -0.20771448 -0.07534521 -0.1430192 -0.18709624 -0.04347308 0.0019101192 0.026514113 0.08557289 0.054311696 0.24937986 0.065159895 0.11354709 -0.22175123 -0.11755082 0.023325732 0.21252641 0.16953555 0.013511586 -0.039588816 -0.013060781 -0.06045149 
0.09259599 0.092314236 -0.0963468 -0.075070545 -0.24946915 -0.36566725 -0.03977891 0.12649588 0.14631487 0.023358798 -0.2812498 0.1360986 -0.22766106 -0.11178827 0.020091975 0.07221042 -0.27932686 0.30191642 -0.08185323 0.26512882 0.15633535 -0.063296765 -0.6165566 -0.0053562107 -0.16655543 0.090978324 -0.2910601 0.10297194 0.006254142 0.0017163921 -0.34792772 -0.19292745 
-0.20374215 -0.28577247 0.10943683 0.12864645 -0.18967617 0.21883252 0.13766232 0.028539933 -0.050245706 -0.044076942 -0.018970516 0.059530143 -0.1531597 0.2303918 0.05299846 0.1993411 0.056837656 -0.1495432 -0.15257314 -0.19683124 0.18247467 0.07492761 0.12247473 0.11001463 -0.09097751 0.15980524 0.1897214 -0.17099732 0.21896704 0.064443626 -0.045681946 0.2787816 
0.20135549 -0.22829796 0.03925386 -0.1403748 0.07153267 0.28932303 -0.26839256 -0.050981265 0.11186522 -0.15116732 -0.061384324 0.016827345 0.026258843 0.19361442 -0.102981925 -0.2156908 0.1344782 -0.29851797 -0.2524833 0.16137294 -0.09027167 -0.088534884 0.22957578 0.27132887 0.23348881 -0.12382563 -0.052368112 0.25905263 -0.19173631 -0.03962913 -0.080985956 0.0484238 
0.3411794 0.13587359 -0.021104101 -0.24343395 -0.29876176 0.22818233 -0.19104563 -0.07275907 0.44757003 0.23686571 -0.21890043 0.02316517 -0.32805917 -0.17355703 -0.2135361 0.23674291 0.21187079 -0.06890776 -0.28189397 -0.24692298 -0.0023681463 0.13433534 -0.106542826 0.22344944 0.2784909 0.003188478 -0.13380745 -0.012581651 -0.21875788 0.0055553424 0.20796145 0.1308386 
0.15241826 0.07689385 0.05215357 -0.22314589 0.09898831 0.12421202 0.016036328 -0.069177546 0.21642195 -0.05162593 0.06797235 -0.010083242 -0.15345912 -0.0654818 0.16603261 0.33761862 -0.14991128 -0.42862415 0.14625531 -0.26293743 0.011984757 -0.09438235 -0.66619796 -0.15994616 -0.34404692 0.21760148 -0.057273805 -0.23853184 -0.0655307 -0.25506574 -0.041381754 -0.012357156 
-0.027900232 -0.18222654 0.102690004 0.020893047 -0.21782106 -0.27303296 0.009132142 -0.2228363 0.15150942 0.13061227 -0.2133434 0.060148347 -0.21864913 -0.15236062 -0.18510649 -0.109542005 -0.09839827 0.06080529 -0.006509092 0.2742422 -0.31160024 -0.07040976 -0.41523576 0.0583943 -0.07021533 -0.03590597 -0.21364956 -0.2616291 0.03713065 -0.06293345 0.024433216 -0.2669444 
-0.1764802 -0.20360208 0.21641946 0.06589044 0.08648614 -0.19991335 -0.068031654 -0.19589694 -0.040650405 0.04149573 0.060078382 -0.03417755 0.23109756 -0.24164735 0.023125472 0.1517958 -0.31809655 0.040408853 0.22230221 0.12968425 -0.23729654 -0.24540748 -0.90898824 -0.3121359 -0.014129438 0.26303542 0.017223883 -0.21944904 0.15037675 -0.16971427 -0.09905752 0.08098734 
0.22977217 -0.29102036 -0.018952366 -0.3099152 0.018855343 0.0017297928 -0.16235375 0.22888473 0.22217295 0.21402267 -0.006432227 0.23149753 0.053245183 -0.08517254 -0.023429323 -0.1448533 0.066776454 -0.13047981 0.112836115 -0.20825951 0.11600399 0.023597265 0.19845946 -0.1894532 -0.023167443 0.10250385 0.2463813 0.27868152 -0.24145156 0.02342016 0.20250781 -0.0022223778 
-0.04851798 -0.10269828 0.15917265 0.22814177 -0.005666141 -0.097691454 -0.04618566 0.073736556 0.014731353 -0.117426135 0.019329796 -0.08051677 -0.24982089 -0.3066816 -0.029441467 0.3866852 -0.08636889 -0.1436119 0.23361768 -0.061641343 0.08860896 -0.22728498 -0.89824414 -0.3886876 -0.17260155 0.059429225 -0.26640478 -0.0044227843 0.36473912 -0.1330644 -0.12002801 -0.26739448 
0.023507565 0.010753095 -0.06900491 0.21698117 -0.10549098 0.030711932 0.137427 -0.064207606 -0.050410353 -0.019121328 -0.14267148 0.091307476 0.12032664 0.20889513 0.029688716 0.07411115 0.13653806 0.22659141 0.1320741 -0.2250939 -0.03983431 0.025774082 -0.0073880437 -0.12635481 -0.13768718 0.09073232 -0.018015089 -0.22536786 -0.13271336 -0.16451204 0.12134567 -0.14569129 
-0.093095385 -0.14092083 -0.03710813 -0.20588902 0.0013392592 0.20906301 0.04788217 -0.116192535 -0.24986924 -0.2209292 0.096240416 0.10242234 -0.096384734 0.22291827 -0.25937352 0.04415899 -0.10584211 0.3368584 -0.05423827 0.26684505 0.12889522 0.24335897 0.03422625 -0.32660958 0.08101197 0.08767823 0.15989327 -0.025143025 0.018156875 0.09054211 0.24443097 -0.19172296 
-0.7817622 -0.19316274 -0.35671324 -0.27937707 -0.20248455 0.6826707 -0.59014595 -0.13997784 -1.2495415 -0.017006636 0.150796 -0.11090295 -0.68676186 -0.02560252 0.09320229 -0.24092007 -0.41183782 0.014695379 0.20631799 -0.22015326 -0.267751 0.6562859 -0.057417076 -0.7996083 -0.4753263 -0.32785052 -0.011548931 0.0060300003 -0.06270119 -0.5654905 -0.20544909 -0.2406564 
-0.12786543 -0.24082214 -0.28865805 -0.17999108 0.24631757 0.13985717 -0.028105214 0.011364975 0.0060791904 -0.28075653 -0.17356999 0.021537844 0.104796305 -0.0031224703 -0.07889701 -0.15784636 -0.2585338 0.08922549 -0.07175611 0.040677838 0.07823977 0.1600976 -0.1003954 -0.23122644 0.2729533 -0.028748846 -0.08228321 0.07851221 -0.00027445966 0.20262939 0.15831032 0.14583816 
0.08776797 -0.27944738 -0.099554025 -0.08106015 -0.1295261 -0.16224258 -0.040329464 -0.19095302 -0.13078634 0.11728967 -0.051658686 0.022793528 -0.032084372 0.028461795 0.0106428545 0.15436165 -0.37869802 0.16429457 0.045568965 0.01321296 -0.2655028 -0.02953943 -0.43810734 -0.14770338 -0.29846168 0.07890299 -0.22734365 0.025715712 -0.06764349 -0.12887973 -0.022498943 -0.29153314 
-0.15409864 -0.094779946 0.23714468 -0.36735803 0.16227482 0.17824198 0.025930408 0.23357195 -0.2131072 -0.15434708 0.2108105 0.2643825 0.060428627 0.16811009 0.10737132 0.0140250595 0.20300518 0.0569327 -0.030158343 -0.12685691 0.27870622 0.11306525 0.021747591 -0.3070062 0.2986887 0.052671403 0.1171215 0.14109519 -0.20753218 0.043379955 0.28466156 0.25469482 
0.24274506 0.12401635 -0.13281406 -0.13746399 -0.026456986 -0.20408608 0.054672915 -0.16999175 0.027695794 -0.25721925 0.20589347 0.027452048 0.038911548 0.15010576 -0.17297724 0.12403904 -0.047317274 0.22448385 0.07821197 0.09083341 0.087338135 0.24953644 -0.11037976 -0.46799177 0.05899088 0.20688626 0.0365226 0.22474635 0.20446813 -0.083098374 0.27166483 0.16263467 
-0.14073233 -0.015172994 -0.19903266 0.33211187 0.28931096 -0.14125907 0.057851013 0.028752094 0.09207228 0.11898743 -0.18290937 -0.28207937 0.0021969834 -0.17034656 0.17265531 0.0337661 0.23196256 0.094417006 0.25123313 0.12005122 0.24242568 0.16966546 0.1991181 0.3671864 0.09350051 -0.07279699 -0.2519912 0.25681797 0.21318746 0.1401675 0.086833626 0.15841852 
0.07254348 0.100370705 -0.11990759 -0.04165945 -0.00041019917 -0.14760625 -0.23142108 -0.06653301 0.07497233 0.16416131 -0.107463636 0.16911483 -0.16871262 -0.16289067 0.11952114 0.24585916 -0.12912624 0.1474216 -0.1732408 -0.24927524 -0.009234156 -0.08045582 0.16675813 -0.17988783 -0.06360209 -0.19452557 0.06792744 0.15883654 -0.06248185 -0.24791372 -0.08168293 -0.08803313 
-0.3084034 -0.08896454 0.18966821 -0.3749111 -0.022693655 0.16368988 -0.20320997 0.15369451 0.11433515 -0.111764155 0.177667 0.024297886 0.26369593 -0.11529468 0.21310614 0.24406563 -0.16176693 0.007595263 -0.15356623 -0.0030667894 0.16739747 -0.103413194 0.22222307 -0.19605124 0.18962027 -0.15951523 0.15781884 0.0036050025 0.17404671 0.15108587 0.04365624 -0.04006712 
-0.18577169 -0.30894655 -0.06215107 0.14774159 0.2988897 0.17359191 0.15389135 0.23929757 -0.30823728 0.0055367993 0.027659204 0.13966975 0.17486061 -0.2960999 -0.060668174 -0.119990684 -0.22539514 0.091072276 -0.21366844 0.002404547 0.23212105 0.062105417 0.01676482 0.025334144 -0.2794368 -0.06259603 0.18958825 0.14790514 0.17240465 0.09952503 -0.25664538 0.071991555 
0.008990824 0.20548254 0.24527079 0.23643216 -0.1931697 -0.18939367 -0.28652287 0.1259391 -0.031083355 0.24704221 -0.25875947 0.05719979 0.035468448 -0.1782407 -0.23521501 0.03637876 0.056954946 -0.29035848 0.1294653 0.26601 0.045778833 -0.0014517372 0.07185299 0.17688854 -0.22484697 0.15139106 0.05745561 0.21669617 0.07244018 0.107628144 -0.043911163 -0.054723702 
0.10298122 -0.20019782 -0.08031554 -0.042406004 -0.01308729 -0.32871786 -0.1496732 -0.049984276 0.24389175 -0.041021157 -0.53970397 0.15572865 0.17136052 0.11258337 0.17730963 0.003958774 -0.08440852 0.13128793 -0.030258691 -0.20759965 -0.011819971 -0.40968022 -0.14486447 0.05785643 0.9951775 0.13084956 0.11710902 0.2984757 -0.334666 0.23485686 0.027185602 0.11807278 
-0.46220925 -0.19765486 -0.0314692 0.19015281 -0.2093497 0.30220357 -0.022362946 0.21623842 0.13191354 0.06535864 -0.47353128 0.005907719 0.07396197 -0.11072045 -0.2105704 -0.004271525 -0.10969682 -0.50697327 0.09009589 -0.074002795 0.23251396 -0.08814905 0.2737402 0.111397624 -0.14478576 -0.005777611 -0.09449835 0.040911097 0.05217744 -0.21954493 -0.0899149 -0.023721004 
-0.19655222 -0.008863118 0.13734615 -0.20014834 -0.19328721 0.14055741 -0.09156426 0.059244413 0.12182923 0.100357726 -0.42615485 -0.15323965 0.21682808 -0.010548566 0.031617694 -0.17034751 0.18441606 -0.3530796 0.12987009 -0.028126001 -0.21970862 -0.37377337 0.018225472 0.14046218 0.14343332 -0.20567209 -0.030867368 -0.0027390274 -0.30533957 -0.3732265 0.31045744 -0.1544611 
-0.14485584 -0.21247438 -0.16418718 0.09050811 -0.2178979 -0.29406586 -0.061332427 -0.13817629 -0.04287419 -0.018651525 0.030562753 -0.033720825 -0.07990846 0.005253778 -0.04643913 0.14324509 0.0409263 -0.21159488 0.16731308 0.33029407 0.23184893 0.1618973 -0.17727204 -0.10476608 -0.26576653 -0.16166794 0.070564024 0.0024318749 0.13083947 -0.03270423 0.22555152 0.16344436 
-0.22487098 -0.27812934 -0.119230896 0.139356 -0.23191881 -0.12411818 0.08055803 -0.10432907 -0.28347415 0.3352962 0.07168565 0.1901903 0.14052325 0.035787083 0.1290447 -0.22669707 -0.16569127 -0.13077088 0.17704454 0.09741763 0.098131776 0.1577978 -0.055220384 -0.12736358 -0.082321316 0.12003023 0.22345756 -0.159675 -0.0016171739 0.19622472 0.21502975 0.1320596 
-0.03489486 0.18076114 0.14167973 0.44325545 -0.11222987 0.17668618 -0.17750095 0.36636528 0.0031266133 0.16634376 -0.26287168 0.17884438 0.031542692 -0.4860704 0.06865937 -0.10869759 -0.48528594 -0.013187852 0.03207431 -0.066714704 -0.018074173 0.16897199 -0.86752 -0.7132413 -0.56032634 -0.2362238 0.09235173 -0.03890522 -0.016079878 0.103417985 -0.028680084 0.23506656 
-0.23121548 0.08797606 -0.2552432 0.044379152 -0.15578586 -0.2935453 -0.05381892 0.1481845 -0.33724186 0.17943151 -0.26655972 -0.25037298 -0.18116765 -0.06779939 -0.27789783 -0.12359497 -0.04579535 -0.085315965 -0.19483282 0.27149194 0.1589313 -0.17476788 -0.175394 -0.07496278 -0.13165326 0.14605495 0.05936941 0.23730391 -0.125922 -0.17609562 0.18899636 0.2024718 
-0.15320614 -0.15358625 -0.25977367 -0.07351995 -0.1799463 -0.15908006 0.17980818 0.072636545 -0.3072217 0.018852843 0.094899364 -0.05322012 0.33360222 0.19636145 -0.11945985 -0.17332923 0.15193631 -0.014779613 -0.032044906 0.12867823 0.18994772 0.23372822 0.15181902 0.08903975 -0.058931816 0.1695518 -0.113845 0.118203774 0.1445778 -0.3759437 0.18732557 0.056867834 
-0.19435433 -0.25308114 0.07077587 -0.00042308832 0.03492189 -0.25865033 -0.20573077 0.046627287 -0.1775397 -0.1282761 0.30624413 -0.17259197 -0.24595492 0.17912064 0.17649227 -0.07979818 -0.16075532 -0.39414552 0.11515526 -0.20277582 -0.020010255 0.00035139095 0.23459183 -0.046530697 0.028169177 -0.10830634 -0.07312144 0.2917814 -0.21921404 0.0682907 0.20351264 -0.16799921 
0.004490455 0.14347464 0.08468827 0.13973671 0.2346096 0.43050945 0.12281272 -0.6106069 -0.66368437 0.17632043 0.033927653 0.14076571 0.07125697 0.35690257 -0.2020899 0.3316876 -0.62615216 0.23709105 -0.008704055 0.22643284 -0.24844992 -0.2700987 0.15900971 -0.38915443 -1.2187587 -0.21961656 -0.2591295 -0.10592999 0.40272766 -0.36067843 -0.030547187 -0.23985791 
0.29011264 0.011598935 0.040531132 -0.05063494 0.22242492 0.12966067 0.008308705 0.16945441 -0.11798021 0.016910136 0.30251113 0.2544488 -0.1676513 -0.040722605 0.08774479 -0.009912885 -0.01834683 0.24920379 -0.23866144 0.19090068 0.2745584 0.03883023 -0.3754362 -0.37609923 0.37173513 0.15618698 0.06468961 -0.00916516 -0.09534308 -0.07919399 -0.18187678 0.09529373 
0.23537631 0.09202073 0.16968088 0.008050587 0.15232545 0.3879819 -0.3413885 -0.2601117 0.19031194 0.20302092 0.21384686 0.66454047 -0.20223145 0.04451238 -0.20704193 -0.083287455 0.23048843 -1.1330786 -0.06831934 0.17095797 -0.03128534 -0.18367596 0.019135883 -0.23954105 0.22737563 -0.2533342 -0.055522233 -0.122546345 0.08056057 -0.22556272 0.18741104 0.10168105 
-0.053049207 0.1433416 0.18068337 0.13244176 0.23831731 -0.19268602 0.034295738 0.03606844 0.19073069 -0.051614583 -0.06008202 0.17649311 -0.13279748 -0.014086187 0.073607326 -0.22309875 -0.08485359 -0.19381356 -0.04371953 -0.2131139 0.030728757 -0.15537721 -0.22484535 -0.10696614 -0.21190459 0.02709651 0.20349205 -0.06969249 0.12846816 0.24227554 0.24637383 0.09958565 
0.14444147 0.15448153 -0.21100752 0.30542842 -0.15252073 0.3127042 -0.19833177 0.19152904 0.19709872 -0.20437542 -0.066984884 -0.14910078 -0.11488086 0.42585933 -0.0017868795 -0.28361145 -0.28138092 0.23999707 -0.151177 -0.17643133 -0.08458457 0.5066499 -0.044766653 -0.32278872 -0.19910346 0.099108666 0.09187997 0.036655653 -0.23677748 -0.006314773 -0.07867724 0.0054278625 
-0.17592062 -0.02601643 -0.022819638 0.32995823 0.11421389 0.015774254 0.08125911 0.008934867 0.129724 -0.35447943 0.17472404 0.27007428 -0.005250372 -0.16431516 -0.2482717 0.08075811 -0.41819826 0.21451634 0.06439407 -0.06596534 0.23174104 -0.039686244 0.009206827 -0.29704192 -0.184132 0.14661297 -0.17774445 0.01850175 -0.07058667 0.25672585 0.13874245 0.025934217 
0.40981302 0.15793663 -0.15309325 -0.22991319 -0.036183573 0.32585737 -0.26463604 -0.089241326 0.247149 -0.0067899683 0.07895331 -0.0152173415 0.107379235 -0.07153382 -0.15510245 -0.29066002 -0.3669366 -0.012869134 0.122407265 -0.13911362 0.11020593 -0.44316474 -0.026421255 0.08007298 0.097149566 -0.1990101 0.08328484 -0.100471154 0.008369365 -0.12729706 -0.005537994 0.061844435 
0.3111132 -0.04361731 -0.076240145 0.12258582 -0.11402601 -0.15930147 -0.24264899 0.00937468 0.04766384 0.024760114 0.27212507 0.18223193 0.119097404 -0.062484458 0.0059241652 0.07330675 0.07080096 0.22470109 0.116706364 0.2184479 -0.19623514 0.0361851 0.20819087 -0.09741004 0.13735531 0.095784545 0.17062847 0.08677326 0.18609834 0.14213508 0.10762254 -0.18653008 
-0.050550424 0.03819598 -0.09512814 -0.07481676 0.075638056 0.28675973 -0.21359733 0.34346306 0.73059726 -0.0013433215 0.032084536 -0.31842843 -0.34933224 -0.23896204 -0.1461935 0.31499946 -0.33514833 -0.17292763 -0.29313692 -0.23516564 -0.062857024 -0.022978667 0.28470388 -0.0053153043 0.8207255 -0.21133837 -0.121710956 -0.17377865 -0.46795717 0.038080897 -0.0025524935 -0.1870281 
0.20433417 -0.028835356 0.15933271 0.115462705 0.121052444 0.21648477 -0.0067365835 -0.00037710165 -0.04394468 0.12171761 -0.2351147 0.24448434 0.19947243 -0.19120939 0.099042356 0.17473868 -0.042918667 -0.08832383 0.18952222 -0.1882523 0.11809697 -0.0022228756 -0.21261546 0.2552512 -0.066435926 0.07109159 0.07075113 -0.06713352 -0.07520538 -0.24555752 -0.060868155 -0.11931887 
0.07142502 0.2040199 0.21732381 -0.069418065 -0.14567377 -0.13511735 -0.022945786 -0.06331685 0.20096381 -0.19580123 -0.17388983 0.14564578 -0.074532285 -0.4528845 0.18016723 -0.055645026 -0.4635973 -0.13751799 -0.13029277 -0.081896976 -0.16516477 -0.19191955 0.068113156 0.30501243 0.30000323 0.29318112 0.082806475 -0.13382995 -0.050173435 0.071940966 -0.44583565 0.19331202 
-0.1837517 0.22607106 -0.14422508 0.104621135 -0.16983902 0.0569427 -0.018324926 -0.12541552 -0.028391398 0.12083651 0.17935899 -0.045552824 -0.15361865 -0.11036346 -0.018312037 -0.18974489 -0.13701843 0.027253978 0.03493648 0.10906922 -0.19760104 0.13793455 0.12449376 0.17640412 0.24649219 0.07441886 0.06235767 -0.09788242 -0.21988162 0.24564283 -0.122765295 -0.19014855 
-0.051897462 -0.08994528 0.30075988 0.008272795 0.18094487 -0.019633213 0.18342526 -0.14081661 0.040217523 0.09480898 0.03678605 -0.113103144 -0.08305394 0.09918612 0.0019744786 -0.05495055 0.25165206 -0.39619517 0.07109199 -0.019701747 -0.18909988 -0.08656386 0.06757694 0.25454634 -0.09450822 -0.07431 -0.055823423 0.114039004 -0.09634866 0.08329362 -0.16540706 0.007280962 
-0.009697537 -0.032993674 0.1505344 0.26095036 -0.03624177 0.17014225 -0.2577986 -0.09020546 -0.2557516 -0.09398315 -0.14696275 -0.024383664 0.05970554 -0.29540992 0.19965713 -0.10044888 0.035663825 -0.23685245 -0.09009123 0.17490809 0.12982726 0.10219123 0.16681257 -0.009251512 -0.015852105 0.08221246 -0.07794073 -0.19654374 0.029773412 -0.13673915 0.22303519 0.032754246 
-0.25062662 0.08023697 -0.1258771 -0.08375971 -0.21283118 -0.16975692 0.10856324 0.26769984 -0.29442596 0.2024573 0.012639318 -0.268719 -0.04075014 0.25140658 -0.2032011 -0.21991421 0.20267038 -0.1301695 -0.008854233 0.10007219 -0.16729063 0.13472264 0.031337693 0.043384496 0.0083227735 -0.25598574 0.10959868 0.055012017 -0.09358978 -0.22319323 0.037811767 -0.16810966 
-0.25463706 -0.22469659 0.1957245 0.005903552 -0.071702026 -0.44621372 -0.17595361 -0.07067671 0.11293002 0.20828803 -0.043785926 0.10943495 0.19044448 0.26964906 0.02291728 0.029981198 0.10263368 -0.25916192 -0.09078064 -0.052857216 0.086729206 -0.20819244 0.14246146 -0.04720035 0.044021644 -0.027971819 0.12303434 0.09658383 -0.1278146 -0.17923008 0.19011146 -0.03937918 
0.01687041 0.05237141 0.30707282 0.03978181 0.20834854 0.08410742 0.3490059 0.036696706 0.069339626 0.10817533 -0.05965614 -0.14434887 -0.22160915 -0.2690361 0.06391172 0.120691374 -0.07891761 0.017955264 0.20560254 -0.06288554 -0.08339069 0.37613237 -0.36198965 -0.6286406 -0.19538237 0.25446275 0.014129255 -0.08645052 0.2853694 0.04746643 -0.19386443 0.15833111 
0.07783321 -0.055686492 0.19102813 0.16910653 0.026499923 0.2563067 -0.14927664 -0.035973 -0.28057885 0.30649742 -0.0025242236 0.061110146 -0.09806461 0.26134756 0.1977063 -0.26104665 0.26643065 -0.40672442 -0.10001128 0.096886955 -0.14369375 -0.09898541 -0.027777756 0.12009924 -0.16740671 -0.13660792 -0.050409243 0.000187222 0.17707905 -0.119953476 0.1436444 0.11840954 
0.13169995 0.0474643 -0.031235311 -0.10550088 -0.1042821 -0.13734993 -0.024506219 0.2488068 -0.15010887 -0.30248094 0.08209851 -0.1740641 0.070229076 -0.06776922 -0.24805263 -0.22415316 -0.45438713 -0.20711781 -0.26793078 0.15874964 0.27862284 -0.03311867 0.009239215 0.046880145 -0.16960907 -0.2917678 0.045929562 0.17672609 -0.083826415 0.19581297 -0.05557977 0.22870742 
-0.14662491 -0.020928415 0.09850518 -0.19024003 -0.028844435 -0.27795973 -0.014196213 -0.112352274 0.033535723 -0.12757443 -0.14744987 -0.205327 0.24352396 0.29191124 0.03701733 -0.17653999 0.16078097 -0.07158482 0.09054407 -0.08305387 -0.011403212 -0.17661604 0.15174378 0.21712579 -0.17889044 -0.14672825 0.18776257 0.24589191 -0.1632883 -0.22926508 0.048212692 -0.075923055 
-0.09735418 -0.19352809 0.023270212 -0.09429276 -0.046996545 -0.2140212 0.02482714 0.26649413 0.19510682 0.1517718 -0.022546666 0.13633062 -0.13065724 -0.16399197 -0.20816396 0.18668987 0.23826396 0.025465336 0.20752558 0.10021945 0.07669218 0.13494352 -0.030745775 -0.024708735 -0.07514908 -0.053178076 -0.09016216 0.32815516 0.20838283 0.08571632 -0.19103484 -0.024017654 
32
0.011689324 -0.07491381 0.05578336 -0.002357953 0.0597215 -0.012560139 0.030012779 0.04023428 -0.060858384 0.08679088 0.00093539874 -0.020130906 0.033665992 0.018404102 -0.0049372283 0.02038144 0.033452466 0.048856005 0.03532926 0.016232487 0.038742498 0.022416204 -0.13946313 -0.031945933 -0.12514034 -0.016240658 0.04193305 0.052210934 0.033067007 0.009415714 0.022632683 0.041595235 
32 32
0.27203605 0.008186574 -0.21029358 0.13959585 -0.051427685 -0.38706762 0.10566264 0.07457554 0.27042344 0.07479557 -0.11313763 -0.22055934 -0.15140995 0.18075363 0.05334016 0.17223525 0.28834006 0.064608365 0.29424125 -0.38639578 -0.12774318 -0.07962367 -0.046085205 0.26977196 -0.20234756 0.2545218 -0.23280738 0.0035807907 0.38311553 0.20609082 -0.3909973 -0.19093415 
0.26817015 -0.022863386 -0.040400896 -0.13585934 0.042293675 0.11069223 0.045546383 -0.21067055 0.19316195 -0.30056593 -0.13911079 0.18096061 0.20861153 -0.20932181 0.07569376 0.2222319 0.25859964 0.23094411 0.063720524 0.25568926 -0.17149428 -0.1667649 -0.20586744 -0.14432871 0.23564877 0.11730008 -0.18658973 -0.20921835 -0.24003349 -0.017122814 0.23715036 0.11516235 
-0.0400032 0.030735133 -0.08613149 0.29929876 -0.20835495 0.07073171 -0.036037844 0.1906513 -0.23896171 -0.21166031 0.0015586072 0.31044033 0.29379565 -0.25660914 -0.14620803 -0.16970964 -0.13169341 -0.16913956 -0.07277319 0.2513435 -0.19682993 -0.08485362 0.004156984 0.11060944 0.26762697 -0.1623625 0.08163753 0.07823169 0.17705558 0.2047674 0.32217893 0.18188347 
0.14272843 -0.4176702 -0.013211212 -0.27478203 0.23604627 -0.79379445 0.21446872 0.03211909 -0.6167445 0.050538972 -0.16864543 -0.15328112 -0.33245772 -0.1755617 0.11462062 0.24165078 0.46474445 0.51827794 -0.4222946 -0.44149515 0.10219146 -0.3119354 0.020497872 -0.14179766 -0.17035717 -0.29545474 0.0992636 -0.49323165 -0.04779969 -0.25859886 -0.16365883 -0.0997176 
-0.16441132 -0.2598558 0.24942188 0.1881262 -0.027487513 -0.104234405 0.18653521 -0.1971447 0.2007094 -0.25878665 0.29331055 0.07171458 0.16809694 0.111489624 -0.17272736 0.018075408 0.013944967 -0.3908981 -0.17004365 -0.31105584 0.11074248 0.26496634 -0.022948936 -0.015090425 0.09434082 -0.15026449 -0.18448637 -0.3162626 0.35657808 -0.26259494 0.32351378 -0.04114103 
0.23810439 -0.2603802 -0.13107416 -0.08596323 -0.3951299 0.03513838 -0.09967582 -0.01757636 0.08632818 -0.30876297 0.20173053 -0.579117 -0.23039807 -0.23161364 0.23391283 0.16625668 0.4207464 -0.10925876 -0.022863341 -0.5369197 0.40818432 0.28411794 0.3576609 -0.12186851 0.19156553 -0.304129 0.053134263 0.251963 0.32330883 0.3233256 -0.20886742 0.04279253 
0.10921802 0.2524308 -0.027116513 0.25386247 -0.070413485 -0.21384043 -0.2505288 0.18681435 -0.14475997 -0.2771746 0.07405653 -0.044125635 0.104624115 -0.23578364 -0.30089644 -0.13124816 -0.07423826 0.03563868 -0.098914154 0.26342586 -0.266569 -0.16752172 -0.019117922 0.12278224 0.2824821 -0.07343048 0.02943411 -0.31687418 0.30737695 -0.17138618 0.02030983 0.030700231 
-0.24744418 -0.2700189 0.22090739 0.09558124 0.032705225 -0.2520849 -0.073174074 0.025804149 0.063923985 -0.22861955 0.24135529 0.029777162 0.09954818 -0.035240345 -0.09512971 -0.1417139 -0.14262287 -0.08057603 0.17982545 0.10559825 -0.1496153 0.3468566 -0.20793311 -0.04862118 -0.31876144 -0.018027853 0.01319988 -0.10069404 0.17683697 -0.22502038 0.10523478 0.17977878 
0.09896627 -0.18904144 0.2853098 0.12012409 0.046760794 -0.09705523 -0.08157963 0.48200583 0.003968773 -0.4595162 -0.3744728 0.39698413 -0.01646804 -0.0016834 -0.07856655 0.042041115 0.03218311 -0.058685116 -0.046043675 -0.03781089 0.40802497 -0.6054566 -0.11389865 0.64316154 0.09169892 -0.19126013 -0.3443543 -0.092513725 -0.17058694 0.40860677 -0.3363268 -0.144797 
-0.111704044 -0.06530825 -0.23524776 0.16398247 -0.2771088 -0.13852078 -0.010456764 0.0150740035 -0.3636371 -0.1477786 0.220323 -0.13465911 0.22313975 -0.01893819 -0.1405348 0.409482 -0.14817603 0.12942857 -0.18184513 0.13131195 -0.14236903 0.13587983 0.12711392 -0.059086595 0.30343637 -0.015473117 0.15297835 0.3117818 -0.41007626 0.25000054 -0.4523602 -0.1436736 
0.13954149 0.17800508 0.20267367 0.24099563 -0.40883988 0.25917402 0.29605678 0.11764807 0.13940027 0.028955763 0.22053212 -0.44846788 -0.38155675 -0.035434548 0.02731414 0.15633665 0.23939694 -0.006757301 0.37852362 0.08816054 -0.0096825715 0.072449684 0.08302944 -0.106688604 0.079298146 0.08254975 0.08004723 0.034173775 0.13413453 -0.08866379 -0.40125692 0.14464842 
-0.098511174 0.19580187 -0.12262909 0.18733446 0.046372954 -0.17970864 0.0926949 -0.23964804 0.2579139 0.10042488 0.13105433 0.13887478 0.13079783 -0.11947973 0.22323744 0.04763348 0.10846247 0.27497002 0.2071451 -0.29261994 -0.06960085 -0.29467943 -0.30486625 0.34226185 0.084526114 0.20222671 -0.43470916 -0.25343004 0.10573003 -0.41644672 -0.13980214 0.06984815 
0.045045726 -0.20097992 0.34807914 0.2861389 -0.123845905 0.08464931 -0.069908164 0.009311016 0.13349152 -0.42442316 0.12706918 0.3012401 -0.055533245 -0.04864289 -0.033511925 0.23158823 -0.2276431 -0.22287807 -0.035063446 -0.09087989 -0.066187695 0.030283267 0.24836147 -0.30934414 -0.47494885 0.22525895 0.012832168 -0.01844944 0.12642813 -0.10786217 0.10686665 0.25202444 
0.2939758 -0.25046524 0.0009458935 -0.27004704 0.13553886 0.008078975 -0.24547268 -0.68609935 0.17186674 0.009613998 0.20459576 -0.089392506 -0.056714613 0.025152963 0.22866489 0.13716108 0.16939686 0.5108312 0.26150283 0.24785721 -0.027725214 0.25727773 0.39289075 -0.0022125104 0.12568226 -0.12206354 0.36021748 -0.05189925 -0.3086478 -0.19007756 0.35795724 -0.15980963 
0.19936065 0.13971965 0.1484211 -0.17890367 0.29486895 0.11321817 -0.010781586 0.1992853 0.18336736 0.05625488 -0.10794786 -0.28564155 0.22924472 0.09372473 -0.06310031 0.06555332 -0.09852224 0.26224235 0.07534979 0.13356279 0.11192474 0.21062337 0.13323137 -0.18974283 -0.055483524 0.104726195 0.10777259 -0.16137904 -0.25558838 -0.12384039 0.3325769 -0.2400967 
0.08636415 0.23072731 -0.25116742 -0.30459926 -0.5349276 -0.06780912 -0.308583 0.36781153 0.24406993 -0.12244467 -0.15667047 -0.08697167 0.3173387 0.20103368 -0.027712474 -0.0010086716 -0.2700914 -0.25008294 -0.0057819444 0.08956421 0.28929597 -0.35105684 -0.071869336 0.25622076 0.08788365 0.041702952 -0.1456148 -0.19665784 0.08644487 0.039999396 -0.12525891 0.18419157 
-0.2273155 0.29235226 0.20887622 -0.019694053 0.020836346 0.31031767 -0.04654654 -0.3779605 0.20640413 0.22245647 0.13184343 0.14972843 0.22065821 -0.3273942 -0.1085605 0.40445372 -0.017877433 0.11412658 0.30690974 -0.075141184 0.22277586 0.4599214 -0.0019037792 0.08059376 0.03308961 -0.26044148 -0.10990584 -0.048845194 -0.014768654 -0.45316663 0.20552258 0.14171259 
0.16673002 0.19631368 0.0960095 0.09779289 -0.17194752 -0.2582187 -0.33756262 0.00848801 -0.010266497 -0.2476895 -0.16930482 -0.11230372 0.0040339604 -0.028626543 -0.20583132 0.24704696 -0.053830262 0.25426385 0.31309757 -0.2701535 -0.10122514 -0.035129167 0.04139578 0.32741958 0.16117369 -0.2608639 -0.01797183 -0.08040539 -0.16335426 -0.30269396 0.2775187 -0.19491836 
-0.14506316 0.05380264 0.10687634 0.14677298 0.12500091 -0.17080787 -0.3107218 0.26260194 0.23875588 -0.12512834 0.29694128 -0.32292882 0.32820845 0.13140273 -0.08035205 -0.08206552 0.35812244 0.046445683 -0.22378853 -0.2088114 -0.21469405 -0.27051997 -0.049734384 -0.19551714 -0.13118047 -0.063390695 -0.20571233 -0.27336273 -0.30671406 0.22753346 0.15649621 0.028584171 
0.28904223 0.2933108 -0.2694722 -0.16393562 0.03743933 0.008352785 0.16913654 -0.18550707 -0.035388835 0.11208688 -0.02656406 -0.67146975 -0.22926745 -0.22697292 -0.07288543 0.009426365 -0.13014363 0.12898311 -0.16875263 0.11081535 0.23379365 0.2906204 -0.17444718 -0.1294468 0.07790624 0.113366336 0.10718948 -0.2487566 0.016438339 0.30768597 0.20172982 -0.20975693 
0.12656341 0.254232 0.10179986 0.21945588 0.20526415 0.04523112 -0.17267257 -0.40093243 0.15473604 0.2034582 -0.115270905 -0.2720855 -0.14933352 -0.029386243 0.09389994 0.25308588 -0.23195904 -0.09608339 0.20900883 -0.20957315 -0.11431902 0.28723088 -0.23643664 0.02708265 -0.22184789 -0.3803233 0.060309112 -0.07661992 -0.11376738 0.01643105 -0.19502202 0.2932618 
-0.14799386 0.013790555 0.12067613 0.08338895 0.14246316 0.39577454 0.1538719 -0.14915313 -0.061513454 0.2724624 -0.26864347 0.44602996 -0.26655385 0.11940959 -0.033985555 -0.23575571 -0.058402274 -0.18344854 0.2836845 0.33511865 0.0106685385 0.26073724 0.322032 0.17413004 -0.10353609 0.26345256 0.15375343 -0.0022559457 0.22939792 -0.018812915 -0.36476618 -0.21500714 
-0.24000141 0.11091497 0.38704982 -0.25304368 -0.50066155 -0.43092427 -0.169611 -0.030391071 0.027153814 -0.4213188 -8.020157e-05 0.73519725 -0.070771225 -0.2004865 0.09791043 -0.047569983 -0.19532044 -0.12914024 -0.048755422 0.1302501 0.034019075 -0.14884646 -0.20366348 -0.00089171453 -0.3942329 0.085622765 0.1811021 -0.1627197 0.046802256 -0.30461237 0.14225212 0.16883409 
0.5402555 -0.31508678 -0.5738083 -0.23199518 -0.25270358 -0.064303674 -0.12776512 -0.29011676 -0.14795354 -0.43526125 -0.37954637 0.5246585 -0.37883925 -0.30815375 -0.17266084 0.9710717 0.0916008 0.04219733 0.085388735 -0.014021114 -0.22157064 -0.4225052 -0.10526736 -0.28498453 0.119266815 -0.0013600453 -0.3009221 -0.31864485 -0.5782906 -0.04547183 -0.1354903 -0.22708347 
0.13095988 0.06892033 0.15580839 -0.49828804 0.11036195 0.25476438 -0.2485503 0.4444078 0.28353196 -0.16100611 -0.21955608 0.47235656 0.13166536 0.16920003 0.17650846 -0.457528 -0.15759161 -0.56432027 -0.050431732 0.15348777 0.54957765 -0.07024085 0.11171492 -0.21812522 0.07711572 -0.25861517 0.2260782 0.31612623 -0.47650173 -0.42790365 0.22833428 0.09509886 
-0.22102176 -0.12725663 -0.15605813 0.12924258 0.17020206 0.27473477 0.043849614 0.07700256 0.10968548 -0.18212001 0.20364326 0.14278597 0.047780644 -0.057450704 0.07039911 -0.080054455 0.11575764 -0.16760984 -0.14222749 -0.02440497 -0.10628685 -0.050667986 -0.20867506 0.06738059 0.14252247 0.019699855 0.20798211 -0.24355593 0.058780536 -0.22240281 0.16778046 -0.1527129 
0.30952165 -0.01853105 0.25169006 0.344179 -0.23298606 0.03499176 -0.24105199 0.17740199 -0.15986797 -0.023053871 0.3102906 -0.15175596 -0.058407526 0.07832762 -0.25569046 -0.1768179 -0.11503658 0.25890955 0.1356282 -0.15884171 0.090924874 -0.15253662 0.11404285 -0.07147181 -0.0029210465 -0.33469117 -0.15193313 -0.23499705 -0.1300495 0.06542416 0.07894575 0.11752109 
-0.026903458 0.0770043 -0.22362752 0.29424745 0.04374725 -0.19004132 0.053961333 -0.33460656 0.12819554 0.23590547 -0.092746966 0.04474814 -0.18988149 -0.054741282 -0.1973188 -0.26739308 -0.00058236904 -0.31824347 0.24486625 0.25086683 -0.049128354 0.11421376 -0.16312864 0.085377924 0.21045275 -0.24649486 -0.00664201 0.17366417 0.29391485 0.25930554 -0.3032293 0.11009924 
-0.23884319 0.3578368 -0.19597371 0.01646498 -0.054824676 -0.072250985 -0.30157608 0.066034615 -0.23968793 -0.2769426 0.21946567 -0.057091217 0.058636855 -0.0916495 0.064688556 -0.27535608 -0.21613672 0.31288078 -0.2025707 -0.24003111 -0.17104286 -0.3095277 -0.053262345 0.10763036 -0.18781774 -0.366026 -0.15385018 -0.15375005 -0.040092405 0.30703774 0.20997806 0.22109985 
0.078341715 0.13004759 0.0016761026 0.083241016 0.19655718 -0.11379865 -0.057820186 -0.4768068 0.18469565 -0.09419755 0.16605 -1.0156938 0.0036077413 0.019913934 0.1617262 0.12449546 0.03582914 -0.37481654 0.14908798 0.10138283 -0.11029967 0.18408056 0.15843064 0.022748215 -0.16553 0.2404339 0.16158204 -0.14908823 -0.121901855 -0.28192702 -0.35705295 -0.22895342 
0.050680384 -0.36379483 0.26257947 0.06308128 -0.06463879 0.05279986 -0.2780535 -0.606321 -0.17296986 0.3440319 0.10479313 0.29217783 -0.13704419 0.08403154 -0.102276154 -0.345475 -0.01856268 -0.20331217 -0.20804352 0.13597493 -0.11824919 0.15919727 -0.19073519 0.035420816 0.14429334 0.23881438 -0.23305792 0.21630886 -0.42420456 -0.23845895 -0.20888314 0.19846398 
0.20022574 0.23788139 0.20867655 0.30528718 0.25876892 0.2672728 -0.15953447 0.013674656 -0.012990825 0.19306937 0.23255332 0.023090819 0.18757644 -0.32466862 -0.25360578 0.13733979 0.007026678 0.12947434 0.25730807 0.05069449 -0.45076832 -0.07071893 0.18133205 -0.25168666 -0.28434646 0.020867344 -0.3143131 0.28485766 -0.05984489 0.16357042 -0.12744005 0.2417883 
32
0.0046181036 0.052154277 0.008509501 0.06297153 0.014408785 -0.014540547 -0.10168959 0.04642274 0.009938187 0.032919254 0.02725399 -0.3337759 0.0921364 0.071994044 -0.057968717 0.0774179 -0.013180795 -0.036502972 -0.0033218618 -0.030111251 0.04262784 0.057209373 4.0254567e-05 -0.19263126 0.035748452 -0.07002832 -0.022627395 -0.058739603 0.06355786 0.039631058 0.079051964 0.0017902722 
32 32
-0.09110512 -0.010376188 -0.66977274 -0.14579356 0.15764473 0.23466143 -0.08256345 -0.24086873 0.30282867 0.041306417 0.06742697 0.24719009 0.06437717 0.30777314 -0.03232095 0.0644893 -0.28850573 0.259755 -0.14148974 -0.00859797 -0.042298194 0.17888366 -0.36110756 -0.050180383 0.23829615 0.2827497 -0.024385827 -0.06549073 0.0015392704 0.13769175 -0.13537939 0.10586572 
0.25942013 -0.2798782 0.05461775 -0.20683894 -0.13186236 0.10163903 -0.32026136 0.31969443 0.14589335 0.17034331 -0.028077733 -0.15100296 0.21371742 -0.3914519 -0.14854172 -0.0063234246 0.30685452 -0.20816858 -0.24606775 -0.08945439 -0.4126101 0.20667328 0.15852378 0.16751264 0.009305683 0.28334397 -0.018075952 0.050907843 -0.21552747 0.30972344 -0.21939752 0.0881083 
-0.28453085 0.25224224 -0.020056313 -0.11211419 0.013708783 -0.10807175 0.2501555 0.109007776 0.27429527 -0.06281242 -0.21665005 0.24665 -0.22604856 -0.064069934 -0.0023389938 -0.211378 -0.04103266 -0.23837492 0.13829 0.135392 -0.04964759 0.4767949 -0.075081274 -0.18629085 0.07920797 0.18594204 0.14080584 0.12438231 -0.15094206 -0.19780388 0.05354146 0.034597043 
-0.021242892 0.013456662 -0.38903952 -0.087249555 -0.030955778 0.1459106 -0.013243707 -0.19877806 0.2946125 0.07951721 0.22708227 -0.2141518 -0.2603819 -0.24088399 -0.28990436 -0.13655457 0.124818034 -0.12475951 -0.2553097 -0.326624 -0.23114806 -0.4730747 -0.22584552 -0.1545124 -0.18295613 -0.110866 0.10713942 0.052681677 0.29905957 -0.065839335 0.25755638 0.15075171 
0.4066394 0.043940097 0.25183645 -0.21078727 0.27082384 0.18102783 -0.20791997 -0.22317189 0.34461948 0.47267523 -0.28457257 -0.46063298 -0.3888991 0.029202752 -0.1884316 -0.16148591 0.1996766 -0.34148273 0.11696525 0.14462686 -0.2590526 0.66180736 0.14254963 0.2341965 -0.3564162 -0.237218 -0.07345502 -0.30094454 0.3025649 0.0028791847 0.12686475 -0.09425288 
0.26025757 0.14536352 -0.24229942 -0.33850792 -0.25021055 -0.08913743 0.20915036 -0.2275219 0.15414317 -0.31017265 -0.17746362 -0.12497395 0.06972207 -0.24043316 -0.22609426 -0.19060287 0.31836206 0.25652927 0.13744581 0.23240389 0.04615827 0.41942054 -0.08080493 0.24810381 0.12852411 -0.068133496 0.12682444 -0.2076735 -0.0030189198 0.3454582 0.084386915 -0.20403796 
-0.00080101873 0.12785302 -0.03469757 -0.15845467 0.34466738 0.24277012 -0.11511774 0.1468745 0.23281217 -0.058800407 -0.19674349 0.040043913 0.017791063 0.0005998544 0.17110643 0.3068691 -0.29817653 0.06556343 0.17149341 -0.28667998 0.07212266 -0.18439607 0.2723165 0.066305995 -0.12015244 0.08177156 0.21436104 0.25975022 0.27944663 -0.32039088 -0.26447687 -0.009126907 
-0.03622346 -0.5074133 0.053156585 -0.39124727 0.30950361 -0.28569508 -0.737102 0.17263062 0.06258559 0.10796963 -0.2144348 -0.729658 0.16829237 -0.54285985 -0.24625677 0.46856454 0.43597075 0.0340351 0.078590974 -0.0611467 -0.062862076 -0.12992087 0.06717158 -0.1393364 -0.25975838 -0.026078524 0.016221402 -0.15449636 -0.16694163 -0.1665563 0.02109903 -0.2221845 
0.16355626 0.009624954 0.035942525 -0.22740537 0.36148545 -0.1838601 0.17103179 -0.17777658 0.1058934 0.18747401 -0.14194557 0.25432003 0.046269212 -0.14408776 0.16138567 0.22924532 0.10839027 -0.049392514 0.14407907 -0.023027379 -0.1924262 0.19979393 0.15889533 -0.15985952 0.18387273 0.25086087 -0.11855673 -0.7572127 -0.07749245 -0.14257938 0.19456 -0.37345907 
-0.13072509 0.096715845 -0.085808724 0.21735223 0.010669414 0.20733629 0.10387712 -0.11316855 0.08449448 0.027579756 0.110985324 -0.47076356 -0.24109095 0.1547059 0.06411934 -0.08897568 -0.2414517 -0.20701016 0.24656667 0.12938899 0.21264897 -0.5897449 0.24962494 0.09216907 -0.09287754 0.15569751 0.20605536 -0.33015347 0.31806 -0.09622122 0.2537508 0.28822023 
-0.08070426 0.23816533 -0.24480884 0.2669243 -0.08862417 0.18320687 -0.10311406 -0.32133827 -0.19238244 0.13970882 0.07522629 -0.14972995 0.10471511 0.23468556 0.11571349 0.09771262 -0.18975978 -0.24978322 -0.21865438 -0.012418688 0.22965033 -0.15839297 -0.22947347 0.02197652 0.18626724 0.27070084 0.3063541 0.020918366 0.2870426 -0.33777297 0.17075023 0.3353001 
-0.05146195 0.008661453 0.066011496 0.07202217 0.4782787 -0.40744162 -0.1820334 -0.44967705 -0.14542726 -0.2184932 0.6044364 0.37139642 0.15520778 0.21429664 0.23238556 0.20911606 0.334981 0.27229023 -0.47010866 0.015925974 -0.21819071 0.048141148 0.1482136 -0.21420848 -0.005187733 0.3587749 0.22372654 -0.16904671 -0.28594157 0.103478365 -0.14748901 -0.5562949 
-0.17769742 -0.08702127 0.38842243 -0.033128574 -0.041887295 -0.06857639 -0.11955408 0.2192987 0.08769391 -0.07729066 0.064995624 -0.2610062 0.2550192 -0.059460398 0.26434973 0.10054052 0.2569757 0.3630557 -0.3699305 -0.2896014 -0.3619867 -0.13047534 -0.07407288 -0.0354499 -0.0770847 0.016851878 0.20521715 0.19267045 -0.056094985 0.094104394 0.16589929 0.25652537 
-0.08446031 -0.1442281 0.37562412 -0.05788828 0.33163872 0.16471049 -0.11582115 -0.062796354 0.11944564 -0.30422512 0.21042939 -0.0363628 0.14377624 -0.08160378 0.10194716 -0.08558387 -0.0937896 0.017209422 -0.30457392 0.3034366 -0.16324267 -0.11063426 -0.15381917 0.06767581 -0.3001167 -0.086703256 -0.01260625 -0.04702904 0.3141966 -0.09636655 0.05781041 0.18697222 
0.14171317 0.24023673 0.20867905 -0.04102361 0.25613564 0.117979094 0.06396474 -0.28190857 -0.018634768 -0.32979792 0.0031482747 -0.09673838 -0.11477759 -0.09073412 -0.0147807 -0.23462847 0.021860601 -0.19263487 -0.2603827 -0.118566625 -0.2849952 -0.06641103 -0.28067628 -0.0036259536 -0.31763068 -0.12932871 -0.18519324 -0.26822633 -0.25581554 0.03643012 -0.19430186 0.11984584 
-0.004375345 -0.2474714 -0.21024768 0.15392122 0.034985166 0.33812818 -0.1367041 -0.033425145 -0.08044815 0.13246709 -0.050954923 0.052725974 -0.28776932 0.54034173 -0.23845586 -0.06272036 -0.013514528 0.36068654 0.0019949256 0.5782192 -0.014500676 -0.24229586 -0.12059784 0.11976084 -0.08997872 -0.3127084 -0.28775543 0.19819054 0.12751716 0.37740538 -0.10300832 0.22385451 
0.1827848 0.07174931 0.19584936 0.28275737 0.077237256 0.21631286 0.14625765 0.47235227 0.14200532 0.08188307 0.29880938 -0.05968436 -0.020573607 -0.7125136 -0.077712744 -0.2197577 -0.39862365 0.19525944 0.15578994 -0.4471162 0.023422232 0.15357658 -0.05066162 0.17862126 -0.09147288 0.05373343 -0.14437765 -0.07272843 0.038542345 -0.124825 -0.18826154 -0.11296551 
-0.27852777 -0.42885727 -0.11636097 0.137093 0.14114858 -0.012694101 -0.35219955 0.30618745 -0.27019164 -0.21973902 -0.1447558 -0.32646033 -0.21916497 0.2857687 -0.028081596 0.20829335 0.048655987 -0.19175358 -0.2732072 0.066443875 0.12835896 0.27830043 -0.18563955 -0.03937768 -0.26776496 -0.2089656 -0.19251822 -0.12373741 0.14178897 -0.03245306 -0.26603952 -0.17971642 
0.21723196 0.18636742 -0.13184085 0.10421839 -0.00015846518 0.2938616 0.18162696 -0.073435746 0.045416463 0.29168832 -0.023731494 0.31595328 0.26001838 0.30117136 -0.1682773 0.42030993 -0.28480846 0.20843162 -0.16523252 0.19084778 0.07003464 0.04999592 0.08658203 -0.37606797 0.31299803 0.1325846 0.1667729 -0.55511427 0.1946652 0.2466455 0.19427907 -0.38240907 
0.22813095 0.2829701 -0.2676306 0.25151423 0.14493836 0.21052489 -0.103226304 -0.4449607 0.26599166 -0.18096215 -0.26974568 0.0927735 -0.1663353 0.1362116 0.050747015 -0.15310995 -0.090600275 -0.058946308 -0.3155514 0.2845455 -0.08796851 -0.31939167 -0.13795891 0.112366214 -0.2027903 -0.11858299 0.23953678 0.23724234 -0.21934356 -0.28715742 0.04089562 -0.05408509 
-0.3595384 -0.01635453 0.57234097 0.0026870524 0.049987677 -0.15487821 -0.16105135 -0.9222135 0.23013645 -0.18275887 0.46653563 0.08406346 0.25734532 0.11123182 -0.06450246 -0.12833214 -0.10377278 -0.30293888 0.20829393 0.3448747 -0.19893979 -0.23021403 0.15233046 -0.14667599 -0.19927946 0.25401714 -0.20161232 0.05869035 0.008972605 0.20014918 0.09576952 -0.16532843 
0.015682463 0.45697576 -0.025376294 -0.11707084 0.30990422 -0.016071334 0.27174738 -0.56475407 0.22161797 0.13106394 -0.48966402 -0.43965432 -0.15466361 -0.28185368 -0.14121738 0.10178855 -0.30506676 0.13845418 -0.15717663 0.1423608 -0.2793161 -0.45050192 -0.25722232 0.20823646 0.16081813 -0.04096656 0.2091928 -0.31146896 0.23088971 0.27492803 -0.036717325 0.25082704 
-0.21537371 0.13366045 0.20657414 0.21095939 0.21606009 -0.23381357 -0.056173123 -0.20843169 0.14856088 0.12014189 0.31096175 0.26609492 -0.17503117 0.060280036 -0.039212644 -0.029657962 -0.07150656 -0.091465995 -0.08618214 -0.17715424 -0.18456921 -0.17533238 -0.048451155 -0.11619401 -0.07311775 0.10474968 0.11960803 -0.111614384 -0.16614704 0.11349972 0.05495949 -0.1504405 
0.11363456 -0.028677376 -0.19126166 -0.07342765 0.35045326 -0.26644847 -0.06360217 0.2266706 0.042033102 0.086137675 -0.077869296 0.31978408 -0.0365923 -0.014279363 -0.11092689 0.09483057 0.16481787 0.1940826 -0.017263273 -0.08391495 -0.012925461 -0.2372171 -0.27756438 -0.080638535 -0.2700128 0.060769543 -0.2041281 0.05435057 0.16656002 0.15200873 -0.053028814 -0.2770491 
0.10617857 0.09928918 0.26729104 0.34553096 0.13937235 -0.26917008 -0.189006 0.05721556 -0.005407326 0.08796403 0.07613083 -0.054418597 -0.079375066 0.27766836 -0.2786945 0.15386844 0.27607024 0.47667855 0.12547414 -0.22059466 -0.014622537 0.08871018 -0.38681844 -0.16439539 0.23534729 0.08061233 0.09622063 -0.09655543 0.21666072 0.314701 0.30336258 0.08154827 
-0.08879136 0.20710644 0.041822236 0.20509237 0.043492343 -0.10654542 0.02478821 0.11961925 0.15319973 0.13173728 -0.06345516 -0.24394616 0.26293147 0.27366683 0.03558877 -0.26991764 0.034840617 -0.22951001 0.049201608 -0.110496774 0.1636014 -0.032242354 0.046737164 0.19343022 0.10944095 0.12863293 -0.09882367 -0.19334291 0.13783713 -0.034192037 -0.22544602 0.044431154 
-0.04619404 0.1518863 0.04046539 -0.27304587 0.12978208 -0.12172398 0.32445085 -0.24724692 -0.2580276 -0.13639353 -0.05173462 -0.08379102 0.20280337 0.17220856 -0.23127094 0.27409536 -0.18000647 -0.097606555 0.23824021 0.23927136 -0.014685162 -0.21946128 0.0012464725 0.14105067 -0.073644415 -0.27218202 -0.2150142 -0.24951185 -0.05942103 0.03181929 -0.080185816 0.24689251 
0.25372154 0.46804252 -0.038435996 -0.1358025 0.20569363 0.24901521 0.317954 -0.16684751 0.12890793 0.051222973 -0.24101643 0.23546618 0.17809156 -0.2008902 0.034598134 0.09683836 0.13910483 0.14284424 0.005491268 0.24863073 -0.20882857 0.11822208 0.2617372 0.32017383 0.37683487 -0.45863318 0.17362738 0.44608548 -0.27228275 0.21491675 -0.047235195 -0.15111163 
0.22688472 0.07522477 0.15393588 0.05864189 0.10819325 0.18458216 0.094783336 0.037928052 0.11558259 -0.20109385 -0.20720987 0.26465046 -0.27154505 0.13067989 -0.041286588 -0.38038754 -0.13476269 -0.11118016 -0.28536257 -0.046417315 -0.116196334 0.076459534 0.09509315 0.28365013 0.0021367716 -0.25607988 0.012076488 0.057636056 0.20961039 -0.24993336 -0.092851214 0.14145349 
-0.22496031 0.16746461 0.15112236 0.36172023 0.7981021 0.04122902 -0.19201043 -0.49405134 -0.28596547 -0.30946255 0.16790996 0.49778333 0.0002674014 -0.035919275 -0.20823291 -0.078832425 -0.15376998 0.1233295 0.06322277 -0.15475272 -0.10979776 0.30008322 -0.080104604 -0.031080248 -0.102713 0.27061018 0.313432 -0.25220013 0.23864287 -0.037326425 -0.2603874 -0.049181417 
0.08124419 0.2774844 -0.002124574 0.12426201 -0.008350338 0.10212197 0.1658888 0.36187243 0.12589893 -0.16896947 0.29337236 -0.4103256 0.17084466 -0.40148148 -0.090090126 0.24526799 0.32500347 -0.26859874 -0.12415581 -0.4752892 0.08580625 0.10110353 -0.19607976 -0.18001059 0.040814687 -0.17344686 0.13168968 0.122091636 0.038706485 -0.0015765495 0.28483158 0.16952388 
0.061377108 -0.05597015 0.058114134 0.26012874 -0.122593045 0.31906497 0.26004654 -0.2771428 0.2094842 -0.28542885 0.2685018 0.053601738 0.04412956 0.13872962 -0.13665976 -0.28344846 0.116454266 0.23156708 -0.36817038 0.1584457 -0.30105025 -0.26721805 -0.111930855 0.354512 -0.22893558 0.11384574 0.32687905 -0.12366501 -0.12610964 -0.1072761 0.26477525 -0.25074142 
32
-0.041517433 0.020715998 0.073072925 -0.06753682 -0.196419 0.09119096 0.0042635812 0.08881508 0.023732146 0.03087145 0.031990774 -0.17195308 0.058197264 -0.21597509 -0.05914461 0.0328473 0.08497715 -0.01534572 -0.01428145 -0.21403866 -0.13626586 0.010464949 -0.083525956 0.07568897 -0.058913883 -0.060118034 -0.006772844 0.09994158 0.01706059 0.100005776 0.009427671 0.10704454 
64 32
-0.21494132 0.16757095 -0.07985484 0.16342321 -0.12448967 -0.15599775 0.049604364 0.06446583 0.11810963 -0.024341207 -0.101789474 0.17548883 -0.1330511 -0.1726376 -0.1173969 0.232112 -0.20351616 -0.0040755323 0.09858645 0.046707567 0.13513555 -0.14092147 -0.026977265 0.046673317 -0.029810477 0.28001627 -0.16180766 0.22194512 0.15191287 0.3051351 -0.010185337 0.055319134 
-0.31340104 0.21571699 -0.102622144 -0.17322326 -0.11590462 -0.1727826 0.22271957 0.13446611 0.03752746 -0.19800058 -0.16214703 -0.3044574 0.10029787 0.18307737 -0.075295396 0.1349559 0.10144651 0.15518014 -0.069189966 0.2927136 0.08091919 -0.06317183 -0.29636332 0.2927636 -0.24628466 0.31230035 -0.081632875 0.096669376 0.16828421 -0.18121813 -0.15875013 0.2537482 
0.12263936 0.3132373 0.1596304 -0.13471013 -0.35720375 0.076787174 0.20201747 -0.023974406 0.22863564 -0.2023464 -0.07159434 0.11405235 -0.12677208 -0.3344144 -0.2879075 -0.36109877 -0.30149361 0.08984784 -0.17593537 0.143956 -0.116519146 0.15416571 0.110867284 0.01773476 -0.014835476 0.14090157 -0.56539935 -0.3834763 0.07981956 -0.27168062 0.09548387 -0.035624668 
-0.2613534 0.22135071 0.065584615 0.15173133 -0.22870758 0.38130385 -0.0011549492 -0.19367646 0.13778561 -0.011035524 -0.17037116 -0.17825498 0.25451013 -0.104265384 -0.2175009 -0.06499048 0.1110215 -0.010109386 -0.056974452 -0.0387189 -0.008608525 0.005988785 -0.28748763 -0.15356927 -0.11817125 0.27686462 -0.05457444 0.28717843 -0.31087485 -0.21979374 -0.16082306 0.09954972 
0.0019915034 -0.2055299 0.044636965 0.14295751 0.024767876 0.18704894 0.30361393 -0.47493964 -0.45518017 -0.18992575 -0.02408103 -0.2814174 0.21926671 -0.07505186 -0.18447699 -0.039324973 -0.14228904 0.16968882 0.09435808 0.24848908 -0.13417415 -0.17497735 -0.23100896 -0.020451117 -0.16010194 0.010241042 0.008810845 0.16919819 0.15806054 -0.7191478 -0.43772343 0.4005026 
0.13382584 0.1681597 -0.07696873 0.03975243 0.2776937 0.059506327 0.33840573 -0.109659255 -0.16338661 0.17298146 -0.040188998 -0.2088406 0.08015486 0.1609543 0.21517816 -0.14890456 0.1350513 0.28151867 -0.02842775 0.19219561 0.22072326 -0.30238783 -0.02238803 0.014757869 -0.095222086 0.007872113 0.07585492 0.06460555 0.08104584 -0.32188043 -0.1697402 -0.17299607 
0.046459712 -0.0027228813 -0.07543915 -0.102430664 -0.46114874 0.14435141 0.31441322 0.18638416 -0.14049439 0.06809482 -0.3206754 -0.1609564 0.16770197 -0.15060496 -0.15364014 -0.25881156 0.18488838 0.081463516 0.15601104 0.222843 -0.16951618 -0.27320006 -0.25246835 0.18804558 -0.059218444 0.12552898 -0.09016676 0.06611252 0.37664306 0.20173037 -0.18597414 0.2316996 
-0.06811431 -0.29088908 0.074881285 0.238193 -0.0851716 -0.1092327 0.12192799 0.01731564 0.32181415 0.10375023 0.12145217 0.050811637 -0.071160085 -0.04947401 -0.22787066 -0.035056 -0.15324308 -0.16480677 0.09483966 -0.3649185 0.20643492 0.14055485 0.29279977 -0.23267047 0.22445194 -0.018826753 -0.041104168 0.02151983 -0.15297416 -0.041009508 -0.068884335 -0.08269054 
0.1408761 0.29419073 0.08488196 -0.18116905 -0.00752667 0.13004719 -0.08335166 0.17228246 -0.079496354 -0.08858226 -0.013844332 -0.12937854 0.08718004 0.18872198 -0.20018755 0.1310678 -0.18396318 0.08132864 -0.06710274 0.13308291 -0.20592406 -0.20881078 0.13233759 -0.015333539 0.0102847 0.21752392 -0.014396745 0.16813496 -0.2702448 -0.041962158 -0.20964344 -0.0150451 
-0.022829764 -0.047854614 -0.15050061 -0.09805857 0.1304025 0.2938977 0.058982115 0.20760018 -0.024563596 0.12623602 -0.12637101 0.059453428 0.20722309 -0.03146958 -0.15726663 -0.011624155 0.18364908 0.010205879 0.023390738 -0.12530588 0.080960974 -0.078113146 0.034554522 0.21005434 0.074838914 0.25339416 -0.08852492 -0.014358336 -0.2874515 -0.10828757 -0.15650512 -0.15720196 
0.08125854 -0.077648774 -0.037323046 -0.15816851 -0.1276417 -0.055107147 0.045480628 0.113851 -0.16257395 0.20545089 0.037506126 0.1863322 -0.028414842 -0.026904024 0.15984972 0.1949737 0.08024611 -0.1186951 -0.050849922 0.14402013 0.022787979 -0.2662133 -0.20307428 0.20035683 0.12129806 -0.15906624 0.27150422 -0.10421276 -0.31539267 0.19548173 -0.06364032 0.02574002 
-0.203488 -0.28257376 -0.33299366 0.20096269 -0.11600975 0.23180138 0.39376637 -0.5328402 -0.18854192 -0.13589266 0.10141968 0.31528598 0.34755328 -0.8491409 -0.34707242 -0.21115832 -0.67435193 -0.1717637 -0.29307434 -0.5438178 -0.1049933 -0.3352251 0.2178668 -0.033381667 -0.029235026 -0.40376893 0.04315958 0.3699989 -0.09281075 0.14654423 -0.20732956 0.00473819 
0.28319213 -0.1466256 0.2454727 -0.093415335 -0.033381578 0.35456136 -0.22015332 0.052623097 0.1140904 0.098376945 0.19895169 -0.079756424 -0.03664213 0.007389161 -0.34755385 -0.18532412 -0.07170621 -0.31704167 -0.18170272 -0.26638553 -0.056121636 -0.24681701 0.2507838 -0.090730056 -0.17318532 -0.2780558 -0.3394308 -0.16218878 0.05041402 -0.47367468 -0.035677433 0.14386557 
-0.1041072 -0.089187756 -0.19223076 -0.4075888 0.17565385 0.08841483 0.18978602 0.089737654 -0.4708088 -0.42228615 -0.34089887 0.013071395 0.16612491 -0.36021683 -0.11000577 -0.037814066 -0.20299737 -0.3806539 -0.38230258 -0.23856641 -0.5210924 0.49994636 0.2563602 -0.055099145 0.26749256 -0.041223254 0.16737573 -0.021795949 -0.17283991 -0.33967075 0.07190825 0.11120099 
-0.062331796 -0.120660484 -0.16631842 0.03708005 0.2277801 -0.05169803 0.1966883 -0.11163503 0.21113664 -0.11762518 0.16552949 0.09641856 -0.11832565 0.08044183 0.08396196 -0.0571056 -0.08235985 -0.12269682 -0.15511554 -0.20622909 0.091050506 -0.085095525 -0.14878261 0.20560658 0.12328577 0.1176905 -0.056096256 0.19457895 -0.00011116266 0.10348874 -0.11447561 0.09519583 
0.016369274 -0.38966167 0.0953847 0.06582052 0.16121219 0.013588636 -0.24368061 -0.101960294 0.036991097 -0.14317398 0.10531595 0.06975016 -0.1559232 -0.32178038 -0.18225314 -0.25011584 -0.14305976 -0.14207314 -0.049405526 -0.11232821 0.019258467 0.046460863 0.0009128067 -0.18873571 0.22630252 -0.20985101 -0.40275097 -0.07049547 0.19787446 -0.2181302 -0.016524214 -0.0808811 
0.06897772 -0.06800713 0.082700856 -0.01166909 0.19247991 0.020210432 -0.034858692 -0.34297588 0.20120813 0.00908142 0.18138106 0.14299792 -0.40060812 -0.1314035 0.03530748 0.05380338 0.16907312 -0.044591878 -0.11687813 -0.09140074 0.24360874 0.22628157 0.27292177 0.12538481 -0.047516655 -0.264462 -0.29829967 -0.25953755 -0.28288367 -0.31928492 0.18646395 0.07201509 
-0.023952072 -0.2606823 -0.11327351 -0.40218756 -0.1089409 0.4438953 0.10091347 -0.439084 -0.53972465 -0.11170709 -0.057087068 -0.25436708 0.30913112 -0.20004511 0.3790262 0.14749973 0.014824283 0.11532975 -0.09880023 -0.11529275 -0.47736147 -0.16232836 -0.03172426 0.15041368 -0.26732656 0.18641536 -0.30065176 -0.12407839 -0.6096537 -0.37493774 -0.014476567 -0.00766605 
-0.06903352 -0.23327789 -0.10857055 -0.053609516 -0.1958292 -0.22919296 0.15038292 0.23676826 -0.04888484 0.058673844 -0.04873085 -0.24121647 0.06318945 -0.10549368 0.18255961 0.07979902 0.032363106 -0.12913017 0.018442402 -0.21886398 0.14126669 -0.027460733 0.22146823 -0.03941596 0.18849997 0.0075630904 -0.14326441 -0.18415517 0.095374286 -0.15412039 0.070391394 -0.19019407 
0.17626788 -0.49008024 -0.13742377 -0.3225054 0.57435966 -0.1941853 -0.090008445 -0.025229776 0.011862622 -0.499406 -0.14458418 0.33057094 0.68207073 -0.30420667 0.3272597 -0.16498524 -0.22387497 -0.022345817 0.009559524 -0.22319216 -0.027648514 0.70571595 0.193351 -0.0375142 -0.03394684 -0.44468966 -0.23975593 -0.4967447 -0.41446328 -0.021822512 0.1330723 -0.053474765 
0.18633449 -0.15470627 0.05228446 -0.009547903 -0.113271646 0.22704625 0.08180899 0.04501256 0.12585726 0.21832372 0.13992529 -0.1124204 0.0011838954 0.052011613 0.1336505 -0.24035339 -0.0977466 0.1787709 -0.063031055 -0.024905706 -0.10104173 -0.0521875 0.07148975 -0.17659941 0.2605757 0.1834999 0.04843338 -0.24714613 0.15897648 0.040657245 0.12562533 -0.03342484 
-0.36860478 -0.014691615 0.15420154 0.20699774 -0.1765391 0.25529116 -0.09686997 0.13054304 0.10151715 -0.27628714 -0.41393548 -0.0008047136 0.08230913 0.052501034 -0.17082757 -0.64990664 0.46582502 0.14422035 0.632425 0.1473161 -0.053729016 0.025714776 0.4183838 -0.14428543 0.06935856 0.12746717 0.44128522 -0.08728988 -0.074900486 -0.45637608 -0.080165505 0.37677413 
-0.22569866 0.21436471 -0.25321797 0.12322562 0.12636524 -0.19156833 -0.028268581 -0.06919482 0.03152865 0.0061769965 -0.18336861 -0.2242988 0.11624591 -0.22216 -0.105518185 0.23819363 -0.017995095 -0.13306393 -0.22195801 0.24705799 -0.025698945 0.16584446 0.20300066 -0.15762922 -0.10519194 -0.22660027 0.17682263 -0.18928802 0.18675134 -0.24391729 -0.21263127 -0.012056749 
0.12948054 -0.026059434 -0.18522295 0.344741 0.014480382 -0.40541524 -0.06682944 -0.26088324 0.1557615 0.2533439 0.0360734 0.048748117 -0.106075995 0.21073456 -0.06698618 0.27986425 0.22096239 0.2770599 0.16291021 -0.15628688 0.24338326 -0.2179957 -0.194466 0.3217874 -0.15850835 -0.11832932 0.11647024 0.20567736 0.44317648 -0.096565895 0.06767481 0.45710292 
-0.018324703 0.26399982 0.0019200514 0.0883692 -0.052246407 0.14570768 0.13831618 0.0065222625 -0.004546156 -0.1019211 0.06621847 -0.14151374 0.13153268 -0.008766628 -0.25915435 0.06929968 -0.062293734 -0.1430787 0.055283424 0.033298757 -0.20895337 0.250129 -0.26608306 0.11171046 -0.04976144 0.2353808 -0.19183402 0.14935608 -0.054050576 -0.16234817 0.16736324 -0.11969154 
-0.0012285359 -0.15312418 -0.29395467 0.00055129436 -0.12134215 -0.16976073 0.022036804 0.025723422 -0.33844277 -0.22624144 0.18649198 0.1410224 -0.044167735 -0.05953704 0.16738604 0.20543201 0.16936839 0.26702833 0.08504363 -0.076382555 -0.13559292 0.06124842 -0.25554785 0.23925869 0.080664426 0.19332922 0.16347492 0.121564515 -0.1916062 -0.19669701 -0.19804475 -0.14726801 
-0.24186201 0.1962255 0.04826416 0.13970113 -0.22167346 -0.2582396 0.24650636 -0.006788708 0.0066780113 0.23493664 0.08390654 -0.050503507 -0.045218453 0.029834371 0.108678445 0.26900655 0.095463164 -0.0063630342 0.12809986 0.109740764 0.04308596 0.15811837 -0.04295484 0.26125145 -0.1390373 0.09057152 0.19318658 0.043101754 -0.08254826 -0.018718394 -0.03613156 0.36431882 
-0.086806096 0.088214226 0.17281489 0.04308949 0.4216277 0.004385288 0.005271463 -0.026195925 0.064223625 0.047378376 0.33221394 0.1664585 0.15959585 0.052675094 0.07625048 -0.07923169 -0.5499883 -0.38550428 -0.19375142 -0.5217103 -0.05802422 0.22114673 0.26104227 -0.35387936 0.35549808 0.017169613 0.1331526 -0.27920228 0.034338944 -0.09278809 0.21944334 -0.09155786 
-0.18259263 0.26269892 -0.18662122 0.08030022 -0.106919184 0.05919251 -0.1119995 -0.11984635 -0.013698788 0.2627062 -0.30363333 -0.021087863 -0.17784403 -0.06266722 -0.10753132 -0.1375656 -0.0039697373 0.1669381 -0.025309144 0.2926697 0.053229712 -0.05353123 -0.11265345 -0.18610743 0.040873688 0.10257314 0.23519692 -0.048989974 -0.20569232 0.054330703 -0.00858621 0.22433732 
0.14122853 -0.27986747 0.100364745 -0.081785336 0.21031949 -0.097329155 0.08557534 0.061382703 -0.061513674 0.17383604 0.021165816 0.08302261 -0.13726619 -0.12439729 0.24193417 -0.16413404 0.015310759 -0.2318833 0.16481856 -0.22343399 -0.07606545 -0.1286696 0.15885857 0.023392271 0.19015376 -0.12798542 0.186571 -0.10448361 0.12015138 -0.76972693 0.033432033 -0.03423871 
0.08125893 0.12419086 -0.16130927 0.100803085 -0.26343206 -0.063532725 0.24954174 -0.07773743 -0.3435534 0.20277558 -0.2194487 0.047640484 0.1401844 0.09785895 0.034724787 0.048780616 0.27107236 0.17289789 0.012870415 0.13983706 -0.20974351 0.05980035 0.101710774 0.04377332 0.029182486 0.12818755 -0.14343953 -0.11936542 0.02509071 -0.2212833 -0.2500367 0.25740618 
0.16811348 -0.0127192885 -0.103192456 0.373246 -0.10204504 -0.5007208 -0.17040825 -0.26463625 0.22018237 0.26554477 -0.020551998 -0.26784703 0.17556472 -0.030946763 0.10002614 0.010467502 0.1253213 0.20561688 0.026917523 0.013260397 0.038509853 0.084208444 -0.28170153 -0.0075189304 0.31806815 -0.1097341 -0.1773389 0.10849466 0.28420004 -0.07263089 0.1519638 0.16749819 
-0.10912752 0.21654177 -0.18523249 0.09216433 0.08190213 -0.3020913 0.05326636 0.1842652 -0.017020486 -0.20180014 0.032108776 -0.17860658 0.12676203 -0.095438786 -0.23288119 0.0263508 -0.03799303 0.09058131 -0.24579228 -0.14365417 -0.15754217 0.14810586 -0.17187959 -0.13678992 0.0094093215 0.034485407 -0.0503349 -0.11299319 0.173495 -0.031094903 -0.1262341 0.13336504 
-0.20417546 -0.15890947 0.18419245 -0.15226401 0.33023372 -0.39460242 0.04921324 0.2512118 -0.26428786 -0.31973353 -0.22947583 0.22106789 0.16778702 0.107299075 0.082453884 -0.07492885 -0.19476476 -0.2454544 0.16210963 -0.11061696 0.07769683 0.10337288 -0.07574713 0.0216046 -0.08115139 0.15575258 -0.12467892 -0.11427807 0.14086324 0.35344806 -0.02363818 0.12626278 
0.02698924 0.37976328 -0.60901463 -0.35608438 -0.116101265 -0.3377403 0.12286157 -0.56658465 -0.11180766 -0.11508289 -0.10645042 0.42978665 -0.009820674 0.38416192 0.58389777 0.024229085 -0.2763842 0.15416624 -0.025296723 0.123151965 -0.114814736 -0.29227775 0.05005714 0.5028077 0.37436303 0.022655645 -0.1868444 -0.14799973 -0.29044694 -0.04278469 -0.22485986 -0.045381904 
0.014127804 0.08039879 -0.078112826 0.036779515 0.05116725 0.0017426542 -0.3373652 -0.11712614 0.072006114 -0.1536604 -0.15625903 0.15420349 -0.29211718 -0.00999164 0.22016716 -0.1025482 -0.23193786 -0.18406251 -0.042075645 -0.14957829 0.084372655 -0.13483335 0.04403216 0.18583691 0.17435732 -0.21650009 -0.05520633 0.08686026 -0.07829149 0.20059371 0.15264618 -0.11332155 
0.14602566 -0.3242744 -0.18560629 0.2980192 -0.06253444 0.29648155 -0.12926467 -0.114607036 -0.28941143 -0.54219615 -0.16444351 0.30983236 0.56606823 -0.08598112 0.24958886 -0.07072919 0.044008482 -0.0005989722 -0.02892108 -0.12944263 0.09556206 -0.021610921 0.2378424 -0.28748804 0.08099005 -0.20446844 -0.1915438 -0.19765586 0.17307138 0.36443362 0.11980894 0.23412004 
-0.10205754 0.13680314 0.17996682 0.13642082 -0.03583048 0.14400531 0.009837755 0.104273245 0.22673626 0.058195338 -0.001773046 -0.019850308 -0.3512914 -0.13624191 -0.08872575 0.020595014 0.25208744 0.040785585 0.045459628 0.1504677 -0.10238584 0.23997337 0.12864895 -0.2850224 0.26105088 -0.21150868 0.08842872 0.045154672 0.062900804 -0.0060884072 0.313797 -0.16985087 
-0.038030297 0.09196867 0.07198395 -0.21411234 -0.039708853 0.35802662 -0.09879813 0.14234307 -0.23504665 -0.24213536 -0.17255738 0.1571853 -0.15335539 -0.21607655 -0.18110129 -0.033674497 0.17864929 0.015062911 0.17879832 -0.0071583265 0.16243802 -0.099743694 0.045032885 0.22335744 0.28076524 -0.024055334 0.039638467 0.1399949 -0.21757676 0.38634565 0.21373332 0.17739044 
-0.27209637 0.006299108 -0.1766926 -3.6937592e-05 -0.106348 -0.11533791 -0.07816576 0.23522931 0.06558398 0.09396349 -0.065975495 -0.46347797 -0.24048854 0.07332963 -0.40204042 0.13074054 -0.12447496 0.067015454 0.007827079 0.02144753 -0.03581536 0.07434164 -0.30221534 0.32620576 0.14119808 -0.028580759 -0.1448415 -0.06487144 0.18395881 -0.18080932 -0.11343745 0.12202581 
0.19243836 0.1375429 -0.06882549 0.16932686 0.2544572 -0.41579783 -0.003669628 0.12390479 0.17125873 -0.044950016 0.11724204 -0.059169292 -0.16112313 0.2623387 0.16123115 0.21760483 -0.19609332 -0.09975126 0.2411746 -0.15009828 0.055386867 -0.19198711 -0.0045007793 0.07060564 -0.0067205564 0.21305496 -0.086656906 0.17217052 0.16629095 -0.03222539 0.3023688 -0.21149002 
0.06722789 0.12319123 -0.06937432 0.19890921 -0.037958123 -0.17355417 0.06471317 -0.25684965 -0.060807798 -0.0031736859 0.024860965 -0.067011006 -0.13771428 0.2142218 -0.20176437 -0.22506353 0.0815462 0.12682499 0.15878311 -0.06771352 0.07858084 0.13219471 0.15302685 0.039608788 0.088864736 0.0038856464 -0.18112002 0.16675647 0.21957733 0.004883221 -0.16286449 0.118613176 
0.03459944 -0.11260167 0.09170628 -0.022202363 0.2939183 -0.10901277 -0.3420907 -0.10841117 -0.058867965 0.0532626 0.2749829 0.1398686 -0.18496962 -0.02210858 0.061697926 -0.23208673 -0.055110067 0.1989946 -0.22125989 0.2598981 0.20499717 0.07331479 0.05118066 0.030194703 0.42853475 -0.15357359 -0.08850086 -0.2148885 -0.298029 -0.3295821 0.028843086 -0.20110226 
-0.25111067 -0.019773087 0.12618797 -0.51986355 0.20644586 -0.07981413 -0.03326266 -0.045563 -0.0578258 0.016938405 0.024772858 -0.083427615 -0.66453123 0.36213514 -0.24743871 0.17927925 0.5005406 0.27267528 0.26858264 0.24446703 -0.14061907 -0.15317526 0.054067098 0.0017657762 -0.1734138 -0.2803642 -0.04295306 -0.5791325 -0.64493394 -0.050580025 -0.14725643 -0.21009694 
0.124780424 0.21901666 -0.22264469 -0.28176656 0.15785863 -0.366538 -0.14391875 -0.12692367 0.14617093 -0.08632281 0.19246662 0.011132336 -0.2656358 0.16185923 -0.29476237 -0.21377602 0.20946324 -0.11140524 0.17586601 0.026204845 0.07400445 0.062452458 0.08151592 -0.035328813 0.26060417 0.2930045 0.24468641 0.051698517 -0.27858335 -0.23060924 -0.22706456 -0.088261805 
0.3364088 -0.08123836 -0.043509852 -0.29753557 0.13874659 0.50166315 -0.31434608 0.2776485 -0.0031000045 0.20234302 -0.2795044 0.23387481 0.34970662 -0.08775267 0.08789464 0.14128979 -0.078138664 0.14652371 -0.070252374 0.04225583 0.28146085 0.10851008 0.14693166 0.06582696 0.1993338 0.09786887 0.097684026 -0.37291485 -0.48103693 0.5339611 0.017886966 -0.15109052 
-0.05728829 -0.19040054 -0.2298547 0.022736251 0.11867994 0.15630049 0.13754821 -0.034239233 -0.10710329 0.069678485 0.19443655 0.22652316 -0.029956222 -0.21789664 -0.12495023 0.08024055 -0.24123353 0.14079022 -0.19261616 -0.080452204 0.09691441 0.16999495 0.012558103 -0.054567516 0.018395245 -0.1293531 0.11239743 0.23048997 -0.13169551 -0.23013711 0.007934511 -0.04897523 
0.20156227 0.13120498 0.13716261 -0.10879296 0.019153316 0.20745173 -0.2735206 -0.06626277 -0.044101316 0.12233422 -0.026512913 -0.09066185 0.11484097 0.10086656 -0.2599923 0.13181123 -0.09160894 0.11403795 0.03410711 0.27462935 -0.29563957 0.06698519 -0.2815512 -0.01598833 -0.113077 0.39705664 0.40711606 -0.026128102 0.24800454 0.42090172 0.06361095 0.1250795 
0.24992885 0.27802405 0.18817435 0.119963825 -0.10546605 -0.062270783 -0.09162376 0.2402202 -0.12433142 -0.105606385 -0.19297303 -0.06897209 0.034079645 0.27736065 -0.19659287 -0.150589 -0.08163224 0.1647158 0.12765165 0.16581628 0.20596924 -0.070135914 0.13648306 0.01803837 0.10540029 0.06621111 0.048165623 -0.32522294 0.08661622 -0.22964983 -0.006848334 0.09959575 
-0.04696593 0.15000471 0.09754755 0.042310968 0.27431464 0.11114559 0.16581824 -0.03126253 0.16853063 0.20630874 0.07268064 0.32389966 0.17027155 0.09211111 0.22016159 -0.13402475 -0.009182927 0.114572376 0.16815501 -0.301914 -0.16396749 0.03254678 -0.13727112 0.10034863 -0.12376701 -0.11121101 0.121521 -0.07977375 -0.15780109 0.24897349 -0.062548265 0.24704556 
-0.09191016 0.24494828 0.05417408 0.13948004 -0.058090508 0.22849645 0.10179118 0.14861536 0.05168209 -0.15219207 -0.3117718 -0.18059522 -0.0958759 -0.035487935 0.28113708 -0.06823939 0.1125182 0.09915233 0.15861857 -0.053748317 -0.3207654 0.14947633 -0.16237715 -0.058139246 -0.066469334 -0.064281955 -0.081166446 0.0048297644 -0.08241485 0.24087441 -0.20302473 -0.08022374 
-0.097268 -0.2705446 -0.029411713 -0.23376113 0.33534947 0.4357907 -0.48220366 0.3020488 -0.39748982 -0.05587981 -0.5429858 0.25254303 0.15692575 -0.3276129 -0.054891616 -0.2495551 -0.13648435 -0.29182085 -0.084001474 -0.2628297 -0.1004702 0.11624444 0.18956599 0.2515268 0.0125938915 -0.0015259582 0.14541972 -0.2951937 -0.16852379 0.32822186 -0.003122993 -0.13238151 
0.19774821 0.0033362447 0.20989685 -0.2026727 -0.07451362 -0.13638723 -0.14697522 0.014478918 -0.03993089 0.076381534 0.17561811 0.1696514 -0.084484056 0.04746628 -0.14899653 -0.0056970525 0.15242893 0.060761444 0.10275696 -0.061508264 0.10250357 0.20437947 0.018501734 -0.19075009 0.12430939 -0.08118128 -0.06658811 -0.22291428 -0.20732673 -0.13742945 0.123566896 -0.1715248 
-0.35331115 0.2696727 -0.1876572 -0.2749475 -0.12021633 0.2078553 0.52155566 -0.43205217 0.002302765 0.18306181 -0.019121239 0.6320214 -0.17678002 0.053963553 0.6238921 0.43797097 0.39459985 0.25802898 0.44249555 -0.08088443 -0.11429254 -0.033147268 -0.22147727 0.18272334 -0.107026815 0.014677331 -0.70874906 0.55336 0.28454697 -0.2073006 -0.0024349594 0.3536663 
0.085766815 -0.020727336 0.008018005 0.08186612 0.20306295 0.046121776 -0.14292115 0.22469158 -0.15795724 -0.22625995 -0.17761192 -0.13949245 0.009535503 -0.17445962 -0.00947214 0.21854305 0.0415288 0.05422223 -0.22778353 0.053107124 -0.0015734021 0.23903748 -0.12199324 -0.011209388 -0.19059578 0.13811417 0.22276445 -0.24563152 -0.23216662 0.063124955 -0.049343824 -0.20195377 
0.2846965 0.01462738 0.17118122 0.16828701 -0.04974575 0.19420144 0.1601632 -0.19573824 0.06381423 0.0038804384 0.23232608 -0.15394962 -0.001198889 -0.059009183 0.18142019 -0.075759456 -0.17905064 -0.05600687 0.006907623 0.22424999 0.21317543 0.06196847 0.07043501 0.14167432 0.1377607 -0.15104835 0.0829014 0.17782378 -0.061366323 -0.090720385 0.29406145 0.097653255 
0.015340157 -0.05528075 -0.21449798 0.054352053 0.2609679 -0.12656288 0.2312269 -0.1236395 0.070490345 0.016461292 0.0861217 0.037131026 -0.05001452 0.19305378 -0.3517348 -0.20580217 -0.09261513 0.1853782 -0.29903597 -0.21627808 -0.11992239 0.11874099 -0.025744392 -0.052634876 -0.21320586 -0.10717767 0.01720766 0.17103754 0.26627406 0.32796952 0.067839876 0.08725674 
-0.09725147 0.09429593 0.23519178 0.072005294 0.06448551 -0.21084821 0.089298636 -0.21854553 0.15647267 0.16012618 0.12171192 0.23800325 -0.29966798 0.06276141 0.17551777 -0.25442234 -0.05106003 -0.2718526 -0.06722838 -0.024471829 -0.008865963 0.2220787 0.30583647 0.10163933 0.31944686 0.12725192 0.16991384 0.07878568 0.045613978 -0.15851821 0.023206104 -0.25186357 
0.28234833 -0.19225942 0.1448749 -0.032601006 0.0442714 -0.47461995 -0.09261186 0.0759179 -0.042258818 0.06936946 0.29322335 0.21723841 -0.34678578 0.15134963 0.2139044 -0.10388406 -0.26255068 0.16451061 0.03312314 -0.16434203 0.10573177 0.09189767 0.012665537 -0.1607353 0.093162335 0.077882595 0.1467539 -0.22039902 0.17942017 0.076475225 0.06553004 -0.12651628 
0.39235064 -0.13628161 0.15748863 0.039006077 0.12389831 0.16948028 0.25607014 0.2687108 0.10796672 -0.25382593 0.07789094 -0.12342623 -0.14848216 0.10766607 -0.16151103 -0.04113429 0.011328037 -0.13407879 0.028939886 0.15902977 -0.11487303 -0.28052154 0.07144093 0.12375601 -0.028004432 -0.06500853 -0.18293002 -0.103987254 -0.18998289 -0.2893256 -0.012962721 -0.14385003 
-0.012149998 -0.20510443 0.10998996 0.20230663 0.17276503 -0.035054523 0.08769733 0.0024434805 -0.1911764 0.009302693 -0.106502436 -0.17472139 0.062070202 0.25016603 0.07175228 0.08055256 0.22464868 -0.026985398 -0.23847087 -0.021083245 0.10010725 -0.00026574676 0.14390583 -0.19004327 0.01156597 -0.10491297 0.05686311 0.006502007 0.11055801 0.011724138 0.281036 -0.20157531 
-0.025690807 -0.010524078 0.20603628 -0.10395971 -0.07180348 -0.051142193 -0.2993181 0.26358715 0.09872416 0.16328718 -0.2108504 0.037036985 -0.217971 0.13434263 0.075546384 -0.032314308 0.02318717 0.040703382 -0.10388711 0.25114396 -0.19883777 -0.0047004637 0.1294754 -0.18037626 -0.019601122 0.16467646 0.2759978 -0.041364934 0.12380934 -0.21212506 0.044202287 -0.07084979 
0.23928049 0.1696758 -0.084097 -0.1835828 -0.11469135 -0.02420099 -0.22405058 0.04981563 -0.18476708 0.18278402 -0.16416503 0.2707033 -0.16996726 0.14502843 -0.052705623 0.16173957 -0.15860188 0.037036236 -0.10717328 -0.0034205914 0.07212482 0.006349878 0.21724784 -0.24206424 -0.0066277995 -0.20103884 0.15341929 0.20727466 0.07409547 0.01864418 0.24719618 -0.25682378 
0.08810507 0.096213095 -0.24548826 0.24549606 -0.021450395 0.02260079 -0.102297306 0.13903104 -0.21232742 0.25042596 0.27811813 -0.109761514 -0.052658755 0.043345243 0.051965367 -0.12873806 0.18811192 -0.07453519 0.2643927 0.09687115 0.0053455373 -0.13396177 0.24346948 0.10928195 0.21697876 0.09761749 -0.029045245 -0.14493978 -0.08548498 -0.16614226 0.2558818 -0.031393927 
32
0.1047551 0.022523593 -0.049396005 0.0097057205 0.058850687 0.007023428 -0.0351969 -0.022361007 0.015927065 0.19874546 0.06533914 -0.007514187 -0.004315328 0.09250654 -0.089960545 -0.031512793 0.0019286736 -0.02263858 -0.02660789 0.07148851 0.12444092 -0.028260013 0.011679152 0.010805659 0.102890395 0.021605497 -0.071682684 0.0021099143 0.016684825 0.019303165 0.08702716 -0.071209475 
32 32
-0.14517637 0.07265236 0.25271827 0.06408723 -0.264382 0.32532045 0.31276962 0.4197959 -0.18521683 -0.13622504 0.24826664 -0.2629339 -0.19958478 0.1457126 -0.44234124 0.37700897 -0.22003236 0.18761112 0.01498029 -0.012034909 0.29061356 0.15244749 0.0015026536 -0.40595606 -0.30109766 -0.13188176 -0.0038000029 -0.34189305 0.28475565 0.12775941 0.058874052 -0.27888194 
0.055193767 -0.19314644 0.020521337 -0.03434343 0.28306106 -0.12463326 0.12913656 0.13950601 0.2470828 -0.20038003 0.20555402 0.049344886 0.31454337 -0.18503766 0.1547974 0.21231413 0.21562625 0.17895988 -0.22833416 -0.21213856 -0.30568045 -0.34133136 -0.012383739 0.03317316 0.12615032 0.195559 0.0032895699 -0.09511234 0.25767812 -0.15443754 -0.08902096 0.27106285 
0.21049649 -0.16177824 -0.033750705 -0.04959043 -0.4577553 -0.021620605 -0.27909 -0.24361718 0.06871143 -0.35741162 0.11156229 0.3581226 -0.02636414 0.09264788 -0.06146519 -0.30835435 -0.09088583 0.1771793 -0.07954024 0.28994635 0.0623191 0.31026286 -0.108759575 0.044487618 0.13942865 0.066642284 -0.42801484 0.22170474 -0.31268686 -0.32868934 -0.28454822 -0.47067294 
0.28318647 0.13216111 0.019410107 -0.31921265 0.23506282 0.283262 0.064120315 -0.097166084 0.1757327 -0.27464387 -0.29860854 -0.30117485 0.016800938 0.17486086 -0.11488862 0.2287983 0.16800691 -0.29730612 -0.16668989 -0.30342084 -0.47726917 -0.22047246 -0.14296772 0.2355371 -0.23701003 -0.2081325 0.25552848 -0.056046885 0.039273992 0.27110747 -0.030472772 -0.23685959 
0.3031994 -0.3796589 0.34493425 -0.1118426 -0.05135916 -0.04506914 -0.2735653 -0.111273736 -0.0061214184 0.1457753 0.32233548 0.057734456 -0.1448572 -0.13490489 0.04246442 -0.40306103 -0.116728574 -0.15974173 -0.2928499 -0.19772501 0.24234894 -0.02342773 -0.3441127 0.25954765 0.1452848 -0.22481571 -0.029293617 0.08338323 -0.14318125 -0.01921415 0.27607113 0.039861716 
-0.17143033 0.25888073 0.25221035 -0.22113161 -0.54265934 -0.17867443 0.12284144 -0.1695655 0.3056205 0.00054147217 -0.1028827 -0.62206936 0.08350085 -0.7453354 -0.3790622 0.24826819 -0.0416279 -0.11046307 0.65311337 0.35139844 -0.32549995 -0.19908482 0.31710216 0.049190547 0.3581907 0.06047207 -0.040127233 -0.17104787 0.15660064 0.023703882 -0.027823038 0.0923355 
0.23560643 -0.24708864 -0.30552265 0.03379941 -0.18145782 -0.3508906 0.18447973 0.24879602 0.13906881 0.07182217 -0.22751802 0.21987467 0.022684395 2.5782485e-05 0.38763583 0.0033047695 0.015468124 -0.15831712 0.34470785 0.26750344 0.38470036 0.15180278 0.042896945 -0.086536095 0.016924623 -0.20113444 -0.045014344 -0.2943518 -0.24726336 0.07260393 0.23455343 0.06195847 
-0.1243971 -0.0055992277 0.1876459 0.21371658 -0.26173112 -0.1482961 -0.095265165 -0.055824988 -0.0998345 -0.09544216 0.1406977 -0.03039062 0.32504636 0.1832613 0.12560481 0.015191634 0.14424567 -0.027657395 -0.21100876 0.30833805 0.21072797 -0.16842002 -0.13608392 -0.21209663 0.2761457 -0.29518232 0.19470966 -0.31895372 0.18189442 -0.28440127 0.2868902 -0.010155249 
-0.10861212 -0.18151917 0.00095713895 -0.12099757 0.11554439 0.26053742 -0.33747888 0.107575595 0.009390979 -0.023158563 -0.11135116 -0.021344956 -0.17548145 0.14791185 -0.089168124 0.056967568 0.31142536 -0.29839027 -0.18306457 -0.13127854 -0.28028217 -0.03796996 -0.23392624 0.073749766 -0.32720885 -0.31074515 -0.07891543 -0.13609831 -0.35855013 -0.21809328 -0.17171505 0.08456943 
0.23390207 0.26252887 0.13902108 -0.29601577 0.27328417 0.19245194 0.03935034 0.09345634 0.053307053 -0.28335673 -0.07370817 -0.23943612 0.09587 -0.27374208 -0.14869522 -0.22053495 0.08603279 0.054147832 0.29279083 -0.23694295 -0.17578292 0.049946785 0.00910467 -0.044840276 -0.39175814 -0.3131185 0.20661816 -0.07848716 0.2507603 -0.2624591 0.0926517 0.13648272 
0.237558 -0.26965496 0.09396162 -0.27962112 -0.18292186 0.06712988 -0.07674823 0.16397604 -0.3202851 0.012065793 0.3943462 -0.052321408 -0.1855417 -0.1815952 -0.0787861 -0.3650019 -0.2851204 -0.15923698 -0.11457826 -0.16712697 0.05900628 0.17822923 -0.088178106 0.0034210556 0.08712119 0.25214103 0.28177738 0.14661142 -0.20362462 0.19714835 0.2417144 -0.4786312 
0.19430648 -0.36354956 0.22307925 -0.10558716 -0.15465307 0.26415342 -0.3376302 -0.21928704 -0.17818177 0.26400116 0.21780606 0.2614632 -0.11181607 -0.11888209 -0.34661353 -0.15030503 0.18544525 0.060153216 -0.1337246 -0.110323295 -0.057514686 -0.16067858 0.15196808 -0.3769289 0.33758807 0.21603152 -0.24410333 -0.17699488 -0.073558494 -0.4586784 0.13013545 -0.17906126 
-0.07831783 -0.19133788 0.385571 0.14128219 -0.36143595 -0.08444028 -0.14233987 0.08901428 -0.4805236 -0.011923864 0.2940302 0.42286605 -0.34090945 -0.15780899 0.46699655 -0.3178122 -0.18398434 -0.22838005 -0.4269586 0.33566117 0.42439055 -0.045871604 -0.28704688 -0.03280232 0.32220715 0.19887313 -0.012330239 -0.26827723 -0.5887489 -0.045349 0.3293304 -0.061835073 
0.1681121 -0.21649499 0.2386071 -0.236005 -0.08737584 -0.025506692 0.27633274 0.3076929 0.17555755 -0.20878702 0.08768606 0.14741169 0.2655601 -0.30464727 -0.29387283 0.2009329 0.093452275 0.18204272 0.16072802 -0.1222587 -0.28166875 0.13426852 -0.018823804 -0.08185901 -0.10467508 -0.223737 -0.22217724 -0.06362313 0.2164247 -0.108619004 0.10065668 0.16082068 
-0.2683199 0.1748162 0.23223712 -0.23776731 0.020740101 -0.11874999 0.08154868 -0.17246565 0.07668442 0.17911716 -0.023114325 -0.23901118 -0.102118984 0.3196621 -0.5252229 0.1105822 -0.3138308 -0.08408299 -0.25881687 0.41284811 0.21156128 -0.0054845125 -0.23223543 -0.14943053 0.005965037 -0.11870448 -0.34386602 -0.014225432 -0.059046548 0.096775025 -0.25249255 -0.39788213 
-0.16272607 0.2006333 0.1311773 0.21801175 0.2600089 -0.22986029 0.057636373 0.019514311 -0.1637499 0.12541875 -0.38909268 0.022732483 -0.022277746 0.2973218 -0.102996774 -0.027590292 -0.14549941 -0.16628268 0.47690058 -0.038910374 0.17211695 0.15132809 0.015734162 0.4134391 -0.16428004 -0.23595336 0.24645182 -0.17357616 0.23053545 0.12799326 -0.09301044 -0.09536226 
0.10199639 0.3476634 0.054081533 0.013472321 -0.24827804 -0.25982973 0.026912691 -0.044268023 -0.11594342 -0.07758065 -0.262744 0.24539718 0.1401496 -0.31286293 -0.07739693 0.22932559 0.026038503 0.0048071435 0.2866124 0.054206613 -0.011489255 0.19297162 0.27740255 -0.09001949 -0.55344874 -0.10591918 0.3203248 -0.16307856 0.014225078 -0.1754114 -0.3892728 0.1771745 
-0.06415248 0.24220857 -0.21323998 0.07929778 -0.10938037 -0.2145934 0.29070815 0.30963963 0.25720978 -0.2069128 -0.20882854 0.25103632 0.11834205 -0.060249988 -0.059967894 -0.08990523 0.12444958 0.25324947 0.2960882 -0.08219752 -0.33453023 -0.25121412 -0.103091076 0.06823245 0.11818873 -0.17843379 0.33303738 -0.33860806 -0.050957195 0.21959716 0.13965361 0.25836283 
0.19784096 -0.14698143 0.1735744 0.114532076 -0.23092546 -0.08811264 0.18966402 -0.16416265 0.07465786 -0.34132257 -0.24492484 -0.12429889 0.077549666 0.3201417 -0.03673461 -0.1464342 0.21970741 0.14517199 -0.09428744 -0.095164895 0.06626091 0.3504747 -0.1811504 0.13332638 0.1840551 -0.30107802 0.17351487 -0.17455228 -0.25584877 -0.19668403 -0.05245916 -0.1913931 
0.067121975 0.037448555 0.11561269 -0.16429316 0.23762475 0.01668927 0.130478 0.21369922 -0.057301283 -0.09307968 -0.38471708 -0.1112463 0.37817046 -0.19727369 -0.033456147 0.18369718 0.18221112 0.38380802 0.021789014 -0.029297562 0.2504002 -0.31661913 0.03746002 0.013225388 -0.46687433 -0.29235935 -0.2677426 -0.30857888 -0.045781188 0.10995581 -0.16722243 0.31488165 
-0.21982528 0.2104271 0.10821164 0.16880837 0.24095047 0.34523347 -0.1676589 0.2888822 -0.1675984 -0.21275494 0.06794849 -0.23476976 0.120483786 0.03402664 -0.28030387 0.0027965652 0.14363201 0.20479341 -0.34128976 -0.16622126 -0.408937 0.16149223 0.012349103 -0.03655077 0.05860572 -0.052136265 -0.104913555 -0.08109292 -0.028425936 -0.0016723953 0.2923532 -0.0898135 
-0.22181284 0.25176984 -0.069548145 0.11916518 0.2016853 0.1727383 -0.20868012 0.062326353 -0.20114572 -0.22475256 0.17580168 -0.07934252 -0.19100724 0.06457888 0.036247384 -0.134628 0.055537265 -0.3305115 0.28543508 -0.108164184 -0.0597629 -0.18528186 0.12203653 -0.030563403 0.08715897 0.05334403 -0.07874232 -0.27260205 0.18293242 0.09285919 -0.08498863 -0.41786337 
0.30227855 0.22925326 0.1828731 0.061168298 -0.26216233 0.029617323 -0.08077241 -0.31504622 -0.48592117 0.07546091 -0.24028926 0.08927958 -0.093746156 0.17461213 -0.09581129 -0.35862374 -0.0762682 -0.26920798 0.045520462 -0.2839032 0.31053528 -0.03764346 -0.4382743 -0.08004407 -0.03462956 -0.23955321 -0.03635477 0.12564453 -0.34975034 -0.006696972 0.13073348 -0.2640574 
-0.17465122 -0.12046588 0.23181796 -0.061837018 0.12646383 0.13525054 0.28404337 -0.0903157 0.24013703 0.12546438 -0.023736648 -0.26323304 -0.015734624 -0.29233608 0.39919293 -0.06786927 0.1158843 0.3457295 0.1541647 -0.2555039 0.2894893 0.07126741 -0.18349051 0.27730107 -0.39211205 -0.29791343 0.3210068 -0.10386966 0.031011065 -0.08424486 0.2685174 0.14273351 
-0.11148466 0.3464234 0.342708 -0.25419715 -0.10043908 0.23083778 0.2564884 0.046601675 -0.16467914 -0.13211633 0.30460092 -0.3171098 -0.12037411 0.18923302 -0.47412267 -0.21447699 -0.15605819 0.08306811 -0.22483999 0.30014786 0.20925148 0.31248927 -0.06047048 -0.4127304 0.050729062 -0.085205786 -0.41473815 0.052087694 0.31505486 0.14620374 -0.026702242 -0.1399963 
0.112238094 0.2672943 -0.31898642 0.1592618 -0.07246926 -0.396317 -0.15188958 0.15705638 0.26816225 -0.16111253 -0.015292825 0.1589986 0.35710803 -0.227011 0.15617885 -0.20850629 -0.088088654 -0.22063199 -0.20574462 0.26164502 0.21827488 -0.69703686 0.23798834 0.1561108 0.15296957 0.077892296 0.106996305 0.02358253 0.24035998 -0.21831627 0.16758068 -0.101705566 
-0.29917797 -0.017572105 -0.17179751 -0.23338962 0.16641212 -0.0768477 -0.012794109 -0.2066049 -0.19928935 0.05613261 0.056742437 0.31458995 0.2791777 -0.12384366 0.09065185 0.19206035 0.10679987 0.0765312 0.2502731 0.062962055 0.1645344 -0.35952863 0.08290779 0.17497131 0.013496463 -0.23676747 0.1707288 -0.11865615 0.12781714 0.052638445 -0.0675546 -0.10539494 
0.074627765 -0.07689508 -0.023859654 0.096563 0.2650652 -0.25685534 -0.16271737 0.010037532 0.24556148 0.31039485 -0.26231515 0.3560222 0.103293814 0.03209989 0.2472023 -0.05161579 0.25552228 0.109826796 0.22101566 0.021232849 0.08681942 0.07270838 0.1833652 0.31576708 -0.13977711 0.0823331 0.20464428 -0.123579435 -0.0055383076 -0.09945335 0.06783555 -0.054364804 
0.2757005 -0.08703504 0.03510938 -0.22959909 0.19243172 0.27669117 -0.27821374 0.27319154 0.30227518 -0.3467252 -0.16108665 0.28100133 0.10800344 0.3346717 0.1083545 0.012383488 0.192927 -0.2201166 -0.38031408 -0.28885797 -0.09451875 -0.115163825 -0.14663969 0.20095 -0.00015933067 0.21728183 0.13573925 -0.05432599 -0.0060620042 0.20558536 -0.19007988 0.06827378 
-0.29793483 0.22292426 0.12329271 -0.27566576 -0.22964323 0.12939872 -0.27366677 -0.12581949 0.1580888 0.046745922 0.23547013 0.2590019 0.05105703 -0.037012972 -0.45527425 -0.062907495 0.15932497 -0.37780485 0.08359639 0.082397416 -0.4303842 -0.17757577 -0.037241474 0.16604167 -0.07328289 0.1864703 0.07600448 0.06847445 -0.24521704 0.016227655 0.28704274 0.21448056 
0.31188056 -0.28669444 0.10907914 0.06061529 -0.0646989 0.3760138 -0.05594098 0.1260236 -0.09973199 0.11530185 0.30326805 0.17532024 -0.006278217 0.061811242 -0.4324351 0.22859888 0.096796304 -0.1689066 -0.001290416 -0.2415509 -0.5605197 0.32941622 0.22438796 -0.23422365 0.07162527 0.0029585077 -0.17764802 -0.17750835 0.168107 -0.3117822 0.07691815 -0.22068346 
0.0216272 -0.06715839 -0.3499497 -0.124621585 0.22731788 0.105074786 -0.23518498 -0.13258222 0.22817244 -0.3115676 -0.11173632 0.16904657 0.010510437 0.23987728 0.34165776 -0.1526401 -0.15947022 0.18569021 0.24390654 0.009370119 -0.07815701 -0.20334668 -0.23087637 0.05458559 -0.41567844 0.059269752 0.32870802 -0.26023105 0.26903063 0.053656667 0.043034002 0.35094386 
32
0.06785564 0.056642637 0.071720935 -0.04929866 -0.039596524 0.07273117 0.083465636 0.12522145 0.021754026 -0.12175854 0.054763563 0.001332205 0.014976461 -0.055828564 -0.04460283 -0.021252053 -0.026407968 0.068214856 -0.12122418 -0.079025984 -0.027435549 0.05968505 0.07963334 -0.066233285 0.0006467687 -0.0338431 -0.063027896 -0.045858946 0.11504684 -0.0121596595 0.042489186 -0.029867217 
32 32
-0.0634564 -0.29036224 0.069367506 -0.1193688 0.1125913 0.008232411 0.03828382 0.2734461 -0.1497021 -0.37454277 0.19802321 -0.26535666 -0.111023694 -0.12064671 0.27921876 0.11619041 0.018680291 -0.26596504 -0.002605116 0.07184446 0.12464143 0.08590397 0.3408597 0.25910386 -0.27097696 0.09467828 -0.31632778 0.13763386 -0.15726 0.1576556 -0.079087876 -0.090609185 
-0.38222492 0.38890228 -0.268286 0.2905711 0.15394557 0.14853205 0.24098246 -0.034212835 0.1308567 -0.094219245 -0.13063672 0.1555303 -0.024174338 -0.061582565 0.039318632 0.27207154 -0.21938653 0.18480477 0.13044888 0.3024884 0.29233524 -0.132329 0.18183218 -0.10130389 -0.22070265 -0.38099712 -0.19860652 -0.16906437 0.019710409 -0.103580676 -0.098275155 0.07090048 
-0.17801866 -0.22953492 -0.15666 -0.102821305 0.15088652 0.2954453 0.076832004 0.16454728 0.10683667 0.05173834 0.11978252 0.16231996 -0.06144655 0.09927518 0.112749286 0.26952398 0.18499497 0.06391875 -0.2277108 0.43782356 0.22521797 0.37487286 -0.26144037 0.15868834 -0.28483826 -0.081889465 -0.051874958 -0.12806241 0.24010482 0.32507133 -0.006668615 -0.31249505 
0.21461953 -0.2994404 -0.057732273 -0.24689494 -0.201255 0.14379765 -0.110763624 0.10868879 0.117382705 0.008929133 -0.13573402 0.016326213 -0.09326491 -0.09980973 0.2662247 0.13750274 -0.22578518 -0.24148524 0.24890348 -0.075372286 0.16680534 0.20510456 0.019079415 -0.12635145 0.27317196 0.035166413 -0.15528415 -0.06451628 0.1316858 -0.25739825 -0.09375752 0.05682611 
-0.3495514 -0.1115608 0.020710189 0.2665399 0.08845279 0.045024212 -0.17112778 -0.35022372 -0.13962246 0.09350177 -0.20993833 -0.18707424 -0.13104022 -0.28596115 0.057985015 0.28988817 0.17236613 -0.15226094 0.18474197 0.03491364 -0.33214375 0.18974353 0.16013339 -0.18066385 -0.22260019 -0.06769195 0.040437456 -0.2312221 -0.00812056 0.023833208 -0.19943675 -0.01782072 
-0.32112092 0.15418136 0.25937524 0.31328455 0.22730497 0.23573543 -0.020519774 -0.22869517 -0.04912314 -0.31924474 0.05876108 -0.070124365 0.08204648 0.33012182 -0.020683236 -0.19052503 0.2009136 -0.16237664 -0.11740487 -0.11493179 0.06558554 0.28742343 -0.3357549 0.107525714 0.118958615 -0.27183464 -0.11523987 -0.23150532 -0.016597593 0.31399655 0.11507221 0.24024537 
-0.18860711 0.40980425 -0.23428586 0.240424 0.16256937 -0.095510796 0.10934859 0.2069283 -0.40255427 -0.18500894 0.17011505 -0.089042865 0.10765767 -0.011084471 -0.3419095 0.2426677 0.013652389 0.086092874 0.07475009 -0.007567691 0.027446564 0.183101 0.32391754 0.06394889 -0.21563731 -0.1988803 0.04065943 0.2533813 -0.09083659 -0.19991282 0.28010258 -0.3156105 
-0.31161016 -0.078600526 0.12156219 -0.15077195 0.12382835 -0.26933518 -0.28313833 0.08239918 -0.07362434 0.10688847 0.14739342 -0.08058678 0.23420152 0.05380399 0.30774558 0.0077482224 -0.2002745 -0.34750402 0.32692826 -0.07026348 0.18546443 0.066679 0.32709864 0.028038833 0.19015434 -0.18661329 0.12590834 -0.25482893 0.108740084 0.033441994 0.13316447 -0.084077895 
0.055288028 -0.77401656 0.1136282 -0.1750007 -0.07349854 0.023183063 0.14350604 0.18822578 -0.10117856 -0.14265898 -0.20878628 0.21125548 -0.1943236 -0.07711495 0.19106361 0.28214368 -0.38705686 0.21706106 0.24697237 0.17456923 -0.3342073 0.099678256 0.28887093 -0.28377035 0.13151592 -0.18962839 -0.05961999 -0.15986492 0.16810842 0.28134528 0.111018844 0.10440372 
0.1329987 0.40538013 0.07128855 0.15371656 -0.05375515 0.0645156 -0.1894803 0.25048897 0.23018855 -0.22747892 0.1693917 -0.20992246 -0.015680075 -0.2382133 -0.13956472 0.36952218 -0.2092341 0.049048886 -0.21767084 -0.19601549 -0.17694892 -0.34347412 -0.08586115 0.038401607 0.3338211 0.21220101 -0.11313893 -0.11729386 -0.011392903 0.022972986 0.0040222714 0.1865329 
-0.11995859 0.23364948 0.09232849 -0.18443316 0.29942286 -0.010729826 -0.116785295 -0.3563842 0.10020288 -0.26475722 -0.3011989 0.14710131 0.10063358 0.2424054 0.14480603 -0.031528536 0.2373604 -0.18359634 -0.24622197 0.053375196 -0.10724213 0.13232973 -0.17238744 0.26921642 0.00730782 -0.41356596 0.14771813 -0.12890269 -0.32504597 -0.28653306 -0.34514606 -0.33128858 
0.10958017 0.7133409 0.25220856 -0.33569577 -0.21681832 -0.1481927 -0.120782055 0.101867266 0.30292916 -0.3034404 0.09637376 0.25272092 -0.42894307 0.21781597 0.303336 -0.08048142 0.26616734 -0.22420353 -0.07192355 -0.3319277 0.23905584 -0.020175299 0.1956232 0.35469195 -0.20024942 0.01783116 -0.09607156 -0.16643758 0.17262602 -0.29392132 -0.29286066 0.08800199 
0.036540017 0.19623433 0.1903316 -0.30648205 -0.11661963 -0.07804936 0.22803603 -0.007726116 0.107637644 -0.04058397 -0.22900108 0.2931884 -0.43103167 0.0017151223 -0.38519403 -0.0389782 -0.049352378 -0.20830923 0.3322709 -0.06277006 -0.10545889 -0.2166633 -0.0912394 0.0076820417 0.09078706 0.32866955 -0.058078185 0.21413213 0.33745062 0.11287366 0.254101 -0.26936153 
0.32705274 0.15196338 0.02154781 -0.067505755 -0.28120726 0.075066015 -0.2730767 -0.06757327 -0.2200087 -0.2553086 -0.37163636 0.1842999 -0.3958799 0.17743258 0.008766842 -0.22242388 -0.14286569 0.09871694 0.014040923 0.032235663 0.013496264 0.11085682 0.13058668 -0.082841925 -0.23067011 0.16252248 -0.13989848 -0.13968356 0.07814056 0.041299805 -0.29452884 -0.17115587 
0.3471777 0.03410665 0.349898 -0.055922203 -0.23689495 0.19878127 0.107137814 -0.24708048 0.115534514 0.048030734 0.017949264 -0.55423063 -0.4150408 0.39373422 0.48365447 -0.23660712 0.350534 -0.23260556 -0.5203824 0.06001149 -0.11231785 0.117416255 -0.39065117 0.17315878 -0.2761527 -0.3003705 0.18134998 -0.15457326 -0.44270292 -0.49140456 -0.2198179 -0.21520622 
-0.23551004 0.05540186 -0.03667213 0.38119295 -0.18449719 0.030210242 0.05337941 -0.023271041 0.006081705 0.111639515 0.28599912 0.14101985 -0.17129225 -0.010260412 -0.19440949 -0.053212564 0.095870405 0.10155329 0.05909989 0.29546046 0.05074357 -0.23101495 -0.05215265 -0.2310522 -0.09969845 0.089496434 -0.08795105 -0.30091715 0.03876523 0.29370695 -0.21011806 -0.029445896 
0.018690504 -0.29982042 0.17015584 -0.24410035 -0.27376544 -0.23753709 -0.07424548 0.1474977 0.25614432 -0.30833516 0.23480694 -0.21482754 -0.29170427 -0.13020667 -0.030537598 -0.14980088 0.02992479 0.086875916 0.2308568 0.24387984 -0.03755503 -0.2475153 0.06902992 -0.2271322 -0.3293945 0.10620685 -0.108033806 0.22982666 0.015000749 0.18911953 -0.016996253 -0.018231478 
-0.36168262 0.37199214 -0.073435314 0.112158954 0.4217394 -0.35549217 -0.24302064 0.2023198 0.0052252216 0.1477795 0.17010598 0.37755674 0.17532131 -0.3310231 -0.19552429 -0.08936218 0.06258392 -0.12284863 -0.008093013 0.17573936 -0.31267044 -0.13694017 -0.026667537 -0.18224074 0.10567017 -0.0048332866 -0.04578519 -0.25563282 -0.03936287 -0.23101701 0.42444494 -0.24428347 
0.14547426 -0.750366 0.057161342 0.03553634 -0.08345 -0.35610688 -0.1569581 0.27406293 -0.2931946 -0.2744742 -0.3345461 0.20958737 -0.7711982 -0.18976122 -0.045508884 -0.22489063 -0.58025897 0.17769183 0.15250286 0.090058595 -0.3445902 -0.2407159 0.15944518 -0.14656267 0.3328979 0.057119694 -0.19411594 -0.07297068 -0.049375173 -0.27906662 -0.076994985 -0.014672484 
0.12616546 -0.2699397 0.23609641 -0.017015608 -0.32601348 -0.3529605 0.29585037 0.24147823 0.09379412 -0.094585195 -0.014494435 0.07595776 -0.36234388 -0.21074265 0.4021071 0.09684197 -0.35002312 -0.027955828 -0.023826169 0.18303211 -0.20043567 0.12249512 0.0061388323 0.10558162 0.3199253 0.5566194 0.08498113 0.22775103 0.27133343 0.050736234 -0.1609904 -0.037831247 
0.25109982 0.5255996 0.35643739 -0.43538603 0.16521394 0.12627003 -0.29107782 0.6017118 -0.24617437 -0.00556594 -0.25457072 -0.058473274 -0.3342891 0.0933169 -0.37619913 -0.083245814 -0.07909517 -0.12540479 0.18572293 0.12297596 0.33805612 -0.14406537 -0.40663534 -0.4428828 0.086171195 0.4944856 -0.12567551 -0.0147518 -0.3120249 -0.23427868 0.1661226 0.12943107 
0.07377301 -0.01473293 -0.27473962 -0.6099289 0.24504197 0.17129268 0.12882009 0.1537241 -0.110712156 -0.15503109 -0.47978625 -0.24571091 0.043742146 0.07653841 0.23878086 -0.17327955 -0.0004423991 0.16684902 0.0766378 0.0084566185 0.16483784 -0.22005986 0.021119323 -0.22418815 0.23680827 -0.21689811 -0.079212755 0.10464185 -0.048517395 0.35401663 -0.15410651 0.045355726 
-0.15316886 -0.18398137 0.001959078 -0.23082532 -0.23316678 -0.032781538 -0.11923036 0.18931903 0.49094298 -0.016180402 0.05014348 -0.10599945 0.89185953 -0.051407848 0.07739969 -0.29754183 0.042912 -0.20136768 0.12051719 -0.035907175 0.22832873 0.13992272 0.13900594 -0.26163304 0.29588413 -0.16745609 0.21848184 0.1515837 -0.30390006 0.027055882 0.17293577 -0.29776496 
0.13572037 -0.39317402 0.28975236 -0.3508611 0.10480944 -0.33591202 0.058776323 -0.12980422 0.18488468 0.24264279 -0.3763218 -0.21908113 -0.27769893 -0.3503454 0.15269925 -0.14490427 0.17078702 -0.04299118 0.2090217 0.18768172 -0.21849364 -0.32829374 -0.06677958 -0.03783744 -0.19923201 -0.24416064 -0.12160489 0.09166003 0.0700013 -0.24330139 -0.046002824 -0.014209919 
0.12559332 -0.1733259 0.10711456 0.1605181 -0.098657034 -0.48678228 -0.04865443 -0.07416142 0.30411148 0.0093936175 -0.02038082 -0.23693569 -0.043249812 0.03518952 0.12253647 -0.4895005 0.008784604 0.21714167 -0.10827875 0.61883163 0.21071412 -0.10582392 -0.13673861 0.4116239 -0.23716415 0.30170447 -0.25516915 -0.25953776 -0.64955 -0.10062084 -0.3978986 0.10153094 
0.27294773 0.28954118 0.15686297 -0.26162902 0.10203702 -0.16839702 -0.26839897 -0.11905729 -0.27051058 0.16159958 -0.026616378 0.24372883 0.07192403 -0.07730124 0.21509114 0.06061863 0.23873538 0.22831604 -0.0960764 0.21536934 -0.028885059 0.2080548 -0.009379753 0.2569024 0.11392376 0.028611893 -0.257901 0.12651938 -0.04640156 0.027453557 -0.19267997 0.024038518 
0.04455674 -0.6449207 0.17936704 -0.59438604 -0.24996719 -0.18039401 -0.17763229 0.0714534 -0.18196239 -0.24552198 -0.031900555 0.075365275 -0.6038985 0.08014102 0.12835194 0.078477874 0.12334487 -0.106533885 0.21632025 -0.52529716 -0.30357313 -0.25532764 -0.09109423 -0.34152335 -0.13490352 -0.10312064 -0.15020157 -0.049588628 -0.18589905 -0.15306228 -0.28240287 -0.1098319 
0.15509653 -0.25524813 -0.13628288 0.27638063 -0.054095652 -0.17199484 -0.12540126 0.11488283 0.11007992 0.19184819 -0.0637819 0.09507806 -0.20424446 0.28319556 0.19080523 -0.13611977 0.081750676 -0.21134932 -0.20708588 -0.15922402 -0.080111764 -0.07287278 0.29293212 0.23272666 0.27190185 0.14678982 0.25572893 0.20912191 -0.14915118 -0.09353292 0.19151619 0.21136716 
0.06892566 -0.19944777 -0.061551522 0.35470676 -0.12426996 0.16097945 -0.31700903 0.057231773 -0.12041848 0.099188395 0.2558933 0.12601973 -0.022189073 -0.10971541 -0.12687023 0.12724894 0.19834091 -0.27038366 -0.01749368 -0.13588539 0.112859115 0.24721734 0.32954055 0.2383833 0.14784454 -0.06811897 0.052810896 -0.15271172 0.16825457 0.3265183 0.3219005 0.24632998 
0.26349723 0.14853857 -0.23607358 -0.07007831 -0.20659122 -0.10028689 0.35610452 0.008649398 -0.078944616 -0.21017122 0.11590568 0.22001435 -0.29491475 -0.08702608 0.22087692 -0.24118449 -0.035336416 0.23084687 -0.03163405 -0.16702968 0.28354222 -0.12976095 -0.18579611 0.037625052 -0.097327575 -0.09077029 0.24870972 -0.28394768 0.3469746 -0.16769056 -0.04775444 -0.29912803 
-0.099671416 0.106266506 0.07425206 -0.42937523 0.16401772 0.10103921 -0.23358019 -0.3165767 0.17400646 0.11567239 -0.16906548 0.21262355 -0.15597911 0.19405903 0.11260575 -0.20030019 0.037084337 -0.23197368 0.14371143 -0.013483373 0.2461955 -0.18061888 -0.04282129 0.1323556 0.23759754 0.012086357 -0.2766438 -0.15294299 -0.073596105 0.087655775 -0.0045381673 0.020250184 
0.16983858 -0.543537 0.15026487 0.086211875 0.10196732 0.06256642 0.32435036 0.23977423 -0.30938092 -0.16949405 0.30312726 -0.11176008 -0.85060495 -0.46248737 -0.16710486 -0.14759019 -0.40627012 -0.06973699 -0.05755265 -0.44849867 -0.07667199 -0.10235724 0.21473663 -0.07235247 -0.1901808 -0.096259676 0.2645761 -0.18539013 0.02762748 -0.07205079 0.05480524 -0.2711345 
32
-0.011969765 0.09885475 -0.05274428 0.031128414 0.19443122 -0.03610521 -0.008246791 -0.019974213 -0.060033187 -0.06522167 0.09060033 -0.010462704 0.09421376 0.094409466 0.06595029 0.02620649 0.046301637 -0.14246756 0.03593513 -0.08059626 0.06295351 0.06988023 0.04029609 0.059141256 0.021152135 0.020059858 -0.029330717 -0.05677027 0.04661868 0.2671275 0.044639207 -0.053215288 
32 32
0.24206622 -0.022473564 0.0076744067 -0.11701831 0.23096576 -0.20497343 0.07087296 -0.031030152 0.27837127 0.26368618 0.24352838 -0.05166464 -0.0937751 0.38729337 0.19977765 0.0084318565 0.07698014 0.03766315 0.2567282 -0.25229734 -0.28053504 -0.18412007 -0.32734847 0.26092282 0.44051847 -0.1037326 -0.17312993 0.21213853 0.248317 -0.09557839 -0.017044405 -0.07344165 
-0.21746069 0.29710853 -0.29825822 -0.00072770065 -0.1580126 -0.1120343 0.11974466 -0.24574198 -0.43862182 -0.20624912 0.15515521 -1.0157017 -0.021694198 0.030606851 -0.022702256 0.0710221 -0.6953376 -0.28443074 0.12808467 -0.053892385 -0.49023142 -0.36513552 0.0043137483 0.42430943 -0.8455007 -0.15983763 -0.29842815 0.12422875 0.12909126 0.39114562 0.040801585 -0.0035710742 
-0.17555583 -0.463962 -0.018703192 -0.162938 0.36693552 0.3029429 0.5654473 -0.05021398 -0.21039906 -0.02027164 0.026369615 -0.27660733 0.14042613 -0.35159838 -0.06317501 -0.30650818 -0.35261682 0.36891457 -0.2744471 -0.25432116 -0.19246699 0.30417463 0.10539074 0.15419953 0.44209632 0.040342268 0.420841 0.24348234 -0.09199048 0.09399184 0.050675992 -0.08796402 
0.04405172 0.095248826 -0.06343166 0.291312 0.0023151133 0.119825296 -0.07155127 0.1462404 -0.30610216 0.14551465 -0.023717673 0.4684577 -0.07626924 -0.015866172 -0.8033447 0.21262896 0.32984602 -0.5397496 0.13989106 0.016429503 0.07110034 0.1399765 0.022863597 0.19643553 0.29865164 0.2803469 0.04292365 -0.47609118 -0.52218544 -0.5966914 0.1288138 0.34865674 
0.3235986 0.23865949 0.2790809 -0.21223496 -0.112358786 0.19642521 -0.110751495 -0.28759307 0.020630037 -0.1735177 0.3893332 0.2728565 0.030081253 0.36758727 0.12635253 -0.0765289 -0.08165419 -0.0980403 0.24663512 0.2973848 0.16935721 -0.22189426 -0.2053334 0.1307872 -0.16047306 -0.0531889 -0.1840127 0.22451551 0.2616024 -0.21728113 0.0016496904 0.08231568 
0.229846 0.21848364 0.056914534 -0.088248946 0.21609323 -0.27603814 0.029983554 0.11311175 0.083560854 0.11934043 0.13938886 -0.24873488 0.03578663 -0.026936224 -0.052380852 -0.11459994 -0.08315044 0.071455434 -0.22401 -0.06647671 0.10400826 0.024980767 0.04683134 -0.20361939 -0.20947216 -0.11615548 0.22236596 -0.26816353 -0.09802143 -0.1258761 -0.124623224 0.1538442 
